<?xml version="1.0"?>
<opencv_storage>
<opencv_ml_svm>
  <format>3</format>
  <svmType>C_SVC</svmType>
  <kernel>
    <type>RBF</type>
    <gamma>1.</gamma></kernel>
  <C>1.</C>
  <term_criteria><epsilon>1.1920928955078125e-07</epsilon>
    <iterations>1000</iterations></term_criteria>
  <var_count>40</var_count>
  <class_count>2</class_count>
  <class_labels type_id="opencv-matrix">
    <rows>2</rows>
    <cols>1</cols>
    <dt>i</dt>
    <data>
      -1 1</data></class_labels>
  <sv_total>2000</sv_total>
  <support_vectors>
    <_>
      1.88679248e-02 0. 3.77358496e-02 2.26415098e-02 1.50943398e-02
      1.50943398e-02 2.26415098e-02 1.13207549e-02 0. 5.28301895e-02
      2.26415098e-02 2.26415098e-02 4.90566045e-02 5.28301895e-02
      2.64150947e-02 2.26415098e-02 3.01886797e-02 1.13207549e-02
      3.01886797e-02 1.50943398e-02 1.13207549e-02 1.13207549e-02 0.
      3.01886797e-02 4.90566045e-02 7.54716992e-03 0. 1.13207549e-02
      2.26415098e-02 2.64150947e-02 7.54716992e-03 1.88679248e-02
      1.13207549e-02 0. 1.66037738e-01 2.64150947e-02 6.03773594e-02
      2.26415098e-02 3.77358496e-02 0.</_>
    <_>
      2.45700236e-02 2.08845213e-02 2.21130215e-02 2.94840299e-02
      2.08845213e-02 1.35135129e-02 2.08845213e-02 3.19410302e-02
      2.70270258e-02 4.54545431e-02 3.31695341e-02 3.43980342e-02
      1.10565107e-02 4.91400482e-03 3.31695341e-02 2.33415235e-02
      2.33415235e-02 3.68550345e-02 2.45700236e-02 1.35135129e-02
      3.07125300e-02 1.47420149e-02 2.21130215e-02 2.94840299e-02
      3.31695341e-02 1.71990171e-02 3.19410302e-02 2.45700236e-02
      3.68550345e-02 1.22850118e-02 2.45700236e-02 3.68550345e-02
      3.31695341e-02 2.70270258e-02 7.37100746e-03 2.82555278e-02
      1.71990171e-02 2.94840299e-02 1.22850118e-02 3.56265344e-02</_>
    <_>
      4.60829493e-03 3.68663594e-02 1.38248848e-02 5.52995391e-02
      1.84331797e-02 0. 4.14746553e-02 4.14746553e-02 1.38248848e-02 0.
      4.60829493e-03 2.76497696e-02 1.29032254e-01 2.30414756e-02
      1.38248848e-02 4.60829493e-03 4.60829493e-03 4.60829493e-03
      4.14746553e-02 2.76497696e-02 1.38248848e-02 1.84331797e-02
      1.38248848e-02 2.30414756e-02 9.21658985e-03 2.76497696e-02
      9.21658985e-03 2.30414756e-02 1.84331797e-02 1.38248846e-01
      1.38248848e-02 4.60829493e-03 2.30414756e-02 4.14746553e-02
      3.22580636e-02 4.60829493e-03 9.21658985e-03 2.76497696e-02
      2.76497696e-02 1.38248848e-02</_>
    <_>
      3.71900797e-02 9.29751992e-03 2.53099166e-02 7.74793373e-03
      2.58264448e-02 2.16942132e-02 1.13636358e-02 9.29751992e-03
      9.81404912e-03 1.27066106e-01 3.92561965e-02 1.96280982e-02
      9.81404912e-03 3.61570227e-03 3.09917349e-02 2.37603299e-02
      1.75619833e-02 3.97727266e-02 2.42768582e-02 1.18801650e-02
      4.49380130e-02 1.49793383e-02 1.70454532e-02 1.13636358e-02
      2.27272715e-02 1.29132224e-02 5.01033030e-02 1.13636358e-02
      1.18801650e-02 1.08471066e-02 2.58264448e-02 8.16115662e-02
      3.25413197e-02 4.33884263e-02 1.13636358e-02 2.47933865e-02
      3.09917331e-03 1.70454532e-02 1.29132224e-02 3.40909064e-02</_>
    <_>
      8.03212821e-03 2.20883526e-02 1.20481923e-02 1.80722885e-02
      1.60642564e-02 6.02409616e-03 4.41767052e-02 2.40963846e-02
      1.80722885e-02 8.03212821e-03 1.80722885e-02 3.41365449e-02
      1.76706821e-01 7.63052180e-02 1.20481923e-02 8.03212821e-03
      1.60642564e-02 6.02409616e-03 1.00401603e-02 2.20883526e-02
      1.40562244e-02 8.03212821e-03 6.02409616e-03 3.41365449e-02
      1.20481923e-02 1.80722885e-02 6.02409616e-03 1.60642564e-02
      1.20481923e-02 1.08433731e-01 8.03212821e-03 6.02409616e-03
      2.00803205e-02 2.61044167e-02 5.42168655e-02 2.40963846e-02
      2.61044167e-02 2.61044167e-02 6.02409616e-03 1.20481923e-02</_>
    <_>
      5.60224103e-03 3.64145674e-02 8.40336177e-03 3.08123250e-02
      1.40056023e-02 1.12044821e-02 3.92156877e-02 1.12044821e-02
      4.20168079e-02 1.68067235e-02 2.80112051e-03 8.40336177e-03
      9.80392173e-02 2.80112051e-03 1.68067235e-02 2.24089641e-02
      2.80112051e-03 1.40056023e-02 2.24089641e-02 0. 1.40056023e-02
      8.40336177e-03 2.24089641e-02 3.64145674e-02 1.96078438e-02
      1.12044821e-02 3.36134471e-02 3.36134471e-02 1.68067235e-02
      1.26050428e-01 5.60224103e-03 2.52100844e-02 4.48179282e-02
      4.76190485e-02 2.52100844e-02 1.68067235e-02 5.60224103e-03
      3.64145674e-02 3.08123250e-02 3.36134471e-02</_>
    <_>
      5.37257642e-02 4.43821540e-03 1.49497781e-02 5.83975716e-03
      2.52277497e-02 3.69072631e-02 4.90539614e-03 4.67180554e-03
      1.16795143e-02 9.67063755e-02 3.29362303e-02 6.77411817e-03
      1.63513201e-03 9.34361131e-04 3.27026397e-02 2.17238963e-02
      1.86872222e-02 6.98434934e-02 1.79864522e-02 1.56505480e-02
      3.08339167e-02 2.91987862e-02 3.13010961e-02 5.37257642e-03
      1.44825978e-02 9.11002140e-03 7.52160698e-02 5.83975716e-03
      1.40154175e-03 2.80308351e-03 1.84536316e-02 9.60056037e-02
      3.36370021e-02 7.59168416e-02 3.50385415e-03 2.61621121e-02
      2.10231263e-03 7.00770831e-03 1.91544034e-02 3.45713608e-02</_>
    <_>
      2.56744996e-02 8.26805923e-03 4.61270660e-02 2.69799810e-02
      1.13141863e-02 2.48041768e-02 9.13838111e-03 2.22802430e-01
      6.00522161e-02 7.83289783e-03 1.61009561e-02 9.57354158e-03
      3.04612704e-03 2.74151433e-02 1.43603133e-02 2.91557871e-02
      2.61096600e-02 3.43777202e-02 1.74064394e-02 1.39251519e-02
      1.13141863e-02 7.00609237e-02 2.87206266e-02 7.39773689e-03
      3.17667536e-02 6.09225407e-03 3.30722369e-02 3.91644891e-03
      5.65709313e-03 7.39773689e-03 2.34986935e-02 2.56744996e-02
      1.61009561e-02 1.26196686e-02 7.39773689e-03 1.04438644e-02
      1.47954738e-02 7.39773689e-03 2.13228893e-02 2.08877288e-02</_>
    <_>
      1.14942528e-02 3.44827585e-02 4.98084277e-02 5.36398441e-02
      2.68199220e-02 1.14942528e-02 1.91570874e-02 1.91570874e-02
      3.83141753e-03 1.14942528e-02 1.53256701e-02 4.59770113e-02
      8.42911825e-02 3.83141753e-03 7.66283507e-03 1.91570874e-02
      1.91570874e-02 1.14942528e-02 3.83141749e-02 3.83141753e-03 0. 0.
      3.83141753e-03 4.59770113e-02 3.06513403e-02 3.83141749e-02
      1.14942528e-02 3.06513403e-02 3.06513403e-02 8.04597661e-02
      1.53256701e-02 1.53256701e-02 2.29885057e-02 3.83141753e-03
      4.21455912e-02 2.29885057e-02 7.66283507e-03 5.36398441e-02
      2.68199220e-02 2.68199220e-02</_>
    <_>
      3.76687981e-02 1.91897657e-02 1.91897657e-02 1.84790343e-02
      2.48756222e-02 2.13219617e-02 6.39658887e-03 1.13717131e-02
      2.62970868e-02 3.62473354e-02 3.83795314e-02 1.84790343e-02
      9.23951715e-03 2.41648909e-02 3.48258726e-02 2.34541576e-02
      2.27434263e-02 3.05614788e-02 3.55366021e-02 1.77683011e-02
      3.19829434e-02 4.69083153e-02 3.83795314e-02 1.42146414e-02
      1.99004970e-02 1.49253737e-02 2.27434263e-02 1.70575697e-02
      2.20326949e-02 1.56361051e-02 2.34541576e-02 3.41151394e-02
      4.19331938e-02 3.69580686e-02 1.20824454e-02 2.20326949e-02
      2.48756222e-02 2.06112303e-02 2.55863555e-02 3.83795314e-02</_>
    <_>
      2.18931101e-02 1.54539607e-02 3.73470709e-02 1.86735354e-02
      1.86735354e-02 1.73857063e-02 1.48100462e-02 1.08177722e-01
      5.85962683e-02 2.06052810e-02 2.89761759e-02 1.54539607e-02
      1.99613664e-02 1.48100462e-02 2.76883468e-02 2.70444304e-02
      1.80296209e-02 2.51126867e-02 3.41274962e-02 9.65872593e-03
      1.80296209e-02 2.96200924e-02 3.09079215e-02 2.57566012e-02
      3.79909873e-02 1.09465551e-02 2.18931101e-02 1.93174519e-02
      2.38248557e-02 2.70444304e-02 2.12491956e-02 2.25370266e-02
      2.76883468e-02 1.48100462e-02 1.48100462e-02 1.60978753e-02
      7.72698037e-03 1.60978753e-02 3.54153253e-02 2.57566012e-02</_>
    <_>
      1.96969695e-02 3.18181813e-02 2.27272715e-02 1.36363637e-02
      2.12121196e-02 2.87878774e-02 6.81818128e-02 5.45454547e-02
      1.51515147e-02 2.57575754e-02 2.72727273e-02 3.63636352e-02
      3.18181813e-02 3.03030293e-03 2.42424235e-02 1.21212117e-02
      6.06060587e-03 3.33333313e-02 2.27272715e-02 6.06060587e-03
      1.36363637e-02 1.36363637e-02 1.96969695e-02 3.33333313e-02
      3.03030293e-02 1.51515147e-02 3.33333313e-02 4.39393930e-02
      3.03030293e-02 3.78787853e-02 2.87878774e-02 1.36363637e-02
      3.63636352e-02 2.27272715e-02 6.06060587e-03 2.12121196e-02
      1.66666657e-02 2.87878774e-02 1.81818176e-02 3.18181813e-02</_>
    <_>
      2.11864412e-02 1.69491526e-02 5.50847463e-02 4.23728824e-02
      8.47457629e-03 1.69491526e-02 8.47457629e-03 0. 4.23728814e-03
      3.38983051e-02 2.11864412e-02 1.27118640e-02 6.77966103e-02
      3.38983051e-02 2.54237279e-02 2.11864412e-02 2.54237279e-02
      1.69491526e-02 5.50847463e-02 2.11864412e-02 0. 8.47457629e-03
      2.11864412e-02 4.23728824e-02 2.96610165e-02 4.23728814e-03 0.
      2.96610165e-02 3.81355919e-02 8.47457647e-02 1.69491526e-02 0.
      8.47457629e-03 4.23728814e-03 8.89830515e-02 1.69491526e-02
      2.96610165e-02 3.81355919e-02 2.96610165e-02 0.</_>
    <_>
      0. 0. 9.25925970e-02 0. 3.70370373e-02 0. 0. 3.70370373e-02
      1.85185187e-02 0. 5.55555560e-02 0. 7.40740746e-02 0.
      1.85185187e-02 0. 3.70370373e-02 3.70370373e-02 1.85185187e-02
      3.70370373e-02 0. 0. 0. 1.85185187e-02 0. 1.85185187e-02
      3.70370373e-02 3.70370373e-02 3.70370373e-02 7.40740746e-02
      1.85185187e-02 1.85185187e-02 1.85185187e-02 1.85185187e-02
      1.85185187e-02 3.70370373e-02 5.55555560e-02 5.55555560e-02
      1.85185187e-02 5.55555560e-02</_>
    <_>
      1.91256832e-02 5.46448072e-03 1.63934417e-02 1.09289614e-02
      1.63934417e-02 1.77595615e-02 9.56284162e-03 6.83060102e-03
      1.36612018e-03 2.67759562e-01 2.73224036e-03 6.83060102e-03
      5.46448072e-03 2.73224036e-03 1.36612020e-02 8.19672085e-03
      1.50273219e-02 9.56284162e-03 1.36612020e-02 5.46448072e-03
      1.09289614e-02 5.46448072e-03 4.09836043e-03 6.83060102e-03
      1.50273219e-02 4.09836043e-03 1.36612020e-02 2.73224036e-03
      5.46448072e-03 4.09836043e-03 2.04918031e-02 3.75683039e-01
      1.63934417e-02 2.73224036e-03 1.09289614e-02 1.63934417e-02
      9.56284162e-03 8.19672085e-03 6.83060102e-03 5.46448072e-03</_>
    <_>
      4.30107526e-02 2.68817209e-02 1.88172050e-02 2.41935477e-02
      1.61290318e-02 1.88172050e-02 1.34408604e-02 1.07526882e-02
      5.37634408e-03 1.07526882e-02 5.91397844e-02 1.07526882e-02
      2.95698922e-02 6.18279576e-02 4.30107526e-02 5.91397844e-02
      8.06451589e-03 1.61290318e-02 2.68817209e-02 3.22580636e-02
      2.68817204e-03 2.41935477e-02 4.56989259e-02 1.07526882e-02
      2.15053763e-02 2.15053763e-02 1.61290318e-02 2.68817209e-02
      1.07526882e-02 2.41935477e-02 2.41935477e-02 8.06451589e-03
      3.49462368e-02 1.34408604e-02 2.95698922e-02 1.61290318e-02
      5.37634417e-02 2.41935477e-02 4.30107526e-02 1.34408604e-02</_>
    <_>
      2.27272715e-02 1.93181820e-02 1.24999993e-02 2.27272715e-02
      3.97727266e-02 1.02272723e-02 4.09090891e-02 6.81818184e-03
      1.13636358e-02 6.02272712e-02 1.93181820e-02 1.59090906e-02
      4.54545431e-02 1.13636360e-03 1.47727272e-02 1.24999993e-02
      1.59090906e-02 7.27272704e-02 3.74999978e-02 4.54545440e-03
      3.06818169e-02 5.45454547e-02 1.24999993e-02 1.02272723e-02
      1.47727272e-02 1.24999993e-02 5.79545423e-02 2.27272715e-02
      2.61363629e-02 4.20454517e-02 1.24999993e-02 4.65909094e-02
      1.47727272e-02 4.65909094e-02 7.95454532e-03 3.06818169e-02
      3.40909092e-03 2.04545446e-02 3.29545438e-02 1.36363637e-02</_>
    <_>
      4.36893217e-02 1.69902910e-02 3.88349518e-02 1.94174759e-02
      3.88349518e-02 9.70873795e-03 9.70873795e-03 4.85436898e-03
      2.18446609e-02 3.64077687e-02 4.61165048e-02 2.66990289e-02
      3.64077687e-02 2.42718449e-03 2.66990289e-02 1.21359229e-02
      2.42718458e-02 4.85436898e-03 0. 1.21359229e-02 3.15533988e-02
      1.45631069e-02 0. 4.85436916e-02 3.39805819e-02 1.94174759e-02
      1.45631069e-02 1.45631069e-02 1.45631069e-02 4.12621349e-02
      2.66990289e-02 2.66990289e-02 4.36893217e-02 4.61165048e-02
      4.12621349e-02 2.66990289e-02 2.18446609e-02 2.91262139e-02
      2.66990289e-02 4.61165048e-02</_>
    <_>
      2.89210230e-02 2.11345926e-02 1.77975520e-02 1.22358166e-02
      1.77975520e-02 1.89098995e-02 3.33704092e-02 5.33926561e-02
      2.89210230e-02 1.89098995e-02 2.00222470e-02 1.44605115e-02
      1.12347044e-01 3.78197990e-02 2.44716331e-02 1.11234700e-02
      1.66852046e-02 1.66852046e-02 3.11457161e-02 1.44605115e-02
      8.89877602e-03 1.55728580e-02 1.77975520e-02 1.89098995e-02
      1.89098995e-02 2.11345926e-02 1.44605115e-02 2.22469401e-02
      1.55728580e-02 1.10122353e-01 1.55728580e-02 1.00111235e-02
      1.77975520e-02 2.44716331e-02 1.77975520e-02 1.55728580e-02
      1.89098995e-02 2.22469401e-02 2.33592875e-02 2.00222470e-02</_>
    <_>
      1.02040814e-02 2.42346935e-02 5.99489771e-02 3.69897969e-02
      1.65816322e-02 1.14795920e-02 3.31632644e-02 7.78061226e-02
      2.55102031e-02 6.63265288e-02 1.40306121e-02 1.27551015e-02
      5.35714291e-02 7.65306130e-03 1.27551015e-02 8.92857090e-03
      7.65306130e-03 2.04081628e-02 1.27551015e-02 2.55102036e-03
      2.04081628e-02 1.27551015e-02 1.40306121e-02 1.91326533e-02
      5.48469387e-02 8.92857090e-03 2.93367337e-02 2.67857146e-02
      1.14795920e-02 5.73979579e-02 2.55102036e-03 9.43877548e-02
      1.53061226e-02 1.65816322e-02 1.91326533e-02 1.53061226e-02
      1.65816322e-02 1.53061226e-02 1.40306121e-02 2.04081628e-02</_>
    <_>
      1.84729062e-02 1.47783253e-02 2.21674871e-02 5.54187186e-02
      1.35467974e-02 1.23152705e-02 9.85221658e-03 6.89655170e-02
      6.40394092e-02 2.33990140e-02 3.57142836e-02 1.10837435e-02
      1.47783253e-02 2.46305410e-02 1.84729062e-02 1.35467974e-02
      2.21674871e-02 1.97044332e-02 1.60098523e-02 1.97044332e-02
      4.92610829e-03 8.12807903e-02 5.78817725e-02 1.72413792e-02
      2.46305410e-02 2.21674871e-02 1.23152705e-02 8.62068962e-03
      2.58620679e-02 9.85221658e-03 1.97044332e-02 4.92610829e-03
      1.97044332e-02 1.23152705e-02 1.10837435e-02 9.85221658e-03
      1.00985222e-01 1.60098523e-02 3.20197046e-02 9.85221658e-03</_>
    <_>
      1.34831462e-02 2.02247202e-02 1.34831462e-02 6.74157310e-03
      1.46067422e-02 5.61797759e-03 3.25842686e-02 2.24719103e-03
      1.46067422e-02 2.02247202e-02 2.13483144e-02 1.91011243e-02
      7.86516890e-02 1.71910107e-01 2.35955063e-02 2.02247202e-02
      5.61797759e-03 1.01123601e-02 3.25842686e-02 1.34831462e-02
      7.86516815e-03 3.93258445e-02 4.38202247e-02 1.23595502e-02
      1.34831462e-02 2.13483144e-02 1.12359552e-02 2.47191004e-02
      3.82022485e-02 4.15730327e-02 6.74157310e-03 4.49438207e-03
      1.46067422e-02 5.61797759e-03 2.92134844e-02 6.74157310e-03
      9.88764018e-02 1.46067422e-02 1.91011243e-02 5.61797759e-03</_>
    <_>
      3.50877200e-03 1.75438598e-02 1.75438598e-02 3.85964923e-02
      7.01754401e-03 1.92982461e-02 2.98245624e-02 4.21052650e-02
      5.96491247e-02 1.05263162e-02 3.68421078e-02 1.57894734e-02
      7.36842155e-02 1.92982461e-02 2.45614033e-02 8.77192989e-03
      1.05263162e-02 1.92982461e-02 2.63157897e-02 7.01754401e-03
      1.22807017e-02 3.50877196e-02 3.85964923e-02 2.10526325e-02
      2.28070188e-02 1.40350880e-02 1.75438598e-02 2.28070188e-02
      1.75438598e-02 8.24561417e-02 1.57894734e-02 5.26315812e-03
      2.10526325e-02 1.05263162e-02 3.33333351e-02 1.22807017e-02
      1.40350880e-02 4.21052650e-02 3.85964923e-02 3.50877196e-02</_>
    <_>
      1.40845068e-02 1.40845068e-02 1.52582163e-02 5.39906099e-02
      1.40845068e-02 1.17370896e-02 1.40845068e-02 3.52112688e-02
      5.39906099e-02 4.69483575e-03 1.52582163e-02 3.28638516e-02
      2.58215964e-02 1.52582163e-02 1.52582163e-02 1.29107982e-02
      1.87793430e-02 2.69953050e-02 4.10798118e-02 8.21596291e-03
      3.28638516e-02 3.63849774e-02 3.28638516e-02 1.76056344e-02
      1.40845068e-02 1.52582163e-02 2.81690136e-02 1.40845068e-02
      4.92957756e-02 5.63380271e-02 2.11267602e-02 1.64319258e-02
      4.22535203e-02 2.81690136e-02 4.69483575e-03 1.87793430e-02
      2.34741792e-02 1.64319258e-02 4.57746498e-02 4.22535203e-02</_>
    <_>
      5.99999987e-02 3.99999991e-02 0. 1.19999997e-01 7.99999982e-02
      1.99999996e-02 1.19999997e-01 0. 0. 3.99999991e-02 3.99999991e-02
      0. 1.99999996e-02 1.99999996e-02 5.99999987e-02 1.99999996e-02
      1.99999996e-02 1.99999996e-02 3.99999991e-02 0. 0. 0.
      1.99999996e-02 1.99999996e-02 0. 1.99999996e-02 1.99999996e-02
      7.99999982e-02 1.99999996e-02 0. 0. 0. 0. 0. 1.99999996e-02
      3.99999991e-02 1.99999996e-02 1.99999996e-02 0. 0.</_>
    <_>
      9.84009821e-03 2.21402217e-02 4.92004910e-03 3.07503063e-02
      1.10701108e-02 8.61008558e-03 3.07503063e-02 8.48708451e-02
      8.24108198e-02 6.15006126e-03 1.23001225e-02 2.95202956e-02
      4.67404649e-02 4.55104560e-02 7.38007389e-03 9.84009821e-03
      1.23001225e-02 1.96801964e-02 1.59901604e-02 6.15006126e-03
      8.61008558e-03 7.01107010e-02 5.41205406e-02 1.35301352e-02
      7.38007389e-03 1.96801964e-02 1.35301352e-02 1.84501838e-02
      1.72201712e-02 3.93603928e-02 1.72201712e-02 7.38007389e-03
      3.19803208e-02 3.07503063e-02 1.10701108e-02 1.23001225e-02
      2.95202956e-02 1.23001225e-02 4.79704775e-02 4.05904055e-02</_>
    <_>
      3.45588252e-02 1.76470596e-02 2.05882359e-02 1.54411765e-02
      3.23529430e-02 4.77941185e-02 1.47058824e-02 4.41176491e-03
      5.14705898e-03 9.33823511e-02 2.27941182e-02 1.98529419e-02
      1.02941180e-02 1.25000002e-02 3.08823530e-02 2.05882359e-02
      4.48529422e-02 2.27941182e-02 2.72058826e-02 1.02941180e-02
      1.54411765e-02 1.02941180e-02 8.82352982e-03 2.57352944e-02
      2.42647063e-02 1.61764715e-02 2.13235300e-02 2.35294122e-02
      1.10294120e-02 2.86764707e-02 6.10294119e-02 2.79411767e-02
      2.05882359e-02 2.72058826e-02 6.32352978e-02 2.20588241e-02
      1.83823537e-02 2.79411767e-02 1.98529419e-02 1.83823537e-02</_>
    <_>
      3.97688635e-02 6.79809647e-03 3.46702933e-02 7.47790607e-03
      2.71923859e-02 3.02515291e-02 1.08769545e-02 7.81781133e-03
      6.11828687e-03 1.03670970e-01 3.36505771e-02 8.83752573e-03
      3.05914343e-03 3.05914343e-03 3.33106741e-02 2.48130523e-02
      2.82121003e-02 4.69068661e-02 1.49558121e-02 1.52957169e-02
      4.14683893e-02 1.22365737e-02 9.85724013e-03 1.32562881e-02
      2.92318147e-02 1.35961929e-02 4.86063920e-02 7.47790607e-03
      6.45819167e-03 3.73895303e-03 3.50101963e-02 9.58531648e-02
      2.85520051e-02 6.22025840e-02 9.51733533e-03 2.95717195e-02
      7.13800127e-03 1.22365737e-02 1.25764785e-02 3.46702933e-02</_>
    <_>
      2.99511012e-02 2.13936437e-02 1.83374099e-02 1.52811743e-02
      2.87286080e-02 2.20048912e-02 1.28361862e-02 1.22249397e-02
      1.58924218e-02 5.86797073e-02 3.30073349e-02 2.13936437e-02
      1.46699268e-02 8.55745748e-03 3.23960893e-02 1.65036675e-02
      2.07823962e-02 3.17848437e-02 3.30073349e-02 1.03911981e-02
      4.46210280e-02 2.38386318e-02 2.32273843e-02 2.07823962e-02
      1.58924218e-02 2.01711506e-02 4.27872874e-02 1.46699268e-02
      2.75061131e-02 8.55745748e-03 2.50611249e-02 5.86797073e-02
      3.60635705e-02 3.78973112e-02 1.03911981e-02 2.75061131e-02
      6.11246983e-03 2.32273843e-02 3.60635705e-02 3.91198061e-02</_>
    <_>
      8.67052004e-03 1.30057801e-02 1.15606934e-02 3.32369953e-02
      1.87861267e-02 2.02312134e-02 1.58959534e-02 1.58959534e-02
      1.44508667e-02 4.19075117e-02 2.31213868e-02 1.87861267e-02
      8.81502852e-02 4.76878583e-02 2.45664734e-02 1.58959534e-02
      1.58959534e-02 1.15606934e-02 1.30057801e-02 1.01156067e-02
      3.46820801e-02 1.87861267e-02 1.15606934e-02 2.31213868e-02
      1.73410401e-02 8.67052004e-03 1.58959534e-02 1.73410401e-02
      7.22543336e-03 1.02601156e-01 1.87861267e-02 3.32369953e-02
      2.60115601e-02 8.95953774e-02 1.87861267e-02 1.44508667e-02
      3.03468201e-02 1.87861267e-02 8.67052004e-03 2.16763001e-02</_>
    <_>
      3.17241400e-02 3.86206917e-02 3.31034511e-02 1.79310348e-02
      2.34482773e-02 3.58620696e-02 2.20689662e-02 9.65517294e-03
      9.65517294e-03 2.06896551e-02 4.13793102e-02 4.00000028e-02
      9.65517294e-03 1.65517256e-02 3.72413807e-02 1.79310348e-02
      3.03448290e-02 2.34482773e-02 2.89655179e-02 1.51724145e-02
      2.20689662e-02 6.89655170e-03 8.27586278e-03 3.58620696e-02
      2.62068976e-02 3.58620696e-02 2.34482773e-02 3.58620696e-02
      4.68965545e-02 1.10344831e-02 2.62068976e-02 1.65517256e-02
      2.62068976e-02 1.79310348e-02 4.00000028e-02 3.03448290e-02
      9.65517294e-03 3.86206917e-02 1.51724145e-02 2.34482773e-02</_>
    <_>
      1.58730168e-02 3.05250324e-02 9.76801012e-03 4.27350439e-02
      1.70940179e-02 1.83150191e-02 3.54090370e-02 2.44200248e-02
      9.76801012e-03 1.22100124e-02 1.83150191e-02 2.31990237e-02
      4.39560451e-02 5.37240542e-02 1.70940179e-02 1.46520156e-02
      1.22100124e-02 1.22100124e-02 2.80830283e-02 8.54700897e-03
      1.58730168e-02 2.07570214e-02 2.07570214e-02 3.54090370e-02
      1.22100124e-02 2.44200248e-02 2.19780225e-02 4.15140428e-02
      2.93040313e-02 6.95970729e-02 2.07570214e-02 1.46520156e-02
      2.68620271e-02 1.83150191e-02 3.29670347e-02 2.19780225e-02
      3.78510393e-02 3.17460336e-02 4.02930416e-02 1.46520156e-02</_>
    <_>
      1.17647061e-02 0. 5.29411770e-02 2.35294122e-02 5.88235306e-03
      2.35294122e-02 1.76470596e-02 3.23529422e-01 5.88235296e-02
      3.52941193e-02 0. 1.76470596e-02 1.17647061e-02 1.76470596e-02 0.
      2.35294122e-02 1.76470596e-02 5.88235306e-03 0. 1.76470596e-02
      5.88235306e-03 1.76470596e-02 1.17647061e-02 1.17647061e-02
      2.94117648e-02 2.35294122e-02 1.76470596e-02 2.94117648e-02
      1.17647061e-02 2.35294122e-02 2.35294122e-02 0. 0. 0.
      2.94117648e-02 1.76470596e-02 2.35294122e-02 5.88235306e-03
      2.94117648e-02 2.35294122e-02</_>
    <_>
      2.95081958e-02 1.63934417e-02 2.29508206e-02 6.22950830e-02
      9.83606558e-03 2.95081958e-02 3.60655747e-02 9.83606558e-03
      1.63934417e-02 2.95081958e-02 2.95081958e-02 1.96721312e-02
      7.86885247e-02 6.55737706e-03 2.95081958e-02 1.96721312e-02
      2.62295082e-02 6.55737706e-03 6.55737706e-03 6.55737706e-03
      9.83606558e-03 3.27868834e-02 4.26229499e-02 1.96721312e-02
      1.31147541e-02 1.31147541e-02 1.96721312e-02 2.29508206e-02
      6.55737706e-03 1.18032783e-01 2.29508206e-02 9.83606558e-03
      1.63934417e-02 3.27868853e-03 6.22950830e-02 0. 3.27868834e-02
      1.96721312e-02 2.62295082e-02 1.63934417e-02</_>
    <_>
      2.56410278e-02 2.99145319e-02 2.13675220e-02 2.99145319e-02
      1.28205139e-02 4.27350448e-03 1.70940179e-02 4.70085479e-02
      1.28205139e-02 1.28205139e-02 3.84615399e-02 2.13675220e-02
      6.83760718e-02 2.99145319e-02 8.54700897e-03 1.28205139e-02
      1.28205139e-02 8.54700897e-03 3.41880359e-02 1.70940179e-02
      4.27350448e-03 1.70940179e-02 0. 5.12820557e-02 2.99145319e-02
      1.70940179e-02 2.13675220e-02 4.27350439e-02 2.56410278e-02
      1.45299152e-01 2.56410278e-02 8.54700897e-03 4.27350448e-03
      4.27350448e-03 4.70085479e-02 1.70940179e-02 8.54700897e-03
      4.27350439e-02 2.13675220e-02 0.</_>
    <_>
      2.34791879e-02 2.34791879e-02 1.49413012e-02 2.13447176e-02
      2.77481321e-02 6.40341500e-03 2.56136600e-02 1.81430094e-02
      2.45464239e-02 9.60512273e-03 1.92102455e-02 1.81430094e-02
      3.52187827e-02 5.33617940e-03 2.02774815e-02 1.06723588e-02
      1.06723588e-02 2.77481321e-02 1.60085373e-02 8.53788666e-03
      3.30843106e-02 1.17395939e-02 5.33617940e-03 2.02774815e-02
      1.49413012e-02 8.53788666e-03 2.13447176e-02 1.06723588e-02
      2.34791879e-02 3.84204909e-02 2.02774815e-02 5.12273200e-02
      2.24119518e-02 2.54002124e-01 9.60512273e-03 2.98826024e-02
      8.53788666e-03 1.92102455e-02 2.24119518e-02 7.47065060e-03</_>
    <_>
      1.20898103e-02 2.93609668e-02 1.89982727e-02 1.89982727e-02
      8.63557868e-03 6.90846285e-03 3.45423147e-02 7.25388601e-02
      3.62694301e-02 1.72711574e-02 1.55440411e-02 1.72711574e-02
      7.08117411e-02 1.89982727e-02 2.24525034e-02 6.90846285e-03
      1.03626940e-02 1.55440411e-02 3.10880821e-02 3.45423142e-03
      8.63557868e-03 7.77202100e-02 3.62694301e-02 1.38169257e-02
      2.76338514e-02 6.90846285e-03 1.20898103e-02 3.45423147e-02
      4.14507762e-02 7.42659792e-02 8.63557868e-03 3.45423142e-03
      2.24525034e-02 2.76338514e-02 1.72711574e-02 1.38169257e-02
      2.93609668e-02 2.93609668e-02 2.76338514e-02 1.89982727e-02</_>
    <_>
      2.19298247e-02 1.86403506e-02 3.72807011e-02 2.85087712e-02
      3.28947380e-02 1.42543856e-02 7.67543865e-03 3.28947380e-02
      2.52192989e-02 5.37280701e-02 4.60526310e-02 2.08333340e-02
      1.53508773e-02 1.31578948e-02 4.16666679e-02 3.72807011e-02
      1.97368413e-02 3.28947380e-02 2.08333340e-02 1.31578948e-02
      1.86403506e-02 3.39912288e-02 1.86403506e-02 1.97368413e-02
      1.42543856e-02 2.19298247e-02 2.96052638e-02 1.53508773e-02
      1.86403506e-02 2.52192989e-02 1.20614041e-02 3.61842103e-02
      3.72807011e-02 3.07017546e-02 5.48245618e-03 3.39912288e-02
      2.41228081e-02 1.97368413e-02 1.86403506e-02 3.17982472e-02</_>
    <_>
      3.90683711e-02 1.16453795e-02 1.27723515e-02 4.88354638e-03
      3.34335081e-02 2.70473324e-02 1.12697221e-02 2.62960186e-03
      7.51314801e-04 7.06235915e-02 2.14124713e-02 9.01577808e-03
      3.38091664e-02 1.35987982e-01 2.51690466e-02 7.13749044e-03
      1.42749809e-02 2.44177319e-02 3.11795641e-02 1.87828708e-02
      3.64387669e-02 1.76558979e-02 2.36664154e-02 6.76183309e-03
      1.23966942e-02 1.20210368e-02 3.08039077e-02 1.16453795e-02
      4.54545468e-02 1.99098419e-02 1.65289249e-02 6.91209584e-02
      2.17881296e-02 3.53117958e-02 1.46506382e-02 2.51690466e-02
      2.14124713e-02 1.08940648e-02 9.39143542e-03 2.36664154e-02</_>
    <_>
      1.52143845e-02 1.52143845e-02 1.52143845e-02 1.79806370e-02
      9.68188141e-03 1.52143845e-02 1.65975112e-02 4.28769030e-02
      9.82019380e-02 9.68188141e-03 2.62793917e-02 1.65975112e-02
      4.14937772e-02 2.35131402e-02 2.76625175e-02 1.93637628e-02
      1.65975112e-02 1.93637628e-02 2.62793917e-02 9.68188141e-03
      1.65975112e-02 2.76625175e-02 4.56431545e-02 2.90456433e-02
      2.35131402e-02 1.52143845e-02 2.48962659e-02 1.38312588e-02
      1.93637628e-02 4.56431545e-02 1.79806370e-02 1.24481330e-02
      3.59612741e-02 2.90456433e-02 1.10650072e-02 1.10650072e-02
      5.11756577e-02 2.07468886e-02 2.90456433e-02 3.73443998e-02</_>
    <_>
      1.93014704e-02 2.94117648e-02 2.20588241e-02 3.49264704e-02
      1.83823537e-02 1.65441185e-02 3.86029407e-02 1.56250000e-02
      1.56250000e-02 1.65441185e-02 1.65441185e-02 1.74632352e-02
      8.27205852e-02 1.10294120e-02 2.11397056e-02 2.48161759e-02
      1.28676472e-02 2.84926463e-02 1.74632352e-02 8.27205926e-03
      2.02205889e-02 8.27205926e-03 1.19485296e-02 2.20588241e-02
      2.20588241e-02 2.38970593e-02 2.38970593e-02 3.67647074e-02
      2.94117648e-02 9.28308815e-02 1.56250000e-02 1.47058824e-02
      2.75735296e-02 2.48161759e-02 4.59558815e-02 2.38970593e-02
      1.01102944e-02 2.66544111e-02 2.29779407e-02 2.84926463e-02</_>
    <_>
      8.27814545e-03 2.15231795e-02 4.96688765e-03 1.65562909e-02
      2.15231795e-02 1.65562909e-02 1.98675506e-02 3.14569548e-02
      2.48344373e-02 2.64900662e-02 4.96688765e-03 1.32450331e-02
      7.45033100e-02 3.31125828e-03 1.32450331e-02 4.96688765e-03
      1.15894042e-02 1.32450331e-02 1.82119198e-02 1.65562909e-02
      2.15231795e-02 2.15231795e-02 4.30463590e-02 1.65562909e-02
      8.27814545e-03 1.98675506e-02 1.32450331e-02 1.15894042e-02
      5.96026480e-02 3.14569548e-02 8.27814545e-03 2.64900662e-02
      5.46357632e-02 1.67218536e-01 8.27814545e-03 2.31788084e-02
      9.93377529e-03 1.65562909e-02 3.14569548e-02 4.13907282e-02</_>
    <_>
      3.82755846e-02 1.36986300e-02 2.09508464e-02 1.69218369e-02
      3.82755846e-02 3.90813872e-02 2.41740532e-02 9.26672015e-03
      1.00725219e-02 6.28525391e-02 1.97421443e-02 2.25624498e-02
      1.00725219e-02 1.45044317e-02 2.33682506e-02 1.85334403e-02
      2.45769545e-02 4.10958901e-02 2.61885580e-02 3.34407724e-02
      3.94842885e-02 9.66962148e-03 1.65189356e-02 1.69218369e-02
      2.09508464e-02 3.38436738e-02 3.50523777e-02 1.12812249e-02
      2.49798540e-02 1.36986300e-02 2.25624498e-02 5.19742146e-02
      3.02175656e-02 2.86059622e-02 4.83481074e-03 4.02900875e-02
      2.73972601e-02 1.28928283e-02 2.25624498e-02 2.86059622e-02</_>
    <_>
      1.21951215e-02 3.04878037e-02 2.43902430e-02 3.04878037e-02
      3.04878037e-02 1.82926822e-02 2.43902430e-02 0. 6.09756075e-03
      1.82926822e-02 6.09756075e-03 4.26829234e-02 5.48780486e-02
      2.43902430e-02 2.43902430e-02 1.21951215e-02 2.43902430e-02
      6.09756075e-03 1.21951215e-02 6.09756075e-03 2.43902430e-02
      6.09756075e-03 0. 6.70731664e-02 2.43902430e-02 4.26829234e-02
      6.09756075e-03 3.04878037e-02 4.26829234e-02 5.48780486e-02
      3.04878037e-02 2.43902430e-02 1.21951215e-02 0. 8.53658468e-02
      2.43902430e-02 3.04878037e-02 5.48780486e-02 1.82926822e-02
      1.21951215e-02</_>
    <_>
      2.66666673e-02 1.59999989e-02 1.33333337e-02 2.66666673e-02
      4.26666662e-02 5.33333328e-03 5.06666675e-02 1.59999989e-02
      1.86666660e-02 9.06666666e-02 2.40000002e-02 2.13333331e-02
      1.59999989e-02 7.99999945e-03 2.40000002e-02 3.19999978e-02
      1.06666666e-02 2.40000002e-02 2.40000002e-02 1.59999989e-02
      2.93333326e-02 2.40000002e-02 1.06666666e-02 1.59999989e-02
      3.99999991e-02 1.59999989e-02 2.13333331e-02 1.86666660e-02
      2.93333326e-02 1.86666660e-02 3.99999991e-02 2.13333331e-02
      3.73333320e-02 4.53333333e-02 1.33333337e-02 3.46666649e-02
      5.33333328e-03 1.33333337e-02 2.93333326e-02 2.93333326e-02</_>
    <_>
      5.20833349e-03 2.60416679e-02 2.08333340e-02 2.60416679e-02
      2.08333340e-02 1.04166670e-02 3.12500000e-02 5.20833349e-03
      5.20833349e-03 2.60416679e-02 4.16666679e-02 3.64583358e-02
      7.29166716e-02 2.08333340e-02 1.56250000e-02 0. 1.04166670e-02
      5.20833349e-03 3.12500000e-02 1.56250000e-02 1.56250000e-02
      1.04166670e-02 1.04166670e-02 6.25000000e-02 3.12500000e-02
      1.56250000e-02 0. 3.12500000e-02 4.68750000e-02 8.85416716e-02
      2.60416679e-02 1.56250000e-02 2.60416679e-02 1.56250000e-02
      5.72916679e-02 3.64583358e-02 1.04166670e-02 4.68750000e-02
      1.04166670e-02 1.56250000e-02</_>
    <_>
      1.24481330e-02 2.90456433e-02 3.04287691e-02 1.10650072e-02
      2.35131402e-02 9.68188141e-03 3.04287691e-02 1.93637628e-02
      3.31950225e-02 3.59612741e-02 9.68188141e-03 2.48962659e-02
      2.07468886e-02 4.14937781e-03 1.38312588e-02 5.53250359e-03
      1.65975112e-02 2.48962659e-02 2.21300144e-02 6.91562938e-03
      3.87275256e-02 4.14937781e-03 6.91562938e-03 2.48962659e-02
      3.18118967e-02 2.90456433e-02 3.31950225e-02 2.35131402e-02
      2.90456433e-02 3.31950225e-02 2.07468886e-02 1.93637628e-02
      6.63900450e-02 7.33056739e-02 6.91562938e-03 3.45781483e-02
      6.91562938e-03 3.45781483e-02 3.04287691e-02 6.77731708e-02</_>
    <_>
      1.60256412e-03 1.76282059e-02 1.60256419e-02 1.44230770e-02
      3.20512825e-03 1.12179490e-02 3.20512825e-03 5.60897440e-02
      2.01923072e-01 8.01282097e-03 2.24358980e-02 1.76282059e-02
      4.00641039e-02 9.61538497e-03 1.92307699e-02 6.41025649e-03
      1.44230770e-02 1.28205130e-02 3.04487180e-02 1.60256412e-03
      4.80769249e-03 9.93589759e-02 6.73076957e-02 1.92307699e-02
      8.01282097e-03 9.61538497e-03 4.80769249e-03 1.12179490e-02
      3.68589759e-02 4.00641039e-02 1.60256412e-03 6.41025649e-03
      1.92307699e-02 8.01282097e-03 3.36538479e-02 3.20512825e-03
      6.41025649e-03 2.40384620e-02 6.25000000e-02 2.56410260e-02</_>
    <_>
      1.65289268e-02 3.03030312e-02 1.10192839e-02 2.20385678e-02
      3.03030312e-02 5.50964195e-03 2.20385678e-02 3.58126722e-02
      1.37741044e-02 4.13223132e-02 8.26446339e-03 2.20385678e-02
      3.58126722e-02 1.92837473e-02 1.10192839e-02 4.68319580e-02
      8.26446339e-03 1.92837473e-02 2.20385678e-02 5.50964195e-03
      1.92837473e-02 4.13223132e-02 4.13223132e-02 2.20385678e-02
      1.37741044e-02 2.75482088e-02 3.30578536e-02 2.75482088e-02
      3.30578536e-02 1.37741044e-02 1.92837473e-02 7.98898116e-02
      1.92837473e-02 2.47933883e-02 2.75482088e-02 1.92837473e-02
      1.37741044e-02 4.13223132e-02 3.30578536e-02 2.20385678e-02</_>
    <_>
      5.68181835e-03 1.13636367e-02 3.97727266e-02 2.84090918e-02 0.
      1.70454551e-02 2.27272734e-02 2.27272734e-02 2.27272734e-02
      2.27272734e-02 3.97727266e-02 4.54545468e-02 7.38636404e-02
      5.68181835e-03 2.27272734e-02 1.13636367e-02 2.27272734e-02 0.
      2.27272734e-02 5.68181835e-03 2.27272734e-02 5.68181835e-03
      1.13636367e-02 1.70454551e-02 6.81818202e-02 3.40909101e-02 0.
      2.27272734e-02 5.11363670e-02 7.38636404e-02 1.70454551e-02 0.
      2.84090918e-02 5.68181835e-03 5.11363670e-02 1.70454551e-02
      2.84090918e-02 3.40909101e-02 3.40909101e-02 3.40909101e-02</_>
    <_>
      2.04678364e-02 5.84795326e-03 1.16959065e-02 1.75438598e-02
      2.92397663e-03 8.77192989e-03 1.75438598e-02 1.75438598e-02
      4.97076027e-02 3.80116962e-02 5.84795326e-03 2.04678364e-02
      2.16374278e-01 2.04678364e-02 5.84795326e-03 1.16959065e-02
      1.75438598e-02 2.04678364e-02 8.77192989e-03 5.84795326e-03
      2.92397663e-03 1.46198831e-02 8.77192989e-03 2.92397663e-03
      1.16959065e-02 1.16959065e-02 1.46198831e-02 2.04678364e-02
      1.46198831e-02 1.90058485e-01 1.46198831e-02 1.46198831e-02
      2.33918130e-02 8.77192989e-03 2.63157897e-02 2.33918130e-02
      1.16959065e-02 2.04678364e-02 1.46198831e-02 2.63157897e-02</_>
    <_>
      1.19521916e-02 2.78884470e-02 1.19521916e-02 4.38247025e-02 0.
      1.59362555e-02 3.18725109e-02 0. 0. 5.57768941e-02 2.78884470e-02
      1.59362555e-02 1.75298810e-01 3.58565748e-02 1.59362555e-02
      3.98406386e-03 1.19521916e-02 7.96812773e-03 1.19521916e-02
      3.98406386e-03 1.59362555e-02 3.98406386e-03 1.19521916e-02
      2.39043832e-02 1.19521916e-02 1.59362555e-02 1.59362555e-02
      4.38247025e-02 1.19521916e-02 1.11553788e-01 1.19521916e-02
      2.39043832e-02 1.19521916e-02 1.59362555e-02 3.18725109e-02
      3.98406386e-03 5.97609580e-02 3.98406386e-02 1.59362555e-02
      7.96812773e-03</_>
    <_>
      1.62866451e-02 2.93159597e-02 1.95439737e-02 4.23452742e-02
      9.77198686e-03 9.77198686e-03 3.25732902e-02 3.25732888e-03
      1.30293155e-02 9.77198686e-03 4.88599315e-02 9.77198686e-03
      1.36807814e-01 4.88599315e-02 2.60586310e-02 9.77198686e-03 0.
      1.95439737e-02 1.95439737e-02 1.62866451e-02 3.25732902e-02
      9.77198686e-03 3.25732888e-03 2.60586310e-02 2.60586310e-02
      1.62866451e-02 6.51465775e-03 2.93159597e-02 1.30293155e-02
      1.14006512e-01 3.25732888e-03 6.51465775e-03 1.62866451e-02
      9.77198686e-03 2.60586310e-02 9.77198686e-03 7.16612339e-02
      1.62866451e-02 9.77198686e-03 3.25732902e-02</_>
    <_>
      1.87165774e-02 1.33689847e-02 4.54545468e-02 2.13903747e-02
      2.13903747e-02 5.34759369e-03 5.34759387e-02 1.47058830e-01
      5.88235296e-02 2.13903747e-02 2.13903747e-02 2.67379694e-02
      1.33689847e-02 1.60427801e-02 2.40641721e-02 8.02139007e-03
      2.13903747e-02 2.67379694e-02 8.02139007e-03 2.67379684e-03
      1.06951874e-02 1.06951874e-02 2.67379694e-02 2.13903747e-02
      4.01069522e-02 1.87165774e-02 2.13903747e-02 8.02139007e-03
      1.87165774e-02 4.27807495e-02 2.13903747e-02 2.40641721e-02
      1.60427801e-02 2.67379694e-02 8.02139007e-03 2.40641721e-02
      2.67379684e-03 2.94117648e-02 1.87165774e-02 3.47593576e-02</_>
    <_>
      0. 2.76243109e-02 1.10497242e-02 1.65745858e-02 0. 0.
      1.04972377e-01 5.52486209e-03 0. 2.20994484e-02 1.10497242e-02
      2.20994484e-02 1.54696137e-01 4.97237593e-02 1.10497242e-02
      5.52486209e-03 5.52486209e-03 5.52486209e-03 2.76243109e-02
      1.10497242e-02 3.31491716e-02 0. 0. 1.10497242e-02 2.76243109e-02
      1.10497242e-02 2.76243109e-02 3.31491716e-02 1.10497242e-02
      2.04419896e-01 5.52486209e-03 2.76243109e-02 0. 2.20994484e-02
      2.76243109e-02 0. 2.76243109e-02 1.10497242e-02 2.76243109e-02 0.</_>
    <_>
      1.57480314e-02 6.29921257e-02 2.36220472e-02 4.72440943e-02
      3.93700786e-02 7.87401572e-03 7.87401572e-03 1.57480314e-02
      3.93700786e-02 0. 1.57480314e-02 7.08661377e-02 7.87401572e-03
      2.36220472e-02 7.87401572e-03 7.87401572e-03 4.72440943e-02
      2.36220472e-02 3.93700786e-02 7.87401572e-03 2.36220472e-02
      3.14960629e-02 3.14960629e-02 5.51181100e-02 1.57480314e-02
      2.36220472e-02 7.87401572e-03 2.36220472e-02 1.57480314e-02
      7.87401572e-03 4.72440943e-02 0. 3.93700786e-02 0. 7.08661377e-02
      1.57480314e-02 3.14960629e-02 2.36220472e-02 7.87401572e-03
      1.57480314e-02</_>
    <_>
      3.14009674e-02 1.93236712e-02 3.86473425e-02 4.83091772e-02
      1.69082116e-02 2.17391308e-02 2.41545890e-03 0. 7.24637695e-03
      3.62318829e-02 4.83091772e-02 7.24637695e-03 7.48792291e-02
      7.48792291e-02 2.17391308e-02 2.41545886e-02 9.66183562e-03
      7.24637695e-03 2.17391308e-02 9.66183562e-03 9.66183562e-03
      3.14009674e-02 1.44927539e-02 3.62318829e-02 3.14009674e-02
      1.44927539e-02 9.66183562e-03 2.65700482e-02 2.17391308e-02
      3.14009674e-02 1.69082116e-02 1.20772943e-02 1.69082116e-02
      4.83091781e-03 3.38164233e-02 1.93236712e-02 8.93719792e-02
      2.17391308e-02 1.69082116e-02 1.93236712e-02</_>
    <_>
      3.54144792e-03 4.72193025e-03 3.54144792e-03 3.54144792e-03
      1.73137449e-02 3.41028301e-03 4.19727154e-03 1.70514151e-03
      1.96747109e-03 3.33420753e-01 4.85309539e-03 4.19727154e-03
      2.22980045e-03 1.04931789e-03 4.85309539e-03 4.45960090e-03
      2.09863577e-03 7.26652667e-02 7.21406052e-03 1.44281215e-03
      4.32843622e-03 9.96852014e-03 1.83630630e-03 8.00104905e-03
      4.06610686e-03 3.14795366e-03 4.80062924e-02 3.54144792e-03
      1.37722977e-02 3.93494219e-03 3.01678898e-03 3.68310571e-01
      3.27911833e-03 6.16474263e-03 2.75445939e-03 2.11175233e-02
      2.09863577e-03 4.72193025e-03 2.62329471e-03 2.88562430e-03</_>
    <_>
      1.60427801e-02 2.13903747e-02 4.27807495e-02 5.88235296e-02
      5.34759369e-03 1.06951874e-02 5.34759369e-03 1.06951874e-02 0.
      4.27807495e-02 3.74331549e-02 1.06951874e-02 4.27807495e-02
      3.74331549e-02 2.13903747e-02 2.13903747e-02 1.06951874e-02
      1.60427801e-02 3.74331549e-02 5.34759369e-03 1.06951874e-02
      3.20855603e-02 1.06951874e-02 4.27807495e-02 6.41711205e-02
      3.74331549e-02 5.34759369e-03 3.20855603e-02 1.60427801e-02
      4.81283441e-02 1.06951874e-02 5.34759369e-03 2.13903747e-02
      5.34759369e-03 6.41711205e-02 1.60427801e-02 8.02139044e-02
      2.13903747e-02 1.60427801e-02 5.34759369e-03</_>
    <_>
      4.23280410e-02 3.17460299e-02 2.11640205e-02 2.11640205e-02
      3.17460299e-02 5.29100513e-03 5.29100513e-03 0. 5.29100513e-03
      4.23280410e-02 4.76190448e-02 2.64550261e-02 2.11640205e-02
      1.58730149e-02 1.05820103e-02 1.58730149e-02 3.70370373e-02
      3.17460299e-02 5.29100522e-02 1.58730149e-02 0. 0. 1.58730149e-02
      4.76190448e-02 1.58730149e-02 3.17460299e-02 2.64550261e-02
      2.11640205e-02 2.11640205e-02 5.29100522e-02 4.23280410e-02
      1.58730149e-02 2.11640205e-02 1.58730149e-02 6.34920597e-02
      1.58730149e-02 1.05820103e-02 5.82010560e-02 0. 4.23280410e-02</_>
    <_>
      2.68907566e-02 4.70588244e-02 1.84873957e-02 2.85714287e-02
      3.69747914e-02 1.84873957e-02 5.04201688e-02 1.68067229e-03
      8.40336177e-03 2.68907566e-02 2.68907566e-02 3.19327749e-02
      5.71428575e-02 1.17647061e-02 2.52100844e-02 6.72268914e-03
      2.35294122e-02 1.00840339e-02 3.02521009e-02 8.40336177e-03
      2.68907566e-02 5.04201697e-03 8.40336177e-03 2.35294122e-02
      2.01680679e-02 2.01680679e-02 3.36134457e-03 6.21848740e-02
      5.54621853e-02 7.73109272e-02 1.34453783e-02 2.52100844e-02
      2.35294122e-02 3.69747914e-02 2.52100844e-02 2.18487401e-02
      5.04201697e-03 2.18487401e-02 1.00840339e-02 1.84873957e-02</_>
    <_>
      2.14362256e-02 1.50053585e-02 1.98285095e-02 2.57234722e-02
      2.41157543e-02 1.17899245e-02 2.41157543e-02 8.19935650e-02
      2.73311883e-02 2.41157543e-02 2.62593776e-02 1.55412639e-02
      3.85852084e-02 5.68059981e-02 2.35798489e-02 2.19721310e-02
      1.66130755e-02 2.89389044e-02 2.03644149e-02 2.09003203e-02
      1.60771701e-02 4.23365459e-02 3.80493030e-02 1.76848862e-02
      1.66130755e-02 2.14362256e-02 2.46516597e-02 1.60771701e-02
      1.60771701e-02 4.34083566e-02 1.92926042e-02 1.39335468e-02
      3.05466224e-02 1.55412639e-02 5.35905641e-03 2.41157543e-02
      2.78670937e-02 1.92926042e-02 2.67952830e-02 1.98285095e-02</_>
    <_>
      3.36538479e-02 1.92307699e-02 2.88461559e-02 2.88461559e-02
      3.36538479e-02 2.40384620e-02 1.92307699e-02 1.92307699e-02
      1.44230779e-02 3.84615399e-02 2.88461559e-02 9.61538497e-03
      3.36538479e-02 5.28846160e-02 4.32692319e-02 3.36538479e-02
      2.88461559e-02 4.80769249e-03 3.36538479e-02 9.61538497e-03
      9.61538497e-03 9.61538497e-03 1.92307699e-02 4.32692319e-02
      2.88461559e-02 1.44230779e-02 4.80769249e-03 1.92307699e-02
      1.44230779e-02 6.25000000e-02 4.80769249e-03 4.80769249e-03
      3.36538479e-02 1.44230779e-02 6.25000000e-02 9.61538497e-03
      3.84615399e-02 4.32692319e-02 9.61538497e-03 1.44230779e-02</_>
    <_>
      2.69151144e-02 2.48447210e-02 1.86335407e-02 2.69151144e-02
      1.44927539e-02 1.86335407e-02 6.21118024e-03 4.14078683e-03
      1.03519671e-02 5.17598353e-02 3.93374749e-02 1.44927539e-02
      3.10559012e-02 0. 2.48447210e-02 1.44927539e-02 1.86335407e-02
      2.07039341e-02 2.07039341e-02 8.28157365e-03 7.24637657e-02
      8.28157365e-03 4.14078683e-03 2.07039341e-02 1.24223605e-02
      2.07039341e-02 2.89855078e-02 2.27743275e-02 2.89855078e-02
      3.10559012e-02 1.24223605e-02 4.96894419e-02 4.76190485e-02
      1.18012428e-01 1.03519671e-02 1.24223605e-02 6.21118024e-03
      2.48447210e-02 2.07039341e-02 5.17598353e-02</_>
    <_>
      1.24740126e-02 4.15800437e-02 1.45530142e-02 4.15800437e-02
      1.87110193e-02 1.66320167e-02 3.95010412e-02 1.66320167e-02
      2.49480251e-02 3.32640335e-02 1.24740126e-02 2.07900219e-02
      1.14345118e-01 1.66320167e-02 2.07900219e-02 8.31600837e-03
      2.07900219e-02 1.24740126e-02 1.03950109e-02 2.07900209e-03
      1.45530142e-02 1.03950109e-02 2.28690226e-02 3.32640335e-02
      2.07900219e-02 6.23700628e-03 1.24740126e-02 2.70270277e-02
      3.32640335e-02 7.69230798e-02 1.87110193e-02 2.28690226e-02
      2.70270277e-02 3.32640335e-02 3.32640335e-02 1.45530142e-02
      8.31600837e-03 3.74220386e-02 2.70270277e-02 2.07900219e-02</_>
    <_>
      1.16054164e-02 5.60928434e-02 1.54738883e-02 4.64216657e-02
      2.51450688e-02 1.35396523e-02 5.02901375e-02 1.93423610e-02
      5.80270821e-03 2.90135406e-02 4.06189561e-02 2.70793047e-02
      3.48162502e-02 2.32108328e-02 4.25531939e-02 2.32108328e-02
      9.67118051e-03 7.73694413e-03 4.83558998e-02 1.35396523e-02
      2.90135406e-02 1.93423610e-02 1.93423610e-02 3.09477765e-02
      1.54738883e-02 1.93423610e-02 1.93423610e-02 4.64216657e-02
      4.44874279e-02 3.28820124e-02 1.54738883e-02 2.32108328e-02
      1.35396523e-02 2.32108328e-02 7.73694413e-03 1.54738883e-02
      1.74081251e-02 2.32108328e-02 2.32108328e-02 1.74081251e-02</_>
    <_>
      3.13653126e-02 2.30627302e-02 2.49077491e-02 2.12177131e-02
      2.58302577e-02 3.04428041e-02 2.12177131e-02 1.56826563e-02
      3.69003695e-03 8.30258280e-02 3.04428041e-02 2.12177131e-02
      2.85977870e-02 1.56826563e-02 2.67527681e-02 1.93726942e-02
      2.12177131e-02 4.42804433e-02 1.93726942e-02 1.47601478e-02
      2.21402217e-02 1.38376383e-02 1.66051667e-02 2.30627302e-02
      2.58302577e-02 2.12177131e-02 4.52029519e-02 1.66051667e-02
      1.19926203e-02 3.13653126e-02 2.85977870e-02 4.98154983e-02
      2.12177131e-02 2.30627302e-02 7.38007389e-03 3.13653126e-02
      9.22509283e-03 2.95202956e-02 2.02952027e-02 2.95202956e-02</_>
    <_>
      1.83150184e-03 2.56410260e-02 2.01465208e-02 7.32600736e-03
      1.09890113e-02 5.49450563e-03 2.56410260e-02 3.66300382e-02
      4.21245433e-02 1.83150191e-02 1.83150191e-02 2.19780225e-02
      1.66666672e-01 5.31135537e-02 2.56410260e-02 1.28205130e-02
      9.15750954e-03 1.46520147e-02 1.46520147e-02 3.66300368e-03
      5.49450563e-03 1.83150191e-02 2.93040294e-02 2.74725277e-02
      2.19780225e-02 5.49450563e-03 9.15750954e-03 2.01465208e-02
      7.32600736e-03 7.87545815e-02 5.49450563e-03 9.15750954e-03
      2.01465208e-02 9.15750954e-03 5.31135537e-02 1.28205130e-02
      4.94505502e-02 3.47985364e-02 2.01465208e-02 2.74725277e-02</_>
    <_>
      2.50000004e-02 2.81250011e-02 1.71875004e-02 3.59374993e-02
      7.81250000e-03 1.25000002e-02 5.00000007e-02 6.25000009e-03
      6.25000009e-03 2.65625007e-02 2.34375000e-02 1.09374998e-02
      7.65625015e-02 1.87500007e-02 2.03125011e-02 1.25000002e-02
      2.18749996e-02 1.71875004e-02 3.90625000e-02 7.81250000e-03
      9.37500037e-03 7.03125000e-02 4.53125015e-02 2.96874996e-02
      1.09374998e-02 9.37500037e-03 1.25000002e-02 4.06250022e-02
      1.56250000e-02 1.01562500e-01 1.71875004e-02 6.25000009e-03
      1.09374998e-02 3.12500005e-03 2.65625007e-02 1.87500007e-02
      5.31250015e-02 1.87500007e-02 2.34375000e-02 1.25000002e-02</_>
    <_>
      1.28205139e-02 2.56410278e-02 1.06837610e-02 4.91452999e-02
      6.41025696e-03 1.49572659e-02 2.13675220e-02 1.70940179e-02
      2.13675220e-02 1.28205139e-02 2.13675220e-02 1.92307699e-02
      1.88034192e-01 1.49572659e-02 2.35042740e-02 0. 1.06837610e-02
      1.06837610e-02 1.06837610e-02 1.06837610e-02 1.06837610e-02
      1.70940179e-02 1.92307699e-02 2.35042740e-02 1.06837610e-02
      1.70940179e-02 1.70940179e-02 1.28205139e-02 8.54700897e-03
      1.85897440e-01 2.35042740e-02 2.13675224e-03 2.13675220e-02
      4.27350448e-03 2.56410278e-02 1.70940179e-02 3.41880359e-02
      2.77777798e-02 4.27350448e-03 1.49572659e-02</_>
    <_>
      1.50375944e-02 7.51879718e-03 3.00751887e-02 3.75939868e-02 0.
      4.51127812e-02 7.51879718e-03 2.25563906e-02 1.50375944e-02
      4.51127812e-02 3.00751887e-02 7.51879718e-03 1.50375944e-02
      8.27067718e-02 2.25563906e-02 3.00751887e-02 1.50375944e-02 0.
      2.25563906e-02 1.50375944e-02 7.51879718e-03 3.00751887e-02
      1.50375944e-02 7.51879718e-03 3.75939868e-02 2.25563906e-02
      7.51879718e-03 3.00751887e-02 0. 9.02255625e-02 4.51127812e-02 0.
      0. 0. 5.26315793e-02 0. 1.27819553e-01 2.25563906e-02
      3.00751887e-02 7.51879718e-03</_>
    <_>
      2.13270150e-02 2.13270150e-02 2.36966833e-02 2.60663517e-02
      1.65876783e-02 1.42180100e-02 2.36966833e-03 1.65876783e-02
      1.18483417e-02 2.13270150e-02 2.84360200e-02 2.36966833e-02
      1.65876783e-02 1.18483417e-02 3.08056884e-02 2.13270150e-02
      3.08056884e-02 1.65876783e-02 1.65876783e-02 1.89573467e-02
      3.55450250e-02 4.50236984e-02 3.08056884e-02 2.84360200e-02
      2.13270150e-02 3.79146934e-02 2.36966833e-02 1.89573467e-02
      2.36966833e-02 3.79146934e-02 2.84360200e-02 2.60663517e-02
      4.73933667e-02 2.84360200e-02 1.65876783e-02 1.42180100e-02
      3.31753567e-02 3.79146934e-02 3.79146934e-02 3.55450250e-02</_>
    <_>
      1.38504151e-02 2.49307472e-02 4.15512472e-02 3.60110775e-02
      1.38504151e-02 3.04709133e-02 2.77008303e-03 1.66204982e-02
      1.38504151e-02 1.38504151e-02 4.15512472e-02 2.49307472e-02
      6.09418266e-02 3.60110775e-02 4.70914096e-02 1.10803321e-02
      2.49307472e-02 1.10803321e-02 1.10803321e-02 2.77008303e-02
      2.21606642e-02 2.77008303e-03 1.10803321e-02 1.66204982e-02
      2.21606642e-02 1.66204982e-02 1.38504151e-02 2.77008303e-02
      1.66204982e-02 5.54016605e-02 1.93905812e-02 0. 1.10803321e-02
      2.77008303e-03 5.26315793e-02 1.10803321e-02 1.05263159e-01
      5.81717417e-02 1.66204982e-02 1.38504151e-02</_>
    <_>
      3.57142873e-02 1.58730168e-02 1.58730168e-02 1.58730168e-02
      1.58730168e-02 1.98412705e-02 7.93650839e-03 7.93650839e-03
      4.76190522e-02 4.76190522e-02 4.36507948e-02 1.98412705e-02
      3.96825410e-02 9.12698433e-02 4.76190522e-02 3.96825420e-03
      1.58730168e-02 1.19047631e-02 2.77777798e-02 3.57142873e-02
      7.93650839e-03 3.96825420e-03 1.19047631e-02 3.17460336e-02
      3.96825410e-02 7.93650839e-03 1.58730168e-02 2.38095261e-02
      2.77777798e-02 3.17460336e-02 1.19047631e-02 7.93650839e-03
      7.93650839e-03 1.58730168e-02 2.77777798e-02 4.36507948e-02
      7.53968284e-02 1.19047631e-02 7.93650839e-03 1.98412705e-02</_>
    <_>
      1.96078438e-02 2.94117667e-02 2.94117667e-02 3.92156877e-02 0.
      9.80392192e-03 9.80392192e-03 9.80392192e-03 0. 9.80392173e-02
      5.88235334e-02 1.96078438e-02 3.92156877e-02 0. 5.88235334e-02
      2.94117667e-02 0. 0. 1.96078438e-02 2.94117667e-02 9.80392192e-03
      1.96078438e-02 0. 3.92156877e-02 1.07843138e-01 1.96078438e-02 0.
      2.94117667e-02 9.80392192e-03 1.96078438e-02 1.96078438e-02 0. 0.
      1.96078438e-02 9.80392173e-02 1.96078438e-02 3.92156877e-02
      1.96078438e-02 9.80392192e-03 1.96078438e-02</_>
    <_>
      1.07123442e-01 1.25067979e-02 1.14192497e-02 4.29581329e-02
      1.19630238e-02 5.65524772e-02 8.70038103e-03 6.52528554e-03
      6.52528554e-03 5.22022843e-02 1.74007621e-02 1.46818934e-02
      5.27460612e-02 3.96954902e-02 2.33822744e-02 1.25067979e-02
      1.84883103e-02 1.63132139e-02 1.84883103e-02 7.61283329e-03
      2.22947262e-02 5.98151190e-03 1.46818934e-02 1.25067979e-02
      1.95758566e-02 9.78792831e-03 1.57694407e-02 1.30505711e-02
      2.82762386e-02 4.78520952e-02 1.95758566e-02 1.20717786e-01
      1.79445352e-02 1.74007621e-02 1.90320835e-02 1.41381193e-02
      1.25067979e-02 1.35943452e-02 2.33822744e-02 1.41381193e-02</_>
    <_>
      0. 5.64516112e-02 2.41935477e-02 2.41935477e-02 1.61290318e-02 0.
      4.03225794e-02 7.25806430e-02 0. 0. 0. 1.61290318e-02
      8.06451589e-02 8.06451589e-02 0. 8.06451589e-03 8.06451589e-03
      1.61290318e-02 3.22580636e-02 4.03225794e-02 2.41935477e-02
      5.64516112e-02 1.61290318e-02 0. 8.06451589e-03 4.03225794e-02
      8.06451589e-03 4.83870953e-02 2.41935477e-02 2.41935477e-02
      1.61290318e-02 0. 1.61290318e-02 5.64516112e-02 2.41935477e-02
      8.06451589e-03 8.06451589e-02 0. 1.61290318e-02 1.61290318e-02</_>
    <_>
      2.07667723e-02 2.79552713e-02 2.47603822e-02 1.91693287e-02
      2.07667723e-02 2.39616614e-02 3.11501585e-02 8.38658139e-02
      3.59424911e-02 2.31629387e-02 1.59744397e-02 2.31629387e-02
      4.07348238e-02 4.07348238e-02 1.59744397e-02 1.27795525e-02
      2.71565486e-02 3.11501585e-02 1.59744397e-02 1.75718851e-02
      1.59744397e-02 1.03833862e-02 1.03833862e-02 1.11821089e-02
      2.39616614e-02 2.71565486e-02 2.23642178e-02 2.23642178e-02
      1.59744397e-02 5.35143763e-02 2.87539922e-02 1.35782743e-02
      2.15654951e-02 1.75718851e-02 1.35782743e-02 1.83706060e-02
      4.95207645e-02 2.23642178e-02 2.31629387e-02 2.55591050e-02</_>
    <_>
      2.32558139e-02 9.30232555e-03 1.39534883e-02 3.72093022e-02
      1.39534883e-02 2.79069766e-02 0. 0. 1.39534883e-02 2.79069766e-02
      3.72093022e-02 1.39534883e-02 3.25581394e-02 1.11627907e-01
      4.18604650e-02 1.86046511e-02 9.30232555e-03 1.39534883e-02
      4.65116277e-03 2.79069766e-02 9.30232555e-03 2.32558139e-02
      1.86046511e-02 2.32558139e-02 3.25581394e-02 1.39534883e-02
      4.65116277e-03 2.32558139e-02 9.30232555e-03 1.39534883e-02
      1.86046511e-02 4.65116277e-03 3.25581394e-02 4.65116277e-03
      4.18604650e-02 1.39534883e-02 1.39534891e-01 4.65116277e-02
      1.39534883e-02 3.25581394e-02</_>
    <_>
      2.30826512e-02 1.56366341e-02 2.15934478e-02 1.78704392e-02
      5.43559194e-02 2.01042444e-02 2.08488461e-02 4.46760980e-03
      5.95681323e-03 1.16902463e-01 2.68056598e-02 1.56366341e-02
      1.86150409e-02 7.44601653e-04 3.05286683e-02 1.78704392e-02
      1.41474316e-02 4.16976921e-02 1.93596426e-02 5.21221152e-03
      4.31868955e-02 8.19061790e-03 5.21221152e-03 2.23380495e-02
      1.86150409e-02 1.48920333e-02 6.10573366e-02 1.63812358e-02
      1.63812358e-02 1.71258375e-02 2.30826512e-02 6.77587539e-02
      2.15934478e-02 5.58451228e-02 1.56366341e-02 4.76545058e-02
      4.46760980e-03 1.71258375e-02 1.34028299e-02 1.86150409e-02</_>
    <_>
      1.42517816e-02 2.96912119e-02 1.42517816e-02 3.20665091e-02
      2.01900247e-02 7.12589081e-03 2.37529706e-02 1.06888367e-02
      2.01900247e-02 3.20665091e-02 7.12589081e-03 2.49406192e-02
      5.70071265e-02 1.48456067e-01 8.31353944e-03 7.12589081e-03
      9.50118806e-03 1.06888367e-02 1.78147275e-02 1.30641339e-02
      2.96912119e-02 9.50118806e-03 7.12589081e-03 2.73159165e-02
      1.78147275e-02 1.30641339e-02 1.66270789e-02 3.08788605e-02
      2.25653220e-02 5.93824238e-02 1.06888367e-02 1.90023761e-02
      2.49406192e-02 4.03800495e-02 2.96912119e-02 1.78147275e-02
      3.44418064e-02 2.73159165e-02 2.37529706e-02 2.96912119e-02</_>
    <_>
      9.38967150e-03 2.34741773e-02 1.72143970e-02 1.25195617e-02
      7.82472640e-03 1.56494521e-03 2.50391234e-02 7.66823143e-02
      4.06885743e-02 3.12989042e-03 6.25978084e-03 9.38967150e-03
      5.47730811e-02 1.72143970e-02 1.09546166e-02 1.25195617e-02
      1.40845068e-02 1.40845068e-02 3.91236320e-02 4.69483575e-03
      1.56494528e-02 4.38184664e-02 5.94679192e-02 2.50391234e-02
      2.50391234e-02 2.34741773e-02 1.40845068e-02 2.19092332e-02
      4.38184664e-02 8.13771486e-02 9.38967150e-03 7.82472640e-03
      4.38184664e-02 2.34741773e-02 2.97339596e-02 1.25195617e-02
      2.03442872e-02 1.87793430e-02 3.59937400e-02 4.38184664e-02</_>
    <_>
      5.01319245e-02 2.11081784e-02 2.90237460e-02 9.67458170e-03
      2.90237460e-02 5.01319245e-02 1.40721193e-02 5.27704461e-03 0.
      1.16974488e-01 5.45294620e-02 1.49516268e-02 3.43007892e-02
      1.49516268e-02 6.77220747e-02 2.28671934e-02 1.40721193e-02
      2.63852235e-02 2.81442385e-02 2.37467010e-02 1.84696559e-02
      1.23131042e-02 9.67458170e-03 1.84696559e-02 2.72647310e-02
      1.14335967e-02 2.46262085e-02 1.67106409e-02 1.14335967e-02
      2.37467010e-02 2.37467010e-02 2.19876859e-02 1.14335967e-02
      1.49516268e-02 2.99032535e-02 3.07827611e-02 1.40721193e-02
      2.28671934e-02 1.05540892e-02 1.84696559e-02</_>
    <_>
      3.68098170e-02 3.37423310e-02 3.98772992e-02 3.37423310e-02
      1.22699384e-02 3.37423310e-02 6.13496918e-03 0. 6.13496918e-03
      6.13496900e-02 4.29447852e-02 1.22699384e-02 3.37423310e-02
      3.68098170e-02 4.90797535e-02 3.68098170e-02 9.20245424e-03
      1.84049085e-02 2.45398767e-02 9.20245424e-03 6.13496918e-03
      6.13496918e-03 1.22699384e-02 3.98772992e-02 4.29447852e-02
      9.20245424e-03 1.22699384e-02 2.76073609e-02 1.84049085e-02
      3.98772992e-02 9.20245424e-03 1.22699384e-02 9.20245424e-03
      1.22699384e-02 7.36196339e-02 1.84049085e-02 3.68098170e-02
      5.21472394e-02 1.53374225e-02 9.20245424e-03</_>
    <_>
      3.70370373e-02 3.70370373e-02 6.73400657e-03 4.37710434e-02
      1.34680131e-02 1.34680131e-02 4.04040404e-02 2.35690232e-02
      2.69360263e-02 6.73400657e-03 2.69360263e-02 3.36700343e-02
      4.37710434e-02 6.73400657e-03 2.69360263e-02 6.73400657e-03
      3.36700343e-02 1.68350171e-02 3.36700343e-02 3.36700329e-03
      1.34680131e-02 0. 6.73400657e-03 2.02020202e-02 3.03030293e-02
      3.70370373e-02 2.02020202e-02 4.71380465e-02 8.41750801e-02
      3.03030293e-02 2.69360263e-02 1.68350171e-02 4.37710434e-02
      2.02020202e-02 3.36700329e-03 2.69360263e-02 0. 2.35690232e-02
      3.70370373e-02 3.03030293e-02</_>
    <_>
      3.31491716e-02 2.76243109e-02 1.10497242e-02 3.59116048e-02
      1.38121555e-02 1.10497242e-02 4.14364673e-02 8.28729291e-03
      1.93370171e-02 5.24861887e-02 1.65745858e-02 3.31491716e-02
      1.27071828e-01 1.93370171e-02 8.28729291e-03 5.52486209e-03
      5.52486209e-03 2.20994484e-02 1.65745858e-02 2.76243105e-03
      2.48618796e-02 8.28729291e-03 5.52486209e-03 1.10497242e-02
      1.38121555e-02 1.38121555e-02 5.52486209e-03 1.93370171e-02
      2.20994484e-02 1.18784532e-01 2.76243105e-03 4.97237593e-02
      3.03867422e-02 3.86740342e-02 4.69613262e-02 1.93370171e-02
      1.93370171e-02 8.28729291e-03 8.28729291e-03 2.20994484e-02</_>
    <_>
      2.07509883e-02 2.17391308e-02 1.48221347e-02 1.87747050e-02
      2.47035585e-02 9.88142379e-03 1.97628476e-02 1.38339922e-02
      1.18577080e-02 5.43478280e-02 1.08695654e-02 3.26086953e-02
      8.99209529e-02 5.23715429e-02 1.18577080e-02 7.90513866e-03
      1.08695654e-02 2.27272734e-02 1.58102773e-02 2.96442700e-03
      2.66798437e-02 1.08695654e-02 1.38339922e-02 1.97628476e-02
      1.77865624e-02 1.97628476e-02 2.07509883e-02 3.45849805e-02
      4.94071171e-02 6.32411093e-02 7.90513866e-03 4.05138358e-02
      1.58102773e-02 5.03952578e-02 2.17391308e-02 2.86561269e-02
      3.65612656e-02 1.67984199e-02 1.67984199e-02 1.97628476e-02</_>
    <_>
      1.46878827e-02 1.95838436e-02 2.57037953e-02 3.54957171e-02
      1.59118734e-02 1.22399023e-02 3.18237469e-02 3.05997562e-02
      2.20318250e-02 2.93757655e-02 2.08078343e-02 2.81517748e-02
      1.06487148e-01 7.09914342e-02 2.32558139e-02 1.10159125e-02
      1.10159125e-02 9.79192182e-03 1.71358623e-02 7.34394137e-03
      1.59118734e-02 1.95838436e-02 4.28396575e-02 1.10159125e-02
      1.22399023e-02 1.46878827e-02 3.67197068e-03 1.71358623e-02
      1.22399023e-02 1.00367196e-01 8.56793113e-03 6.11995114e-03
      9.79192182e-03 2.20318250e-02 2.44798046e-02 1.46878827e-02
      7.83353746e-02 1.95838436e-02 1.10159125e-02 1.22399023e-02</_>
    <_>
      4.16156687e-02 1.83598530e-02 1.52998781e-02 2.38678101e-02
      2.75397804e-02 1.89718492e-02 2.57037953e-02 6.73194602e-03
      1.22399023e-03 1.52998775e-01 1.52998781e-02 2.14198288e-02
      1.65238678e-02 3.67197068e-03 1.89718492e-02 1.46878827e-02
      1.59118734e-02 5.63035496e-02 1.22399023e-02 4.89596091e-03
      2.44798046e-02 7.34394137e-03 5.50795626e-03 2.75397804e-02
      1.65238678e-02 1.59118734e-02 5.81395365e-02 1.89718492e-02
      1.95838436e-02 1.71358623e-02 2.08078343e-02 1.43206850e-01
      1.40758874e-02 2.08078343e-02 1.10159125e-02 2.14198288e-02
      3.67197068e-03 2.50917990e-02 6.73194602e-03 9.79192182e-03</_>
    <_>
      5.60224103e-03 2.80112047e-02 3.92156877e-02 2.24089641e-02
      1.96078438e-02 8.40336177e-03 3.92156877e-02 7.56302550e-02
      8.12324956e-02 0. 8.40336177e-03 4.20168079e-02 1.96078438e-02
      1.12044821e-02 1.40056023e-02 8.40336177e-03 2.24089641e-02
      2.24089641e-02 8.40336177e-03 8.40336177e-03 2.24089641e-02
      3.64145674e-02 4.48179282e-02 2.52100844e-02 1.68067235e-02
      2.24089641e-02 1.12044821e-02 2.80112047e-02 2.52100844e-02
      4.20168079e-02 1.40056023e-02 1.40056023e-02 5.60224093e-02
      1.40056023e-02 3.08123250e-02 3.08123250e-02 1.40056023e-02
      1.68067235e-02 2.80112047e-02 2.24089641e-02</_>
    <_>
      1.64899882e-02 5.06478213e-02 2.70906966e-02 1.64899882e-02
      3.65135483e-02 1.76678449e-02 7.30270967e-02 1.88457016e-02 0.
      1.53121324e-02 3.29799764e-02 3.65135483e-02 5.30035347e-02
      3.53356916e-03 2.70906966e-02 1.17785633e-02 1.76678449e-02
      1.76678449e-02 2.70906966e-02 1.53121324e-02 1.64899882e-02
      1.53121324e-02 5.88928163e-03 2.70906966e-02 1.88457016e-02
      2.59128399e-02 2.70906966e-02 5.65371066e-02 2.94464082e-02
      6.00706749e-02 2.35571265e-02 2.35571270e-03 2.94464082e-02
      2.12014150e-02 2.23792698e-02 3.65135483e-02 5.88928163e-03
      1.76678449e-02 2.23792698e-02 2.12014150e-02</_>
    <_>
      3.24675329e-02 3.24675329e-02 2.59740259e-02 3.89610380e-02
      3.89610380e-02 1.29870130e-02 6.49350658e-02 4.54545468e-02
      4.54545468e-02 1.29870130e-02 1.29870130e-02 2.59740259e-02 0. 0.
      1.29870130e-02 6.49350649e-03 3.89610380e-02 3.24675329e-02
      3.89610380e-02 6.49350649e-03 1.94805190e-02 1.94805190e-02
      1.29870130e-02 2.59740259e-02 1.94805190e-02 1.29870130e-02
      2.59740259e-02 6.49350649e-03 0. 3.89610380e-02 5.84415570e-02
      3.24675329e-02 3.24675329e-02 1.29870130e-02 1.94805190e-02
      1.94805190e-02 0. 3.89610380e-02 3.24675329e-02 4.54545468e-02</_>
    <_>
      7.37100746e-03 2.70270258e-02 3.43980342e-02 4.42260429e-02
      2.45700236e-02 1.96560193e-02 3.19410302e-02 3.19410302e-02
      9.82800964e-03 7.37100746e-03 2.45700236e-02 2.94840299e-02
      2.21130215e-02 1.47420149e-02 3.19410302e-02 1.96560193e-02
      2.21130215e-02 1.47420149e-02 1.71990171e-02 2.45700241e-03
      2.45700241e-03 2.21130215e-02 2.45700236e-02 6.14250600e-02
      2.70270258e-02 1.96560193e-02 1.47420149e-02 4.17690426e-02
      1.71990171e-02 4.91400473e-02 3.43980342e-02 7.37100746e-03
      1.71990171e-02 2.45700241e-03 5.15970513e-02 9.82800964e-03
      5.65110557e-02 4.91400473e-02 2.21130215e-02 3.19410302e-02</_>
    <_>
      7.65306130e-03 2.29591839e-02 2.04081628e-02 4.59183678e-02
      2.29591839e-02 1.78571418e-02 3.31632644e-02 4.08163257e-02
      5.10204062e-02 5.10204071e-03 2.04081628e-02 1.53061226e-02
      5.86734675e-02 5.10204071e-03 2.04081628e-02 2.55102031e-02
      1.78571418e-02 2.80612241e-02 3.82653065e-02 1.02040814e-02
      1.27551015e-02 2.80612241e-02 1.53061226e-02 2.80612241e-02
      7.65306130e-03 1.78571418e-02 2.55102031e-02 2.80612241e-02
      4.84693870e-02 8.67346898e-02 1.02040814e-02 7.65306130e-03
      1.53061226e-02 1.02040814e-02 1.02040814e-02 3.57142836e-02
      1.02040814e-02 3.06122452e-02 2.29591839e-02 4.08163257e-02</_>
    <_>
      1.72413792e-02 8.62068962e-03 3.44827585e-02 1.72413792e-02
      8.62068962e-03 2.58620679e-02 4.31034490e-02 1.72413792e-02
      1.72413792e-02 1.72413792e-02 4.31034490e-02 2.58620679e-02
      1.72413792e-02 8.62068962e-03 8.62068962e-03 5.17241359e-02
      2.58620679e-02 3.44827585e-02 1.72413792e-02 0. 4.31034490e-02
      4.31034490e-02 4.31034490e-02 1.72413792e-02 2.58620679e-02
      2.58620679e-02 2.58620679e-02 8.62068962e-03 0. 3.44827585e-02
      1.72413792e-02 4.31034490e-02 6.03448264e-02 6.03448264e-02
      8.62068962e-03 1.72413792e-02 8.62068962e-03 3.44827585e-02
      2.58620679e-02 1.72413792e-02</_>
    <_>
      1.20120123e-02 1.95195191e-02 2.55255252e-02 4.20420431e-02
      1.80180185e-02 1.80180185e-02 7.50750769e-03 2.70270277e-02
      5.10510504e-02 1.84684694e-01 4.20420431e-02 1.65165178e-02
      6.75675720e-02 2.70270277e-02 3.90390381e-02 2.25225240e-02
      1.35135138e-02 1.35135138e-02 1.65165178e-02 6.00600615e-03
      3.00300308e-03 6.00600615e-03 6.00600615e-03 3.60360369e-02
      3.15315314e-02 1.20120123e-02 7.50750769e-03 2.85285302e-02
      7.50750769e-03 3.75375375e-02 1.80180185e-02 4.50450461e-03
      3.00300308e-03 1.50150154e-03 3.90390381e-02 1.95195191e-02
      9.00900923e-03 3.60360369e-02 1.05105108e-02 1.35135138e-02</_>
    <_>
      3.29218097e-02 5.34979403e-02 5.34979403e-02 1.64609049e-02
      2.46913582e-02 2.88065840e-02 3.70370373e-02 8.23045243e-03
      1.64609049e-02 1.64609049e-02 2.46913582e-02 4.11522612e-02
      4.11522612e-02 4.52674888e-02 2.05761306e-02 4.11522621e-03
      1.23456791e-02 1.64609049e-02 2.05761306e-02 2.46913582e-02
      4.11522621e-03 1.23456791e-02 1.23456791e-02 6.58436194e-02
      2.88065840e-02 2.88065840e-02 1.23456791e-02 4.52674888e-02
      1.64609049e-02 4.11522612e-02 8.23045243e-03 0. 8.23045243e-03
      1.23456791e-02 6.58436194e-02 8.23045243e-03 1.64609049e-02
      4.11522612e-02 1.64609049e-02 1.64609049e-02</_>
    <_>
      1.67753957e-02 2.23671943e-02 2.42311284e-02 1.21155642e-02
      2.51630954e-02 1.21155642e-02 2.05032621e-02 8.20130482e-02
      8.85368139e-02 9.31966491e-03 1.39794974e-02 1.49114635e-02
      1.58434305e-02 3.72786587e-03 1.86393298e-02 7.45573174e-03
      1.58434305e-02 4.84622568e-02 2.14352291e-02 3.72786587e-03
      8.38769786e-03 5.40540554e-02 3.54147255e-02 2.05032621e-02
      1.67753957e-02 1.58434305e-02 4.28704582e-02 1.49114635e-02
      4.00745571e-02 3.35507914e-02 2.14352291e-02 2.60950606e-02
      3.91425900e-02 2.05032621e-02 1.30475303e-02 1.30475303e-02
      5.59179857e-03 2.88909599e-02 3.54147255e-02 3.72786596e-02</_>
    <_>
      2.39149686e-02 3.45438421e-02 1.94862708e-02 3.18866260e-02
      2.56864484e-02 1.94862708e-02 9.74313542e-03 1.41718332e-02
      1.50575731e-02 2.30292287e-02 2.83436663e-02 2.39149686e-02
      5.13728969e-02 4.25155014e-02 3.01151462e-02 6.20017713e-03
      1.59433130e-02 1.77147910e-02 4.16297615e-02 1.24003543e-02
      3.10008842e-02 2.39149686e-02 3.18866260e-02 2.65721865e-02
      1.06288753e-02 2.65721865e-02 1.32860932e-02 2.48007085e-02
      4.34012376e-02 3.80868018e-02 1.32860932e-02 1.77147910e-02
      3.45438421e-02 2.83436663e-02 1.86005309e-02 1.50575731e-02
      2.65721865e-02 2.30292287e-02 3.98582816e-02 2.56864484e-02</_>
    <_>
      1.81190688e-02 1.12165660e-02 1.03537533e-02 2.76100095e-02
      8.62812810e-03 2.76100095e-02 9.49094072e-03 6.29853308e-02
      1.32010356e-01 3.10612600e-02 3.10612600e-02 4.31406405e-03
      3.45125124e-02 2.84728222e-02 2.84728222e-02 1.46678174e-02
      8.62812810e-03 2.32959464e-02 3.45125124e-02 6.90250238e-03
      5.17687667e-03 6.38481453e-02 6.72993958e-02 1.55306300e-02
      1.63934436e-02 7.76531501e-03 4.14150134e-02 1.12165660e-02
      8.62812810e-03 2.50215717e-02 8.62812810e-03 1.55306300e-02
      2.50215717e-02 7.76531501e-03 1.89818814e-02 4.31406405e-03
      2.41587590e-02 1.81190688e-02 2.41587590e-02 3.71009521e-02</_>
    <_>
      4.84848469e-02 9.09090880e-03 3.33333313e-02 6.06060587e-03
      1.51515147e-02 6.66666627e-02 3.03030293e-03 0. 3.03030293e-03
      6.66666627e-02 6.06060587e-02 3.03030293e-02 1.81818176e-02
      9.39393938e-02 5.45454547e-02 3.33333313e-02 2.72727273e-02 0.
      6.06060587e-03 2.12121196e-02 1.21212117e-02 6.06060587e-03
      1.21212117e-02 9.09090880e-03 2.42424235e-02 1.81818176e-02
      3.03030293e-03 9.09090880e-03 6.06060587e-03 1.21212117e-02
      3.33333313e-02 9.09090880e-03 3.03030293e-03 9.09090880e-03
      7.87878782e-02 1.21212117e-02 1.06060602e-01 3.63636352e-02
      3.03030293e-03 0.</_>
    <_>
      0. 1.60000008e-02 8.00000038e-03 2.40000002e-02 1.60000008e-02 0.
      4.00000028e-02 4.80000004e-02 2.40000002e-02 0. 8.00000038e-03
      3.20000015e-02 1.04000002e-01 2.40000002e-02 0. 0. 1.60000008e-02
      2.40000002e-02 1.60000008e-02 1.60000008e-02 8.00000038e-03 0.
      8.00000038e-03 4.80000004e-02 2.40000002e-02 3.20000015e-02
      8.00000038e-03 3.20000015e-02 2.40000002e-02 1.28000006e-01
      1.60000008e-02 0. 3.20000015e-02 4.00000028e-02 3.20000015e-02
      2.40000002e-02 4.00000028e-02 4.00000028e-02 1.60000008e-02
      3.20000015e-02</_>
    <_>
      3.99113074e-02 1.88470073e-02 1.33037698e-02 2.43902430e-02
      1.66297108e-02 1.77383590e-02 2.77161859e-02 2.88248342e-02
      1.77383590e-02 8.98004398e-02 1.77383590e-02 1.88470073e-02
      7.09534362e-02 1.10864742e-02 1.10864742e-02 1.55210644e-02
      1.77383590e-02 3.43680717e-02 1.44124171e-02 2.21729488e-03
      1.33037698e-02 9.97782685e-03 7.76053220e-03 1.99556537e-02
      1.21951215e-02 1.99556537e-02 3.32594216e-02 2.10643020e-02
      5.43237254e-02 5.32150790e-02 2.32815966e-02 7.53880292e-02
      3.32594216e-02 1.88470073e-02 1.10864742e-02 1.10864742e-02
      1.21951215e-02 2.10643020e-02 2.21729483e-02 1.77383590e-02</_>
    <_>
      7.50469044e-03 2.62664165e-02 7.50469044e-03 2.25140713e-02
      1.31332083e-02 1.12570357e-02 2.25140713e-02 5.62851783e-03
      9.94371474e-02 1.12570357e-02 2.06378996e-02 5.62851783e-03
      1.31332083e-02 6.37898669e-02 4.31519710e-02 5.62851783e-03
      7.50469044e-03 1.87617261e-03 1.68855526e-02 3.75234522e-02
      3.75234522e-03 9.38086305e-03 1.31332083e-02 1.31332083e-02
      1.50093809e-02 1.87617261e-02 5.62851783e-03 2.81425901e-02
      1.12570357e-02 7.50469044e-03 5.62851783e-03 1.12570357e-02
      2.06378996e-02 1.87617261e-03 5.62851783e-03 9.38086305e-03
      3.32082540e-01 1.50093809e-02 1.50093809e-02 1.50093809e-02</_>
    <_>
      1.59292035e-02 1.41592920e-02 1.76991150e-02 2.65486725e-02
      2.47787610e-02 1.23893805e-02 3.89380530e-02 2.47787610e-02
      3.89380530e-02 1.59292035e-02 1.41592920e-02 2.30088495e-02
      6.37168139e-02 1.76991150e-02 1.23893805e-02 5.30973449e-03
      1.41592920e-02 2.12389380e-02 3.89380530e-02 8.84955749e-03
      1.94690265e-02 2.65486725e-02 2.65486725e-02 7.07964599e-03
      8.84955749e-03 2.30088495e-02 3.89380530e-02 1.41592920e-02
      2.12389380e-02 4.07079645e-02 1.23893805e-02 3.18584070e-02
      3.36283185e-02 1.20353982e-01 1.06194690e-02 2.47787610e-02
      5.30973449e-03 1.23893805e-02 3.53982300e-02 3.71681415e-02</_>
    <_>
      3.56671065e-02 4.62351404e-02 2.11360641e-02 3.30251008e-02
      3.69881131e-02 2.50990763e-02 1.84940565e-02 7.92602450e-03
      3.96301225e-03 1.84940565e-02 3.30251008e-02 3.83091159e-02
      4.62351404e-02 5.54821678e-02 4.22721282e-02 1.98150594e-02
      3.30251008e-02 9.24702827e-03 3.83091159e-02 1.84940565e-02
      6.60501979e-03 6.60501979e-03 1.98150594e-02 2.77410839e-02
      2.64200792e-02 1.58520490e-02 1.58520490e-02 2.64200792e-02
      3.17040980e-02 2.11360641e-02 2.37780716e-02 6.60501979e-03
      1.32100396e-02 6.60501979e-03 4.88771498e-02 2.37780716e-02
      3.43461037e-02 3.17040980e-02 2.37780716e-02 7.92602450e-03</_>
    <_>
      4.40528616e-03 2.64317170e-02 2.20264308e-02 3.52422893e-02
      3.52422893e-02 0. 5.72687201e-02 2.20264308e-02 4.40528616e-03
      3.08370031e-02 3.08370031e-02 2.20264308e-02 7.04845786e-02
      1.32158585e-02 2.64317170e-02 3.52422893e-02 1.76211447e-02
      3.08370031e-02 3.52422893e-02 1.32158585e-02 4.40528616e-03
      2.64317170e-02 0. 2.20264308e-02 2.20264308e-02 4.40528616e-02
      1.76211447e-02 2.20264308e-02 1.32158585e-02 6.60792887e-02
      2.20264308e-02 3.52422893e-02 2.64317170e-02 8.81057233e-03
      2.64317170e-02 1.76211447e-02 1.32158585e-02 3.08370031e-02
      8.81057233e-03 3.96475755e-02</_>
    <_>
      1.79533213e-02 1.79533213e-02 4.12926413e-02 5.38599677e-03
      1.25673255e-02 5.38599677e-03 2.69299820e-02 1.84919208e-01
      1.34649917e-01 1.79533218e-03 1.79533213e-02 1.25673255e-02
      4.48833033e-02 2.33393181e-02 8.97666067e-03 5.38599677e-03
      1.61579903e-02 3.41113098e-02 2.15439871e-02 7.18132872e-03
      3.59066436e-03 3.23159806e-02 2.33393181e-02 1.43626574e-02
      4.12926413e-02 2.33393181e-02 1.79533213e-02 1.25673255e-02
      8.97666067e-03 1.97486542e-02 1.61579903e-02 8.97666067e-03
      1.97486542e-02 7.18132872e-03 1.79533213e-02 1.61579903e-02
      1.07719935e-02 1.97486542e-02 3.41113098e-02 1.07719935e-02</_>
    <_>
      4.74174432e-02 1.94750205e-02 1.43945804e-02 1.27011007e-02
      2.37087216e-02 4.23370004e-02 1.01608802e-02 9.31414030e-03
      1.10076200e-02 1.34631664e-01 2.96359006e-02 1.52413202e-02
      3.64098214e-02 9.31414030e-03 3.38696018e-02 1.43945804e-02
      1.35478405e-02 2.62489412e-02 2.79424209e-02 1.18543608e-02
      1.86282806e-02 2.70956811e-02 2.11685002e-02 2.70956811e-02
      1.94750205e-02 1.77815408e-02 2.96359006e-02 1.10076200e-02
      2.37087216e-02 2.20152400e-02 2.37087216e-02 4.99576628e-02
      2.87891608e-02 1.94750205e-02 1.69348009e-02 2.28619818e-02
      1.69348009e-02 2.28619818e-02 2.20152400e-02 1.52413202e-02</_>
    <_>
      5.59776090e-02 1.27948821e-02 2.11915225e-02 1.59936026e-02
      1.83926430e-02 4.03838456e-02 9.19632148e-03 8.79648142e-03
      5.99760097e-03 9.79608148e-02 2.87884846e-02 1.83926430e-02
      8.79648142e-03 1.07956817e-02 3.83846462e-02 2.95881648e-02
      2.39904039e-02 4.31827269e-02 1.59936026e-02 2.27908827e-02
      3.87844853e-02 2.23910436e-02 1.79928020e-02 1.75929628e-02
      2.03918442e-02 1.47940824e-02 3.83846462e-02 1.15953619e-02
      1.91923231e-02 1.15953619e-02 2.59896033e-02 7.39704147e-02
      3.03878449e-02 2.59896033e-02 1.27948821e-02 2.11915225e-02
      1.27948821e-02 1.39944023e-02 1.35945622e-02 2.91883238e-02</_>
    <_>
      4.83091781e-03 1.93236712e-02 2.41545886e-02 3.38164233e-02
      3.38164233e-02 4.83091772e-02 9.66183562e-03 4.83091781e-03
      4.83091781e-03 1.44927539e-02 2.89855078e-02 2.89855078e-02
      9.66183562e-03 2.89855078e-02 3.86473425e-02 1.93236712e-02
      2.41545886e-02 1.93236712e-02 1.44927539e-02 2.41545886e-02
      4.83091781e-03 1.44927539e-02 4.83091781e-03 4.83091772e-02
      5.31400964e-02 3.38164233e-02 0. 2.41545886e-02 3.38164233e-02
      3.86473425e-02 2.89855078e-02 0. 2.89855078e-02 9.66183562e-03
      8.21256042e-02 4.34782617e-02 2.89855078e-02 4.34782617e-02
      3.38164233e-02 9.66183562e-03</_>
    <_>
      1.60714295e-02 9.82142892e-03 1.33928573e-02 8.03571474e-03
      5.00000007e-02 1.60714295e-02 1.25000002e-02 2.50000004e-02
      1.42857144e-02 7.32142851e-02 1.25000002e-02 1.07142860e-02
      3.39285731e-02 2.67857150e-03 2.32142862e-02 1.96428578e-02
      1.69642866e-02 3.83928567e-02 1.07142860e-02 9.82142892e-03
      3.30357142e-02 2.67857150e-03 3.57142859e-03 4.46428591e-03
      9.82142892e-03 1.78571437e-02 5.17857149e-02 6.25000009e-03
      1.42857144e-02 1.26785710e-01 2.41071433e-02 3.92857157e-02
      3.03571429e-02 1.26785710e-01 2.67857150e-03 4.19642851e-02
      8.92857148e-04 9.82142892e-03 1.87500007e-02 1.78571437e-02</_>
    <_>
      1.67364012e-02 2.92887017e-02 2.09205020e-02 4.18410040e-02
      1.25523005e-02 4.18410031e-03 1.67364012e-02 0. 0. 5.02092019e-02
      2.09205020e-02 4.18410031e-03 1.67364016e-01 8.36820081e-02
      2.92887017e-02 2.51046009e-02 1.25523005e-02 1.67364012e-02
      1.25523005e-02 1.67364012e-02 0. 1.25523005e-02 0. 2.92887017e-02
      1.67364012e-02 8.36820062e-03 8.36820062e-03 2.09205020e-02
      4.18410031e-03 1.25523016e-01 2.92887017e-02 4.18410031e-03
      1.25523005e-02 4.18410031e-03 2.51046009e-02 8.36820062e-03
      6.69456050e-02 2.92887017e-02 8.36820062e-03 4.18410031e-03</_>
    <_>
      5.99721074e-02 6.97350083e-03 1.25523014e-02 2.92887036e-02
      2.78940033e-02 4.04463038e-02 1.39470017e-02 1.04602510e-02
      1.60390511e-02 5.02092056e-02 3.13807540e-02 7.67085096e-03
      1.67364012e-02 1.67364012e-02 4.67224531e-02 2.16178522e-02
      1.60390511e-02 3.83542553e-02 4.53277528e-02 1.60390511e-02
      1.74337514e-02 7.39191100e-02 6.97350055e-02 6.97350083e-03
      8.36820062e-03 1.32496515e-02 3.41701545e-02 6.97350083e-03
      6.27615070e-03 1.81311015e-02 2.37099025e-02 3.69595550e-02
      2.64993031e-02 1.81311015e-02 1.11576011e-02 1.81311015e-02
      1.88284516e-02 6.97350083e-03 2.92887036e-02 3.06834038e-02</_>
    <_>
      2.04359666e-02 1.63487736e-02 1.63487736e-02 2.99727507e-02
      1.22615807e-02 2.31607631e-02 5.44959120e-03 2.17983648e-02
      8.17438681e-03 4.76839244e-02 2.31607631e-02 1.08991824e-02
      5.58583103e-02 7.35694841e-02 2.99727507e-02 1.08991824e-02
      1.90735683e-02 8.17438681e-03 2.45231614e-02 3.40599455e-02
      2.72479560e-03 1.90735683e-02 1.49863753e-02 3.13351490e-02
      1.77111719e-02 2.72479560e-02 6.81198901e-03 2.17983648e-02
      2.04359666e-02 1.03542231e-01 2.31607631e-02 4.08719340e-03
      1.22615807e-02 1.36239780e-03 4.22343314e-02 9.53678414e-03
      7.22070858e-02 3.13351490e-02 2.86103543e-02 1.77111719e-02</_>
    <_>
      1.62454881e-02 9.02527105e-03 1.44404331e-02 2.34657042e-02
      1.62454881e-02 1.08303251e-02 3.42960283e-02 4.33213003e-02
      5.59566766e-02 1.98555961e-02 1.80505421e-02 1.08303251e-02
      4.87364605e-02 2.88808662e-02 2.88808662e-02 3.06859203e-02
      7.22021656e-03 9.02527105e-03 1.26353791e-02 1.26353791e-02
      1.08303251e-02 3.42960283e-02 5.23465686e-02 1.44404331e-02
      1.44404331e-02 1.98555961e-02 2.16606501e-02 2.34657042e-02
      1.44404331e-02 2.16606501e-02 1.62454881e-02 3.61010828e-03
      3.06859203e-02 1.26353791e-02 7.22021656e-03 9.02527105e-03
      1.71480149e-01 7.22021656e-03 2.52707582e-02 3.79061364e-02</_>
    <_>
      2.17391290e-02 4.34782580e-02 2.17391290e-02 1.73913036e-02
      8.69565178e-03 4.34782589e-03 5.65217361e-02 3.47826071e-02
      1.73913036e-02 4.34782589e-03 2.17391290e-02 3.91304344e-02
      4.78260852e-02 3.04347817e-02 1.30434781e-02 8.69565178e-03
      2.17391290e-02 2.60869563e-02 8.69565178e-03 1.30434781e-02
      8.69565178e-03 8.69565178e-03 1.73913036e-02 3.47826071e-02
      3.47826071e-02 3.47826071e-02 2.17391290e-02 3.91304344e-02
      2.60869563e-02 9.56521705e-02 1.30434781e-02 4.34782589e-03
      3.04347817e-02 8.69565178e-03 3.91304344e-02 3.47826071e-02
      8.69565178e-03 3.91304344e-02 2.60869563e-02 1.30434781e-02</_>
    <_>
      0. 0. 3.12500000e-02 0. 6.25000000e-02 0. 6.25000000e-02 0. 0.
      3.12500000e-02 0. 0. 3.12500000e-02 0. 3.12500000e-02
      3.12500000e-02 0. 6.25000000e-02 0. 0. 1.56250000e-01 0. 0.
      3.12500000e-02 6.25000000e-02 6.25000000e-02 0. 9.37500000e-02 0.
      0. 0. 6.25000000e-02 3.12500000e-02 9.37500000e-02 0.
      6.25000000e-02 0. 0. 0. 0.</_>
    <_>
      2.80898884e-02 3.74531820e-02 1.49812736e-02 3.37078646e-02
      9.36329551e-03 1.12359552e-02 2.43445691e-02 1.31086148e-02
      1.12359552e-02 1.31086148e-02 3.18352059e-02 2.99625471e-02
      7.11610466e-02 2.99625471e-02 3.93258445e-02 1.49812736e-02
      2.43445691e-02 1.12359552e-02 2.05992516e-02 5.61797759e-03
      7.49063678e-03 1.12359552e-02 9.36329551e-03 3.93258445e-02
      3.18352059e-02 2.43445691e-02 1.31086148e-02 5.05617969e-02
      2.05992516e-02 1.16104871e-01 2.05992516e-02 7.49063678e-03
      2.05992516e-02 9.36329551e-03 2.24719103e-02 1.12359552e-02
      4.11985032e-02 2.80898884e-02 1.68539323e-02 2.24719103e-02</_>
    <_>
      1.68650802e-02 1.98412705e-02 1.09126987e-02 1.88492071e-02
      1.48809534e-02 2.18253974e-02 4.96031763e-03 1.38888899e-02
      2.67857164e-02 6.64682612e-02 3.86904776e-02 1.68650802e-02
      2.57936530e-02 3.37301604e-02 4.16666679e-02 2.77777798e-02
      1.88492071e-02 2.57936530e-02 3.17460336e-02 2.38095261e-02
      1.78571437e-02 4.06746045e-02 4.36507948e-02 3.07539701e-02
      2.38095261e-02 1.38888899e-02 2.08333340e-02 1.09126987e-02
      2.57936530e-02 1.68650802e-02 1.28968265e-02 2.08333340e-02
      3.47222239e-02 2.08333340e-02 2.48015895e-02 2.28174608e-02
      2.87698433e-02 2.38095261e-02 3.37301604e-02 3.17460336e-02</_>
    <_>
      6.84931502e-03 2.73972601e-02 3.76712307e-02 2.05479451e-02
      3.42465751e-03 0. 3.08219176e-02 6.16438352e-02 4.45205495e-02 0.
      1.71232875e-02 2.73972601e-02 5.82191795e-02 3.42465751e-03
      1.02739725e-02 3.42465751e-03 3.42465751e-02 1.71232875e-02
      3.76712307e-02 6.84931502e-03 0. 4.45205495e-02 1.71232875e-02
      2.73972601e-02 3.42465751e-02 2.39726026e-02 6.84931502e-03
      3.76712307e-02 3.42465751e-02 7.53424615e-02 1.36986300e-02 0.
      4.45205495e-02 2.73972601e-02 5.82191795e-02 1.71232875e-02 0.
      2.39726026e-02 2.73972601e-02 3.76712307e-02</_>
    <_>
      2.18423549e-02 1.32953459e-02 2.65906919e-02 1.42450137e-02
      2.08926871e-02 2.94396952e-02 1.32953459e-02 1.61443483e-02
      4.17853743e-02 7.31244013e-02 4.84330468e-02 1.04463436e-02
      1.99430194e-02 1.23456791e-02 5.41310534e-02 3.13390307e-02
      1.42450137e-02 3.22886966e-02 3.13390307e-02 9.49667580e-03
      1.61443483e-02 4.17853743e-02 4.65337113e-02 1.80436838e-02
      1.80436838e-02 1.51946815e-02 3.60873677e-02 1.32953459e-02
      6.64767297e-03 1.42450137e-02 1.23456791e-02 2.75403596e-02
      3.89363728e-02 2.84900274e-02 9.49667580e-03 1.99430194e-02
      2.18423549e-02 1.42450137e-02 3.51377018e-02 3.13390307e-02</_>
    <_>
      1.09990835e-02 1.00824926e-02 2.65811179e-02 3.75801995e-02
      5.49954176e-03 4.58295131e-03 2.65811179e-02 1.15490377e-01
      1.64069653e-01 4.94958758e-02 9.16590262e-03 9.16590262e-03
      3.02474797e-02 1.92483962e-02 1.37488544e-02 7.33272219e-03
      1.28322635e-02 4.94958758e-02 9.16590262e-03 2.74977088e-03
      8.24931264e-03 2.47479379e-02 5.49954176e-03 1.83318052e-02
      3.57470214e-02 1.19156735e-02 4.03299704e-02 1.19156735e-02
      1.09990835e-02 4.67461050e-02 1.19156735e-02 3.11640687e-02
      1.83318052e-02 3.02474797e-02 1.28322635e-02 8.24931264e-03
      1.00824926e-02 1.83318052e-02 1.09990835e-02 1.92483962e-02</_>
    <_>
      1.65016502e-02 2.97029708e-02 2.31023114e-02 1.98019817e-02
      1.98019817e-02 3.63036320e-02 2.31023114e-02 2.97029708e-02
      3.30033004e-02 5.28052822e-02 1.32013205e-02 2.31023114e-02
      1.65016502e-02 9.90099087e-03 4.62046228e-02 1.65016502e-02
      2.64026411e-02 4.29042913e-02 1.65016502e-02 2.97029708e-02
      1.98019817e-02 2.64026411e-02 1.65016502e-02 4.29042913e-02
      3.96039635e-02 9.90099087e-03 3.30033004e-02 1.32013205e-02
      1.32013205e-02 1.32013205e-02 4.29042913e-02 3.30033014e-03
      4.95049506e-02 1.65016502e-02 2.31023114e-02 2.31023114e-02 0.
      3.63036320e-02 2.97029708e-02 2.31023114e-02</_>
    <_>
      1.59574468e-02 3.72340418e-02 2.12765951e-02 2.65957434e-02
      1.06382975e-02 1.59574468e-02 2.92553175e-02 6.38297871e-02
      4.52127643e-02 1.06382975e-02 7.97872338e-03 1.86170209e-02
      9.57446769e-02 0. 1.06382975e-02 2.65957438e-03 2.39361692e-02
      1.86170209e-02 3.19148935e-02 5.31914877e-03 1.32978717e-02
      1.59574468e-02 2.65957438e-03 4.25531901e-02 4.25531901e-02
      1.06382975e-02 1.86170209e-02 2.65957434e-02 3.72340418e-02
      6.64893612e-02 2.39361692e-02 2.39361692e-02 1.86170209e-02
      1.86170209e-02 5.31914867e-02 1.06382975e-02 2.65957438e-03
      3.19148935e-02 1.59574468e-02 3.19148935e-02</_>
    <_>
      2.52293572e-02 2.75229346e-02 2.06422005e-02 4.35779803e-02
      1.14678890e-02 1.60550456e-02 1.83486231e-02 4.35779803e-02
      1.83486231e-02 1.14678890e-02 3.89908254e-02 2.06422005e-02
      9.17431116e-02 2.06422005e-02 2.75229346e-02 2.98165120e-02
      9.17431153e-03 9.17431153e-03 2.52293572e-02 1.83486231e-02
      9.17431153e-03 2.75229346e-02 2.29357779e-02 3.66972461e-02
      2.06422005e-02 2.06422005e-02 1.60550456e-02 9.17431153e-03
      6.88073365e-03 1.07798159e-01 9.17431153e-03 4.58715577e-03
      4.58715577e-03 6.88073365e-03 3.44036669e-02 2.29357779e-02
      2.98165120e-02 3.21100913e-02 3.21100913e-02 1.83486231e-02</_>
    <_>
      3.02752294e-02 1.37614682e-02 2.66055055e-02 8.25688057e-03
      2.38532107e-02 2.47706417e-02 1.46788992e-02 1.37614682e-02
      1.92660559e-02 5.59633039e-02 1.10091744e-02 2.29357798e-02
      1.02752298e-01 8.25688057e-03 1.55963302e-02 7.33944960e-03
      2.20183488e-02 1.83486231e-02 1.00917434e-02 8.25688057e-03
      2.84403674e-02 1.83486231e-02 9.17431153e-03 2.47706417e-02
      3.02752294e-02 1.37614682e-02 1.74311921e-02 1.92660559e-02
      4.49541286e-02 5.77981658e-02 2.38532107e-02 1.01834863e-01
      1.28440373e-02 3.21100913e-02 2.84403674e-02 1.83486231e-02
      3.66972480e-03 2.66055055e-02 1.28440373e-02 1.74311921e-02</_>
    <_>
      4.02491614e-02 1.38955433e-02 1.82079542e-02 4.31241002e-03
      3.64159085e-02 2.63536163e-02 9.10397712e-03 1.91662665e-02
      2.34786775e-02 5.84571138e-02 3.59367505e-02 1.34163871e-02
      2.25203633e-02 2.44369898e-02 3.68950628e-02 1.62913278e-02
      1.96454246e-02 4.55198847e-02 1.86871104e-02 4.69573550e-02
      2.58744601e-02 1.82079542e-02 2.87494007e-02 1.29372301e-02
      1.86871104e-02 2.15620510e-02 4.31241021e-02 7.18735019e-03
      1.72496401e-02 1.34163871e-02 2.06037369e-02 4.88739796e-02
      3.21034975e-02 2.29995213e-02 1.00622904e-02 3.11451834e-02
      4.12074737e-02 1.10206036e-02 1.72496401e-02 2.77910866e-02</_>
    <_>
      1.68067235e-02 2.80112051e-03 2.80112047e-02 3.92156877e-02
      1.40056023e-02 1.40056023e-02 8.40336177e-03 0. 2.80112051e-03
      1.00840338e-01 5.04201688e-02 8.40336177e-03 7.28291348e-02
      3.36134471e-02 5.60224093e-02 5.04201688e-02 1.68067235e-02
      1.40056023e-02 1.68067235e-02 1.96078438e-02 8.40336177e-03
      8.40336177e-03 1.12044821e-02 2.52100844e-02 3.92156877e-02
      8.40336177e-03 1.40056023e-02 1.68067235e-02 1.12044821e-02
      5.60224093e-02 1.40056023e-02 0. 1.40056023e-02 0. 5.32212891e-02
      1.12044821e-02 1.06442578e-01 1.96078438e-02 1.12044821e-02
      5.60224103e-03</_>
    <_>
      1.82926822e-02 1.82926822e-02 1.21951215e-02 3.04878037e-02
      1.82926822e-02 4.57317047e-02 2.43902430e-02 9.14634112e-03
      1.52439019e-02 4.26829234e-02 1.52439019e-02 2.43902430e-02
      5.79268262e-02 5.48780486e-02 3.65853645e-02 3.35365832e-02
      1.21951215e-02 6.09756075e-03 1.52439019e-02 1.21951215e-02 0.
      2.43902430e-02 1.52439019e-02 3.35365832e-02 1.82926822e-02
      1.82926822e-02 2.13414617e-02 3.04878037e-02 2.43902430e-02
      8.84146318e-02 2.13414617e-02 6.09756075e-03 2.13414617e-02
      3.96341458e-02 1.82926822e-02 1.21951215e-02 5.48780486e-02
      2.74390243e-02 1.52439019e-02 6.09756075e-03</_>
    <_>
      4.60526310e-02 2.63157897e-02 6.57894742e-03 2.63157897e-02
      3.94736826e-02 4.60526310e-02 1.25000000e-01 6.57894742e-03
      6.57894742e-03 5.92105277e-02 3.28947380e-02 1.97368413e-02
      2.63157897e-02 1.31578948e-02 4.60526310e-02 3.28947380e-02
      6.57894742e-03 6.57894742e-03 1.31578948e-02 0. 1.97368413e-02
      6.57894742e-03 1.31578948e-02 1.97368413e-02 1.31578948e-02
      6.57894742e-03 3.28947380e-02 4.60526310e-02 0. 1.97368413e-02 0.
      6.57894742e-03 3.28947380e-02 1.97368413e-02 3.94736826e-02
      3.28947380e-02 1.97368413e-02 3.94736826e-02 1.97368413e-02
      2.63157897e-02</_>
    <_>
      1.56250000e-02 6.25000009e-03 1.87500007e-02 2.81250011e-02
      1.25000002e-02 1.87500007e-02 1.56250000e-02 3.12500000e-02
      6.56250045e-02 1.56250000e-02 3.12500000e-02 2.50000004e-02
      7.81250000e-02 5.00000007e-02 2.81250011e-02 1.56250000e-02
      1.25000002e-02 1.25000002e-02 1.87500007e-02 3.12500000e-02
      1.25000002e-02 2.18749996e-02 2.81250011e-02 2.18749996e-02
      1.56250000e-02 2.18749996e-02 6.25000009e-03 1.56250000e-02
      1.25000002e-02 4.37499993e-02 9.37500037e-03 1.25000002e-02
      2.81250011e-02 1.87500007e-02 9.37500037e-03 1.87500007e-02
      1.03124999e-01 2.18749996e-02 2.18749996e-02 2.50000004e-02</_>
    <_>
      5.71428565e-03 2.57142857e-02 2.28571426e-02 1.99999996e-02
      2.85714287e-02 1.42857144e-02 3.71428579e-02 9.42857116e-02
      6.28571436e-02 2.85714283e-03 1.42857144e-02 4.28571440e-02
      4.28571440e-02 8.57142825e-03 1.71428565e-02 1.14285713e-02
      2.57142857e-02 3.71428579e-02 8.57142825e-03 1.71428565e-02
      1.99999996e-02 1.71428565e-02 1.71428565e-02 2.28571426e-02
      3.71428579e-02 3.99999991e-02 1.14285713e-02 1.14285713e-02
      8.57142825e-03 8.28571394e-02 2.57142857e-02 5.71428565e-03
      1.99999996e-02 1.42857144e-02 3.99999991e-02 1.99999996e-02
      2.85714283e-03 2.85714287e-02 1.14285713e-02 2.28571426e-02</_>
    <_>
      3.79146934e-02 6.16113767e-02 1.42180100e-02 3.79146934e-02
      2.36966833e-02 3.79146934e-02 5.68720400e-02 2.36966833e-02 0.
      3.31753567e-02 9.47867334e-03 1.89573467e-02 7.10900500e-02
      1.42180100e-02 4.73933667e-02 1.89573467e-02 1.89573467e-02
      1.42180100e-02 1.89573467e-02 1.42180100e-02 1.89573467e-02
      1.42180100e-02 4.73933667e-03 4.73933667e-02 1.89573467e-02
      9.47867334e-03 1.42180100e-02 5.68720400e-02 2.84360200e-02
      2.84360200e-02 1.89573467e-02 4.73933667e-03 2.36966833e-02
      4.73933667e-03 1.42180100e-02 2.84360200e-02 0. 3.79146934e-02
      1.89573467e-02 3.31753567e-02</_>
    <_>
      6.94444450e-03 3.81944440e-02 1.73611119e-02 6.25000000e-02
      3.81944440e-02 1.04166670e-02 7.29166642e-02 2.77777780e-02
      6.94444450e-03 6.94444450e-03 3.47222225e-03 1.73611119e-02
      5.90277798e-02 3.47222225e-03 1.38888890e-02 2.08333340e-02
      2.43055560e-02 3.47222239e-02 1.73611119e-02 1.38888890e-02
      2.08333340e-02 1.04166670e-02 3.47222225e-03 2.43055560e-02
      1.38888890e-02 2.43055560e-02 1.73611119e-02 4.86111119e-02
      1.73611119e-02 1.52777776e-01 1.04166670e-02 1.04166670e-02
      1.04166670e-02 3.12500000e-02 2.08333340e-02 1.73611119e-02
      3.47222225e-03 2.08333340e-02 1.73611119e-02 2.77777780e-02</_>
    <_>
      1.77383590e-02 4.21286039e-02 1.33037698e-02 1.99556537e-02
      1.55210644e-02 1.33037698e-02 3.99113074e-02 1.10864742e-02
      3.54767181e-02 4.43458976e-03 1.77383590e-02 1.77383590e-02
      1.17516629e-01 2.66075395e-02 1.10864742e-02 8.86917952e-03
      8.86917952e-03 1.55210644e-02 2.66075395e-02 6.65188488e-03
      8.86917952e-03 8.86917952e-03 1.77383590e-02 2.43902430e-02
      1.55210644e-02 2.21729483e-02 1.33037698e-02 4.43458967e-02
      4.65631932e-02 9.53436792e-02 1.55210644e-02 1.10864742e-02
      1.77383590e-02 2.43902430e-02 6.65188432e-02 1.10864742e-02
      6.65188488e-03 2.66075395e-02 2.66075395e-02 2.66075395e-02</_>
    <_>
      5.08130044e-02 8.13008100e-03 2.03252025e-02 3.45528424e-02
      2.43902430e-02 4.06504050e-02 6.09756075e-03 2.03252025e-03 0.
      1.11788616e-01 3.25203240e-02 1.01626012e-02 1.82926822e-02
      8.13008100e-03 2.64227632e-02 2.43902430e-02 2.23577227e-02
      5.69105670e-02 2.23577227e-02 1.42276417e-02 2.84552835e-02
      4.06504050e-03 1.01626012e-02 2.64227632e-02 3.65853645e-02
      4.06504050e-03 4.47154455e-02 1.42276417e-02 4.87804860e-02
      6.09756075e-03 8.13008100e-03 1.13821134e-01 1.62601620e-02
      2.23577227e-02 1.62601620e-02 1.21951215e-02 6.09756075e-03
      2.23577227e-02 1.21951215e-02 1.21951215e-02</_>
    <_>
      1.86915901e-02 1.93591472e-02 3.07076108e-02 1.13484655e-02
      2.36982647e-02 2.13618167e-02 1.30173573e-02 5.00667579e-02
      4.17222977e-02 2.67022699e-02 2.53671575e-02 2.36982647e-02
      7.34312460e-03 4.00534086e-03 2.53671575e-02 2.13618167e-02
      2.87049413e-02 4.20560762e-02 2.93724984e-02 1.46862492e-02
      2.57009361e-02 2.87049413e-02 2.10280381e-02 3.03738322e-02
      3.13751698e-02 1.90253686e-02 4.27236333e-02 1.50200278e-02
      1.86915901e-02 1.66889187e-02 3.00400555e-02 3.00400555e-02
      4.40587476e-02 2.26969309e-02 1.43524706e-02 2.26969309e-02
      6.67556748e-03 2.46996004e-02 2.70360485e-02 4.97329794e-02</_>
    <_>
      2.53164563e-02 1.23417722e-02 4.30379733e-02 1.04430383e-02
      2.27848105e-02 2.40506325e-02 5.37974667e-03 4.30379733e-02
      2.27848105e-02 3.95569615e-02 1.77215189e-02 1.64556969e-02
      1.39240511e-02 1.48734180e-02 1.55063290e-02 1.96202528e-02
      1.99367087e-02 7.34177232e-02 2.27848105e-02 1.23417722e-02
      3.38607579e-02 4.20886092e-02 2.56329123e-02 1.93037968e-02
      4.24050651e-02 1.39240511e-02 7.21518993e-02 1.55063290e-02
      1.42405061e-02 1.17088612e-02 1.67721529e-02 7.87974671e-02
      1.64556969e-02 3.00632920e-02 2.02531647e-02 1.36075951e-02
      1.45569621e-02 1.67721529e-02 1.36075951e-02 1.29746832e-02</_>
    <_>
      1.86335407e-02 3.10559012e-02 1.86335407e-02 4.03726697e-02
      2.17391308e-02 6.21118024e-03 2.48447210e-02 1.24223605e-02
      3.10559012e-02 1.55279506e-02 2.17391308e-02 1.86335407e-02
      1.24223605e-01 4.34782617e-02 3.72670814e-02 1.24223605e-02
      9.31677036e-03 1.24223605e-02 4.03726697e-02 1.86335407e-02
      3.10559012e-03 4.03726697e-02 3.41614932e-02 2.17391308e-02
      1.55279506e-02 1.24223605e-02 9.31677036e-03 5.59006222e-02
      3.10559012e-03 4.65838537e-02 1.24223605e-02 9.31677036e-03
      1.86335407e-02 3.10559012e-03 3.72670814e-02 2.17391308e-02
      3.10559012e-02 1.86335407e-02 3.10559012e-02 1.55279506e-02</_>
    <_>
      7.37100746e-03 3.68550345e-02 2.45700236e-02 2.21130215e-02
      3.19410302e-02 1.22850118e-02 4.17690426e-02 4.42260429e-02
      2.45700241e-03 2.21130215e-02 1.71990171e-02 1.96560193e-02
      9.33660939e-02 2.21130215e-02 2.45700241e-03 9.82800964e-03
      1.96560193e-02 1.71990171e-02 2.70270258e-02 9.82800964e-03
      1.47420149e-02 1.96560193e-02 1.47420149e-02 1.22850118e-02
      1.71990171e-02 2.94840299e-02 3.19410302e-02 1.96560193e-02
      7.37100746e-03 1.17936119e-01 1.22850118e-02 1.96560193e-02
      1.96560193e-02 4.66830470e-02 4.66830470e-02 1.47420149e-02
      1.71990171e-02 2.70270258e-02 2.21130215e-02 4.91400482e-03</_>
    <_>
      2.05303691e-02 2.82292571e-02 1.71086397e-02 2.56629605e-02
      2.48075277e-02 1.62532087e-02 2.65183914e-02 6.15911037e-02
      4.53378968e-02 2.13858001e-02 1.71086397e-02 1.45423440e-02
      5.47476485e-02 7.18562901e-02 2.56629605e-02 2.05303691e-02
      2.05303691e-02 1.02651846e-02 3.07955518e-02 1.71086397e-02
      9.40975174e-03 1.79640725e-02 3.07955518e-02 2.05303691e-02
      1.71086397e-02 1.71086397e-02 1.45423440e-02 1.71086397e-02
      2.90846881e-02 3.59281451e-02 1.62532087e-02 1.02651846e-02
      1.88195035e-02 1.19760484e-02 1.45423440e-02 2.13858001e-02
      4.96150553e-02 2.90846881e-02 2.48075277e-02 2.30966639e-02</_>
    <_>
      3.32225906e-03 1.99335553e-02 1.66112948e-02 2.65780725e-02
      1.32890362e-02 2.32558139e-02 6.64451793e-02 6.64451811e-03
      2.99003311e-02 9.96677764e-03 1.66112948e-02 1.32890362e-02
      1.49501652e-01 2.32558139e-02 2.99003311e-02 9.96677764e-03
      1.99335553e-02 3.32225906e-03 1.99335553e-02 1.99335553e-02 0.
      3.32225906e-03 1.32890362e-02 2.32558139e-02 2.32558139e-02
      1.99335553e-02 3.32225906e-03 4.31893691e-02 2.99003311e-02
      1.49501652e-01 1.66112948e-02 0. 1.66112948e-02 0. 4.31893691e-02
      6.64451811e-03 3.65448482e-02 2.32558139e-02 3.32225906e-03
      2.32558139e-02</_>
    <_>
      1.88481677e-02 2.40837708e-02 2.93193720e-02 1.04712043e-02
      2.93193720e-02 1.36125656e-02 2.30366495e-02 2.30366495e-02
      2.51308903e-02 6.07329831e-02 2.51308903e-02 2.61780098e-02
      2.30366495e-02 5.23560215e-03 3.97905782e-02 3.14136147e-02
      1.88481677e-02 2.82722525e-02 3.45549732e-02 1.04712043e-02
      3.45549732e-02 2.72251312e-02 3.14136147e-02 1.98952891e-02
      3.14136147e-02 1.78010464e-02 2.72251312e-02 1.88481677e-02
      2.30366495e-02 2.40837708e-02 2.51308903e-02 2.61780098e-02
      3.35078537e-02 3.87434550e-02 5.23560215e-03 2.30366495e-02
      1.15183247e-02 1.36125656e-02 3.66492160e-02 3.03664915e-02</_>
    <_>
      1.23022851e-02 1.40597541e-02 2.63620391e-02 1.40597541e-02
      2.28471011e-02 3.51493852e-03 5.62390164e-02 1.93321612e-02
      4.21792641e-02 2.46045701e-02 1.23022851e-02 4.21792641e-02
      1.58172231e-02 8.78734607e-03 2.10896321e-02 8.78734607e-03
      1.40597541e-02 2.98769772e-02 1.93321612e-02 3.51493852e-03
      5.09666093e-02 3.51493852e-03 7.02987704e-03 1.58172231e-02
      1.93321612e-02 2.10896321e-02 4.21792641e-02 2.28471011e-02
      7.02987704e-03 2.81195082e-02 1.58172231e-02 3.16344462e-02
      5.09666093e-02 1.15992971e-01 5.27240802e-03 2.81195082e-02
      3.33919153e-02 8.78734607e-03 2.28471011e-02 5.79964854e-02</_>
    <_>
      2.58503407e-02 1.36054419e-02 1.90476198e-02 4.48979586e-02
      2.31292527e-02 2.31292527e-02 1.08843539e-02 6.66666701e-02
      1.22448979e-02 4.76190485e-02 2.58503407e-02 9.52380989e-03
      4.35374156e-02 2.44897958e-02 4.48979586e-02 3.12925167e-02
      2.72108838e-02 2.58503407e-02 2.31292527e-02 1.49659868e-02
      9.52380989e-03 3.26530635e-02 2.85714287e-02 1.22448979e-02
      2.04081628e-02 1.90476198e-02 3.53741497e-02 1.22448979e-02
      9.52380989e-03 4.21768725e-02 1.76870748e-02 9.52380989e-03
      2.72108838e-02 2.04081628e-02 1.76870748e-02 1.63265318e-02
      3.40136066e-02 2.04081628e-02 2.85714287e-02 2.85714287e-02</_>
    <_>
      9.96677764e-03 5.98006621e-02 4.31893691e-02 3.65448482e-02
      6.64451811e-03 2.65780725e-02 1.99335553e-02 6.64451811e-03 0.
      2.32558139e-02 2.99003311e-02 9.96677764e-03 8.97009969e-02
      1.66112948e-02 3.65448482e-02 1.32890362e-02 9.96677764e-03
      6.64451811e-03 2.32558139e-02 6.64451811e-03 3.32225906e-03
      6.64451811e-03 0. 2.65780725e-02 3.98671106e-02 1.99335553e-02
      6.64451811e-03 4.31893691e-02 5.31561449e-02 6.64451793e-02
      2.65780725e-02 1.32890362e-02 2.32558139e-02 1.99335553e-02
      6.31229207e-02 9.96677764e-03 9.96677764e-03 7.30896965e-02
      1.32890362e-02 6.64451811e-03</_>
    <_>
      1.50093809e-02 2.06378996e-02 1.96998119e-02 1.59474667e-02
      2.72045024e-02 1.31332083e-02 3.47091928e-02 1.36960596e-01
      9.47467163e-02 8.44277628e-03 1.50093809e-02 1.96998119e-02
      3.37711051e-02 2.53283307e-02 1.03189498e-02 1.12570357e-02
      1.78236403e-02 3.00187618e-02 1.87617261e-02 8.44277628e-03
      7.50469044e-03 2.81425901e-02 2.15759855e-02 2.72045024e-02
      2.15759855e-02 1.96998119e-02 1.96998119e-02 1.40712950e-02
      1.68855526e-02 3.56472805e-02 2.72045024e-02 2.81425891e-03
      2.62664165e-02 4.50281426e-02 1.31332083e-02 2.81425901e-02
      9.38086305e-03 1.96998119e-02 2.34521572e-02 1.59474667e-02</_>
    <_>
      1.27388537e-02 2.54777074e-02 3.50318477e-02 1.27388537e-02
      1.27388537e-02 2.86624208e-02 6.36942685e-03 0. 1.27388537e-02
      1.71974525e-01 4.45859879e-02 9.55414027e-03 4.14012745e-02
      1.59235671e-02 2.54777074e-02 2.22929940e-02 0. 6.36942685e-03
      3.82165611e-02 6.36942685e-03 1.91082805e-02 6.36942685e-03
      1.59235671e-02 9.55414027e-03 2.22929940e-02 1.27388537e-02
      2.54777074e-02 4.45859879e-02 1.27388537e-02 5.09554148e-02
      2.86624208e-02 4.45859879e-02 3.18471342e-03 2.22929940e-02
      2.86624208e-02 9.55414027e-03 2.86624208e-02 5.41401282e-02
      3.18471342e-02 0.</_>
    <_>
      1.70940179e-02 8.54700878e-02 3.41880359e-02 5.12820557e-02
      4.27350439e-02 8.54700897e-03 6.83760718e-02 2.56410278e-02 0. 0.
      0. 1.70940179e-02 3.41880359e-02 0. 8.54700897e-03 8.54700897e-03
      2.56410278e-02 2.56410278e-02 4.27350439e-02 0. 3.41880359e-02 0.
      0. 7.69230798e-02 8.54700897e-03 1.70940179e-02 1.70940179e-02
      5.12820557e-02 8.54700897e-03 2.56410278e-02 1.70940179e-02
      1.70940179e-02 5.12820557e-02 1.70940179e-02 4.27350439e-02
      2.56410278e-02 0. 4.27350439e-02 8.54700897e-03 4.27350439e-02</_>
    <_>
      4.40528616e-03 3.08370031e-02 1.61527172e-02 1.76211447e-02
      2.20264308e-02 1.02790017e-02 5.13950065e-02 3.81791480e-02
      8.07635784e-02 5.87371504e-03 1.17474301e-02 3.08370031e-02
      4.11160067e-02 4.84581478e-02 1.90895740e-02 1.17474301e-02
      1.32158585e-02 2.49632895e-02 3.67107205e-02 7.34214392e-03
      1.61527172e-02 4.84581478e-02 3.08370031e-02 2.34948602e-02
      1.02790017e-02 2.49632895e-02 1.02790017e-02 1.76211447e-02
      2.20264308e-02 3.96475755e-02 8.81057233e-03 4.40528616e-03
      2.34948602e-02 1.61527172e-02 1.90895740e-02 1.90895740e-02
      5.13950065e-02 3.08370031e-02 3.67107205e-02 2.34948602e-02</_>
    <_>
      0. 3.91304344e-02 1.73913036e-02 5.21739125e-02 3.04347817e-02
      8.69565178e-03 3.47826071e-02 0. 4.34782589e-03 0. 1.73913036e-02
      6.08695634e-02 4.78260852e-02 8.69565178e-03 8.69565178e-03
      1.73913036e-02 8.69565178e-03 8.69565178e-03 8.69565178e-03
      8.69565178e-03 4.34782589e-03 0. 1.73913036e-02 8.69565159e-02
      3.04347817e-02 2.17391290e-02 8.69565178e-03 6.95652142e-02
      1.30434781e-02 4.34782580e-02 3.47826071e-02 1.30434781e-02
      3.04347817e-02 1.73913036e-02 6.52173907e-02 2.60869563e-02
