<?xml version="1.0"?>
<opencv_storage>
<stage10>
  <maxWeakCount>6</maxWeakCount>
  <stageThreshold>-1.2451715469360352e+00</stageThreshold>
  <weakClassifiers>
    <_>
      <internalNodes>
        0 -1 427289 -37443856 -711742817 -1996422736 -570490619
        -83171148 -1454866046 -226320245 -72645973</internalNodes>
      <leafValues>
        -6.9302326440811157e-01 2.6530611515045166e-01</leafValues></_>
    <_>
      <internalNodes>
        0 -1 326049 34250821 1976471621 -578434831 -1349500493
        1348197085 -1662350968 -1442110019 -353358082</internalNodes>
      <leafValues>
        -5.2511352300643921e-01 4.3085098266601562e-01</leafValues></_>
    <_>
      <internalNodes>
        0 -1 49644 -108294934 -1033790994 -566007944 -73563132 302627329
        1233651794 -1283222604 -134483287</internalNodes>
      <leafValues>
        -4.8076689243316650e-01 5.0809514522552490e-01</leafValues></_>
    <_>
      <internalNodes>
        0 -1 293946 2126038908 1844871150 -205588615 -1742876 -25274652
        -1096188070 -385944581 -1134593</internalNodes>
      <leafValues>
        -3.9059501886367798e-01 6.5947902202606201e-01</leafValues></_>
    <_>
      <internalNodes>
        0 -1 401912 -1219849064 1368015009 9509776 -121364408 308947432
        -1290567552 142836928 -1097180776</internalNodes>
      <leafValues>
        -4.9958741664886475e-01 5.3149342536926270e-01</leafValues></_>
    <_>
      <internalNodes>
        0 -1 319376 1574364908 423955760 1610892212 56331405 1242039218
        226504734 -2147470641 2004296226</internalNodes>
      <leafValues>
        -5.7037937641143799e-01 5.1494795083999634e-01</leafValues></_></weakClassifiers></stage10>
</opencv_storage>
