<?xml version="1.0"?>
<opencv_storage>
<stage8>
  <maxWeakCount>6</maxWeakCount>
  <stageThreshold>-1.0100033283233643e+00</stageThreshold>
  <weakClassifiers>
    <_>
      <internalNodes>
        0 -1 420924 -384056904 -238452591 285310992 -1281408997
        -1471967104 -1877931352 -875517205 -139754565</internalNodes>
      <leafValues>
        -7.0829361677169800e-01 2.3247233033180237e-01</leafValues></_>
    <_>
      <internalNodes>
        0 -1 406243 1916691584 433538320 1495371985 -1753165745
        1346650341 1677789723 1778551466 1409756729</internalNodes>
      <leafValues>
        -7.3530167341232300e-01 2.3459793627262115e-01</leafValues></_>
    <_>
      <internalNodes>
        0 -1 7232 -507061013 -366939509 -2109725944 1674432984 681791253
        1945371176 478880623 150436850</internalNodes>
      <leafValues>
        -6.3946747779846191e-01 3.7256953120231628e-01</leafValues></_>
    <_>
      <internalNodes>
        0 -1 8956 1645066538 1090675332 1078007818 -1042226816
        1355564320 -939450239 1803782418 888490038</internalNodes>
      <leafValues>
        -6.8323594331741333e-01 3.8612031936645508e-01</leafValues></_>
    <_>
      <internalNodes>
        0 -1 580 -201326674 -609816873 2147057658 1472888730 48549598
        -1208483843 268283880 1835007966</internalNodes>
      <leafValues>
        -5.0226753950119019e-01 5.6650447845458984e-01</leafValues></_>
    <_>
      <internalNodes>
        0 -1 400399 1359534720 1525240392 360783204 -1423478331
        -1534563177 431685666 170574351 1717049911</internalNodes>
      <leafValues>
        -6.6413962841033936e-01 4.6576383709907532e-01</leafValues></_></weakClassifiers></stage8>
</opencv_storage>
