<?xml version="1.0"?>
<opencv_storage>
<stage16>
  <maxWeakCount>5</maxWeakCount>
  <stageThreshold>-1.1877565383911133e+00</stageThreshold>
  <weakClassifiers>
    <_>
      <internalNodes>
        0 -1 388752 -612138414 -78651200 -1877974613 -707129133
        -1450464823 -517767019 -209177605 -206602034</internalNodes>
      <leafValues>
        -7.0160526037216187e-01 2.4137930572032928e-01</leafValues></_>
    <_>
      <internalNodes>
        0 -1 187171 1435000924 -637304700 1091883467 -1700950887
        -1451187568 1377763366 252418603 1056048803</internalNodes>
      <leafValues>
        -6.6171890497207642e-01 3.1119585037231445e-01</leafValues></_>
    <_>
      <internalNodes>
        0 -1 378884 1162498242 -1305208536 352469161 -719940080
        -389388150 -1415970644 1510747841 113511133</internalNodes>
      <leafValues>
        -7.3479664325714111e-01 3.0401983857154846e-01</leafValues></_>
    <_>
      <internalNodes>
        0 -1 420082 -843080490 -1798046749 2147483633 -1971322892
        -8913524 -838926347 217439724 -1896373577</internalNodes>
      <leafValues>
        -4.6729636192321777e-01 5.6231373548507690e-01</leafValues></_>
    <_>
      <internalNodes>
        0 -1 408450 957168074 -754673062 1074349066 -35469968
        -2121645650 -1945991422 -1300127225 -825159406</internalNodes>
      <leafValues>
        -6.0414040088653564e-01 4.3924906849861145e-01</leafValues></_></weakClassifiers></stage16>
</opencv_storage>
