<?xml version="1.0"?>
<opencv_storage>
<stage9>
  <maxWeakCount>6</maxWeakCount>
  <stageThreshold>-1.5026202201843262e+00</stageThreshold>
  <weakClassifiers>
    <_>
      <internalNodes>
        0 -1 383880 -745614636 -652638951 272701144 -41045739 -509893494
        -796254069 -901400134 -7624501</internalNodes>
      <leafValues>
        -6.7625898122787476e-01 3.4615385532379150e-01</leafValues></_>
    <_>
      <internalNodes>
        0 -1 339780 -17324402 -555057158 -1099202704 -201502978
        -280300308 2094989231 -537330497 -154142213</internalNodes>
      <leafValues>
        -4.5257529616355896e-01 5.8656579256057739e-01</leafValues></_>
    <_>
      <internalNodes>
        0 -1 77808 732994090 -1722465278 -922613360 966468375 1260077998
        428049289 -836123254 290593622</internalNodes>
      <leafValues>
        -6.9875234365463257e-01 3.7865427136421204e-01</leafValues></_>
    <_>
      <internalNodes>
        0 -1 211764 -1170144960 -2129110612 1358959605 -245792737
        -251623134 553847136 1940040388 -1095855576</internalNodes>
      <leafValues>
        -6.2178707122802734e-01 4.2291450500488281e-01</leafValues></_>
    <_>
      <internalNodes>
        0 -1 451419 -2298334 -1359020060 -1350631874 -92274710
        -134242778 1870069503 -8527914 -161480721</internalNodes>
      <leafValues>
        -5.2773225307464600e-01 5.4653537273406982e-01</leafValues></_>
    <_>
      <internalNodes>
        0 -1 4887 1800333822 1662058534 -1878982536 -1025914616
        445203205 1347846660 822659204 -1031317774</internalNodes>
      <leafValues>
        -6.4762240648269653e-01 4.6530267596244812e-01</leafValues></_></weakClassifiers></stage9>
</opencv_storage>
