<?xml version="1.0"?>
<opencv_storage>
<stage0>
  <maxWeakCount>5</maxWeakCount>
  <stageThreshold>-1.0722534656524658e+00</stageThreshold>
  <weakClassifiers>
    <_>
      <internalNodes>
        0 -1 171207 -713305142 -578498173 858263560 -741895615
        -213859624 -803090048 -494921525 -35928125</internalNodes>
      <leafValues>
        -7.4492752552032471e-01 3.1929823756217957e-01</leafValues></_>
    <_>
      <internalNodes>
        0 -1 451408 -203984374 -959610791 -754614260 -56654949
        -259902973 1084391424 1367836689 -139466021</internalNodes>
      <leafValues>
        -6.1711621284484863e-01 4.7134307026863098e-01</leafValues></_>
    <_>
      <internalNodes>
        0 -1 9702 -194250010 -2100916030 -1610596316 -495255074
        -838262781 755564580 -473180634 -739524050</internalNodes>
      <leafValues>
        -5.7908070087432861e-01 5.5265313386917114e-01</leafValues></_>
    <_>
      <internalNodes>
        0 -1 230431 -484649592 -1232830336 268798221 -1122795243
        -1832269424 -536665471 1879573698 1936978770</internalNodes>
      <leafValues>
        -7.1762555837631226e-01 4.5522919297218323e-01</leafValues></_>
    <_>
      <internalNodes>
        0 -1 81509 -2011629856 1896714241 824709268 1472581893 805372552
        -1710585848 -1840600150 905953563</internalNodes>
      <leafValues>
        -6.0946303606033325e-01 5.8374178409576416e-01</leafValues></_></weakClassifiers></stage0>
</opencv_storage>
