<?xml version="1.0"?>
<opencv_storage>
<stage3>
  <maxWeakCount>6</maxWeakCount>
  <stageThreshold>-1.2587717771530151e+00</stageThreshold>
  <weakClassifiers>
    <_>
      <internalNodes>
        0 -1 378180 -707034922 -740687728 -805306253 -41465831
        -258829662 -1013972864 -1106080885 -71312401</internalNodes>
      <leafValues>
        -6.8687784671783447e-01 3.6744186282157898e-01</leafValues></_>
    <_>
      <internalNodes>
        0 -1 358134 -196960256 -2138995638 -268418925 -652361184
        -804618069 545783811 -2003698503 -84987751</internalNodes>
      <leafValues>
        -5.0815969705581665e-01 5.0312751531600952e-01</leafValues></_>
    <_>
      <internalNodes>
        0 -1 184458 1994237336 -1318535934 -2012958720 -674709493
        -1604615992 -1598028912 -1575786806 -720135313</internalNodes>
      <leafValues>
        -5.1318871974945068e-01 5.1477581262588501e-01</leafValues></_>
    <_>
      <internalNodes>
        0 -1 421841 1476392353 -616496181 54526227 454157443 550111724
        -1685945720 1632192687 1829691947</internalNodes>
      <leafValues>
        -5.2773690223693848e-01 5.3062987327575684e-01</leafValues></_>
    <_>
      <internalNodes>
        0 -1 92028 -136656152 -85115458 1056845567 -159979669
        -1124622802 897439587 -1133888041 -740658593</internalNodes>
      <leafValues>
        -5.1114368438720703e-01 5.7753431797027588e-01</leafValues></_>
    <_>
      <internalNodes>
        0 -1 378846 289416608 -762838624 -2130214118 -775208623
        1343266978 -393736160 -1207719796 -1215616660</internalNodes>
      <leafValues>
        -5.5091667175292969e-01 5.6590324640274048e-01</leafValues></_></weakClassifiers></stage3>
</opencv_storage>
