<?xml version="1.0"?>
<opencv_storage>
<stage13>
  <maxWeakCount>5</maxWeakCount>
  <stageThreshold>-9.9660646915435791e-01</stageThreshold>
  <weakClassifiers>
    <_>
      <internalNodes>
        0 -1 153542 1365048567 -569306999 -1876949537 -182757289
        -1470911845 -1442741758 -1157621569 -82149045</internalNodes>
      <leafValues>
        -6.7412710189819336e-01 3.5960590839385986e-01</leafValues></_>
    <_>
      <internalNodes>
        0 -1 276279 -1636632952 -83895556 -1342280031 -680574994
        -14680626 -1084751892 527621806 -205789237</internalNodes>
      <leafValues>
        -4.3009367585182190e-01 5.8694016933441162e-01</leafValues></_>
    <_>
      <internalNodes>
        0 -1 163574 1435062402 894320670 1091883041 287365385 579111417
        2039095336 -1426029831 1409391780</internalNodes>
      <leafValues>
        -6.5635073184967041e-01 4.0781289339065552e-01</leafValues></_>
    <_>
      <internalNodes>
        0 -1 247220 -482282478 1367982230 -1761488499 -1486310919
        -1553138508 295207147 1807752705 -1830798617</internalNodes>
      <leafValues>
        -6.7502188682556152e-01 3.6767688393592834e-01</leafValues></_>
    <_>
      <internalNodes>
        0 -1 72971 1611013880 1460396951 -2130639407 -805084144
        553724649 -116848408 411272088 -1935164858</internalNodes>
      <leafValues>
        -6.1177986860275269e-01 4.4279631972312927e-01</leafValues></_></weakClassifiers></stage13>
</opencv_storage>
