<?xml version="1.0"?>
<opencv_storage>
<stage12>
  <maxWeakCount>5</maxWeakCount>
  <stageThreshold>-9.0851795673370361e-01</stageThreshold>
  <weakClassifiers>
    <_>
      <internalNodes>
        0 -1 406030 -79183585 -204752506 84067411 -1727280985 -670237717
        -2013003614 -1855677057 -626268497</internalNodes>
      <leafValues>
        -6.6725665330886841e-01 3.8947367668151855e-01</leafValues></_>
    <_>
      <internalNodes>
        0 -1 372690 1677919072 -351632966 -2130578304 2103214241
        1511551706 152994632 -1169440378 -1079011181</internalNodes>
      <leafValues>
        -5.7133215665817261e-01 3.7353894114494324e-01</leafValues></_>
    <_>
      <internalNodes>
        0 -1 63971 -549597945 -46404710 1073676067 -1409814726
        -1644363777 -1501627522 -566821250 -129500002</internalNodes>
      <leafValues>
        -4.2347443103790283e-01 6.0521328449249268e-01</leafValues></_>
    <_>
      <internalNodes>
        0 -1 88675 -1693604342 -1823497977 -798949029 227381842
        843022829 1905858182 -208471546 1693300314</internalNodes>
      <leafValues>
        -5.7549291849136353e-01 4.6613243222236633e-01</leafValues></_>
    <_>
      <internalNodes>
        0 -1 391658 -1778384760 1092473166 -2117551845 1791445222
        -532399201 -1041292892 1225346830 -876132378</internalNodes>
      <leafValues>
        -6.4452069997787476e-01 4.1057640314102173e-01</leafValues></_></weakClassifiers></stage12>
</opencv_storage>
