<?xml version="1.0"?>
<opencv_storage>
<stage11>
  <maxWeakCount>5</maxWeakCount>
  <stageThreshold>-1.1651276350021362e+00</stageThreshold>
  <weakClassifiers>
    <_>
      <internalNodes>
        0 -1 70253 2111822847 2085990689 -2147199737 1568795527
        959045790 -1904017384 -1464934387 -1182795789</internalNodes>
      <leafValues>
        -6.9303202629089355e-01 2.1705426275730133e-01</leafValues></_>
    <_>
      <internalNodes>
        0 -1 438779 -365241946 762616066 -1340256203 329089416 -90013573
        1090650248 1264761027 605545751</internalNodes>
      <leafValues>
        -6.8531441688537598e-01 2.8484293818473816e-01</leafValues></_>
    <_>
      <internalNodes>
        0 -1 372776 1947238777 -677260220 -1995272037 -1660071666
        -2011103064 -1549954935 243292543 -2141908864</internalNodes>
      <leafValues>
        -5.6016117334365845e-01 4.1737604141235352e-01</leafValues></_>
    <_>
      <internalNodes>
        0 -1 393535 -222240661 -70655977 422053902 -1680909366
        -1995744884 462455424 1090193622 1395996518</internalNodes>
      <leafValues>
        -5.9894716739654541e-01 4.2712700366973877e-01</leafValues></_>
    <_>
      <internalNodes>
        0 -1 421104 -385515022 -1323794176 -1073643053 -663156452
        -202852059 1139442368 -1968793212 -745922550</internalNodes>
      <leafValues>
        -5.0791645050048828e-01 5.3484249114990234e-01</leafValues></_></weakClassifiers></stage11>
</opencv_storage>
