<?xml version="1.0"?>
<opencv_storage>
<opencv_ml_svm>
  <format>3</format>
  <svmType>C_SVC</svmType>
  <kernel>
    <type>RBF</type>
    <gamma>1.</gamma></kernel>
  <C>35.</C>
  <term_criteria><epsilon>1.1920928955078125e-07</epsilon>
    <iterations>1000</iterations></term_criteria>
  <var_count>1000</var_count>
  <class_count>2</class_count>
  <class_labels type_id="opencv-matrix">
    <rows>2</rows>
    <cols>1</cols>
    <dt>i</dt>
    <data>
      -1 1</data></class_labels>
  <sv_total>281</sv_total>
  <support_vectors>
    <_>
      1.73913047e-03 3.47826094e-03 6.95652189e-03 0. 0. 0.
      3.47826094e-03 1.73913047e-03 3.47826094e-03 1.73913047e-03
      1.73913047e-03 3.47826094e-03 0. 1.73913047e-03 1.73913047e-03
      3.47826094e-03 1.21739134e-02 0. 0. 0. 0. 0. 0. 0. 0. 0.
      1.73913047e-03 1.73913047e-03 0. 1.73913047e-03 1.73913047e-03
      5.21739153e-03 1.73913047e-03 3.47826094e-03 3.47826094e-03 0. 0.
      1.73913047e-03 1.73913047e-03 1.73913047e-03 0. 0. 3.47826094e-03
      0. 3.47826094e-03 1.73913047e-03 1.73913047e-03 0. 1.73913047e-03
      0. 0. 0. 1.73913047e-03 0. 0. 0. 1.73913047e-03 0. 3.47826094e-03
      0. 0. 1.73913047e-03 1.73913047e-03 0. 3.47826094e-03
      3.47826094e-03 0. 1.73913047e-03 1.73913047e-03 0. 3.47826094e-03
      0. 1.73913047e-03 1.73913047e-03 1.73913047e-03 0. 0. 0. 0. 0. 0.
      0. 0. 1.73913047e-03 0. 0. 0. 0. 0. 0. 0. 0. 0. 0. 1.73913047e-03
      0. 0. 0. 0. 0. 1.73913047e-03 1.73913047e-03 0. 0. 0. 0.
      3.47826094e-03 1.73913047e-03 1.73913047e-03 0. 0. 0. 0. 0. 0.
      1.73913047e-03 1.73913047e-03 3.47826094e-03 0. 1.73913047e-03 0.
      3.47826094e-03 0. 0. 3.47826094e-03 0. 0. 1.73913047e-03 0. 0.
      1.73913047e-03 1.73913047e-03 1.73913047e-03 0. 0. 0.
      1.73913047e-03 5.21739153e-03 0. 0. 0. 0. 0. 0. 1.73913047e-03 0.
      1.73913047e-03 0. 6.95652189e-03 0. 0. 0. 1.73913047e-03
      3.47826094e-03 3.47826094e-03 0. 3.47826094e-03 1.73913047e-03
      1.73913047e-03 1.73913047e-03 0. 0. 3.47826094e-03 0.
      1.73913047e-03 6.95652189e-03 0. 3.47826094e-03 0. 0. 0. 0. 0. 0.
      3.47826094e-03 1.73913047e-03 0. 0. 0. 1.73913047e-03 0. 0. 0. 0.
      0. 1.73913047e-03 1.73913047e-03 0. 0. 1.73913047e-03 0. 0. 0.
      3.47826094e-03 1.73913047e-03 0. 0. 0. 1.73913047e-03 0. 0. 0. 0.
      1.73913047e-03 0. 0. 0. 0. 1.73913047e-03 0. 0. 0. 0. 0. 0. 0.
      1.73913047e-03 1.73913047e-03 0. 0. 1.73913047e-03 3.47826094e-03
      6.95652189e-03 3.47826094e-03 6.95652189e-03 0. 0. 0.
      3.47826094e-03 0. 1.73913047e-03 1.73913047e-03 3.47826094e-03
      1.73913047e-03 0. 3.47826094e-03 1.73913047e-03 0. 0. 0. 0. 0. 0.
      0. 1.73913047e-03 0. 0. 0. 0. 0. 0. 1.73913047e-03 3.47826094e-03
      3.47826094e-03 0. 5.21739153e-03 5.21739153e-03 0. 3.47826094e-03
      3.47826094e-03 1.73913047e-03 3.47826094e-03 0. 0. 0.
      1.73913047e-03 0. 1.73913047e-03 5.21739153e-03 5.21739153e-03 0.
      0. 0. 0. 1.73913047e-03 0. 0. 0. 1.73913047e-03 0. 0. 0.
      1.73913047e-03 0. 1.73913047e-03 1.73913047e-03 0. 0. 0. 0. 0. 0.
      0. 0. 0. 0. 1.73913047e-03 0. 0. 3.47826094e-03 0. 0.
      1.73913047e-03 0. 0. 1.73913047e-03 1.73913047e-03 5.21739153e-03
      0. 3.47826094e-03 0. 1.73913047e-03 3.47826094e-03 1.73913047e-03
      3.47826094e-03 3.47826094e-03 0. 3.47826094e-03 0. 3.47826094e-03
      0. 1.73913047e-03 1.73913047e-03 5.21739153e-03 1.73913047e-03 0.
      1.73913047e-03 1.73913047e-03 1.73913047e-03 0. 0. 1.73913047e-03
      1.73913047e-03 0. 0. 1.73913047e-03 0. 0. 0. 0. 0. 0. 0. 0.
      1.73913047e-03 0. 0. 0. 0. 0. 1.73913047e-03 0. 0. 3.47826094e-03
      1.73913047e-03 0. 0. 1.73913047e-03 0. 0. 0. 0. 0. 1.73913047e-03
      1.73913047e-03 0. 0. 0. 1.73913047e-03 0. 3.47826094e-03
      1.73913047e-03 0. 3.47826094e-03 0. 1.73913047e-03 0. 0. 0.
      3.47826094e-03 0. 0. 0. 3.47826094e-03 0. 0. 0. 0. 0. 0. 0. 0. 0.
      0. 3.47826094e-03 0. 1.73913047e-03 1.73913047e-03 0. 0. 0.
      3.47826094e-03 6.95652189e-03 1.73913047e-03 3.47826094e-03 0. 0.
      0. 1.73913047e-03 0. 0. 1.73913047e-03 1.73913047e-03 0. 0. 0. 0.
      3.47826094e-03 0. 0. 1.73913047e-03 0. 0. 0. 3.47826094e-03 0. 0.
      0. 0. 1.73913047e-03 0. 3.47826094e-03 0. 1.73913047e-03 0. 0. 0.
      0. 0. 1.73913047e-03 0. 0. 1.73913047e-03 0. 1.73913047e-03
      3.47826094e-03 1.73913047e-03 0. 0. 0. 1.73913047e-03 0. 0. 0. 0.
      0. 3.47826094e-03 1.73913047e-03 1.73913047e-03 1.73913047e-03
      5.21739153e-03 0. 1.73913047e-03 1.73913047e-03 1.73913047e-03 0.
      3.47826094e-03 0. 0. 1.73913047e-03 0. 1.73913047e-03
      3.47826094e-03 5.21739153e-03 1.73913047e-03 3.47826094e-03 0. 0.
      1.73913047e-03 0. 0. 1.73913047e-03 1.73913047e-03 1.73913047e-03
      0. 0. 1.73913047e-03 0. 0. 0. 0. 5.21739153e-03 0. 0. 0. 0. 0.
      1.73913047e-03 1.73913047e-03 0. 1.73913047e-03 1.73913047e-03 0.
      1.73913047e-03 0. 0. 0. 1.73913047e-03 0. 0. 3.47826094e-03
      1.73913047e-03 1.73913047e-03 0. 0. 0. 3.47826094e-03
      1.73913047e-03 1.73913047e-03 0. 0. 3.47826094e-03 1.73913047e-03
      0. 1.73913047e-03 1.73913047e-03 0. 1.73913047e-03 0.
      3.47826094e-03 5.21739153e-03 3.47826094e-03 1.73913047e-03
      1.73913047e-03 0. 0. 0. 0. 0. 0. 0. 1.73913047e-03 0.
      1.73913047e-03 3.47826094e-03 1.73913047e-03 1.73913047e-03 0. 0.
      0. 1.73913047e-03 0. 0. 1.73913047e-03 0. 0. 1.73913047e-03 0. 0.
      0. 1.73913047e-03 0. 1.73913047e-03 0. 1.73913047e-03
      3.47826094e-03 1.73913047e-03 3.47826094e-03 0. 0. 3.47826094e-03
      0. 0. 1.73913047e-03 3.47826094e-03 1.73913047e-03 1.73913047e-03
      0. 0. 6.95652189e-03 1.73913047e-03 0. 1.73913047e-03 0.
      5.21739153e-03 1.73913047e-03 0. 0. 0. 0. 1.73913047e-03 0. 0. 0.
      0. 0. 0. 0. 0. 1.73913047e-03 0. 0. 0. 0. 0. 0. 0. 0.
      1.73913047e-03 0. 0. 1.73913047e-03 1.73913047e-03 1.73913047e-03
      1.73913047e-03 1.73913047e-03 0. 0. 0. 0. 0. 0. 1.73913047e-03 0.
      1.73913047e-03 0. 1.73913047e-03 0. 0. 0. 0. 0. 6.95652189e-03 0.
      0. 1.73913047e-03 1.73913047e-03 0. 1.73913047e-03 0. 0. 0. 0. 0.
      0. 1.73913047e-03 1.73913047e-03 0. 0. 0. 0. 1.73913047e-03 0. 0.
      0. 0. 1.73913047e-03 0. 1.73913047e-03 1.73913047e-03 0. 0.
      1.73913047e-03 0. 1.73913047e-03 0. 0. 0. 5.21739153e-03 0. 0. 0.
      1.73913047e-03 0. 0. 1.73913047e-03 1.73913047e-03 0.
      3.47826094e-03 0. 1.73913047e-03 0. 0. 0. 0. 1.73913047e-03 0. 0.
      0. 0. 0. 0. 1.73913047e-03 0. 0. 0. 5.21739153e-03 0. 0. 0. 0.
      1.73913047e-03 1.73913047e-03 1.73913047e-03 3.47826094e-03
      3.47826094e-03 0. 1.73913047e-03 0. 0. 0. 1.73913047e-03
      1.73913047e-03 0. 0. 0. 0. 1.73913054e-02 0. 0. 0. 3.47826094e-03
      3.47826094e-03 1.73913047e-03 0. 0. 3.47826094e-03 1.73913047e-03
      0. 5.21739153e-03 0. 0. 0. 0. 0. 0. 0. 5.21739153e-03 0.
      1.73913047e-03 0. 0. 1.73913047e-03 0. 0. 0. 0. 0. 0.
      1.73913047e-03 0. 0. 0. 0. 0. 0. 1.73913047e-03 0. 3.47826094e-03
      1.73913047e-03 0. 0. 1.73913047e-03 1.73913047e-03 3.47826094e-03
      0. 1.73913047e-03 3.47826094e-03 1.73913047e-03 3.47826094e-03
      1.04347831e-02 1.73913047e-03 0. 0. 0. 0. 0. 0. 0. 1.73913047e-03
      1.73913047e-03 0. 0. 0. 0. 0. 0. 1.73913047e-03 0. 1.73913047e-03
      1.73913047e-03 0. 0. 1.73913047e-03 0. 1.73913047e-03 0.
      1.73913047e-03 0. 1.73913047e-03 1.73913047e-03 1.73913047e-03
      1.73913047e-03 0. 0. 3.47826094e-03 0. 0. 0. 0. 1.73913047e-03 0.
      0. 0. 3.47826094e-03 0. 0. 0. 3.47826094e-03 0. 1.73913047e-03 0.
      0. 0. 0. 0. 1.73913047e-03 0. 1.73913047e-03 0. 1.73913047e-03
      1.73913047e-03 0. 0. 0. 1.73913047e-03 0. 0. 0. 0. 0. 0.
      1.73913047e-03 0. 0. 0. 0. 0. 0. 1.73913047e-03 0. 0.
      1.73913047e-03 0. 0. 0. 1.73913047e-03 1.73913047e-03 0. 0.
      1.73913047e-03 0. 0. 0. 0. 0. 0. 1.73913047e-03 0. 1.73913047e-03
      0. 1.73913047e-03 1.73913047e-03 1.73913047e-03 0. 0. 0.
      1.73913047e-03 0. 0. 0. 0. 1.73913047e-03 1.73913047e-03 0. 0. 0.
      0. 1.73913047e-03 0. 1.73913047e-03 0. 1.73913047e-03
      1.73913047e-03 0. 1.73913047e-03 0. 1.73913047e-03 1.73913047e-03
      0. 0. 0. 0. 1.73913047e-03 0. 0. 0. 6.95652189e-03 1.73913047e-03
      3.47826094e-03 1.73913047e-03 0. 0. 1.73913047e-03 1.73913047e-03
      0. 0. 0. 5.21739153e-03 0. 1.73913047e-03 0. 0. 0. 0.
      3.47826094e-03 6.95652189e-03 0. 0. 1.73913047e-03 0.
      3.47826094e-03 1.73913047e-03 0. 1.73913047e-03 1.73913047e-03 0.
      0. 0. 1.73913047e-03 0. 0. 0. 1.73913047e-03 0. 1.73913047e-03 0.
      0. 0. 1.73913047e-03 1.73913047e-03 0. 5.21739153e-03
      1.73913047e-03 0. 0. 1.73913047e-03 0. 3.47826094e-03 0. 0. 0. 0.
      1.73913047e-03 0. 0. 0. 0. 0. 0. 5.21739153e-03 1.73913047e-03 0.
      0. 0. 3.47826094e-03 0. 3.47826094e-03 0. 3.47826094e-03 0.
      3.47826094e-03 1.73913047e-03 3.47826094e-03 0. 0. 6.95652189e-03
      1.73913047e-03 5.21739153e-03 0. 1.73913047e-03 0. 0. 0. 0. 0. 0.
      0. 1.73913047e-03 0.</_>
    <_>
      0. 0. 8.98876414e-03 0. 0. 0. 0. 0. 0. 0. 0. 0. 0. 0.
      2.24719103e-03 0. 0. 0. 0. 0. 2.24719103e-03 0. 0. 0. 0. 0. 0.
      2.24719103e-03 2.24719103e-03 0. 0. 0. 0. 0. 0. 0. 0. 0. 0.
      2.24719103e-03 0. 0. 0. 0. 4.49438207e-03 0. 0. 0. 0. 0. 0. 0. 0.
      2.24719103e-03 0. 2.24719103e-03 0. 0. 2.24719103e-03 0. 0. 0. 0.
      2.24719103e-03 0. 0. 0. 0. 2.24719103e-03 0. 0. 0. 0. 0. 0. 0. 0.
      0. 0. 2.24719103e-03 0. 0. 0. 0. 0. 2.24719103e-03 0. 0. 0.
      4.49438207e-03 0. 0. 0. 0. 0. 0. 0. 4.49438207e-03 2.24719103e-03
      0. 4.49438207e-03 0. 0. 2.24719103e-03 2.24719103e-03 0.
      2.24719103e-03 0. 0. 0. 0. 2.24719103e-03 0. 0. 0. 2.24719103e-03
      2.24719103e-03 2.24719103e-03 4.49438207e-03 2.24719103e-03 0.
      4.49438207e-03 0. 0. 2.24719103e-03 0. 0. 0. 0. 0. 2.24719103e-03
      0. 0. 0. 0. 0. 2.24719103e-03 4.49438207e-03 0. 0. 0.
      2.24719103e-03 0. 0. 0. 0. 6.74157310e-03 0. 0. 2.24719103e-03 0.
      0. 0. 0. 2.24719103e-03 0. 0. 0. 0. 0. 0. 2.24719103e-03 0. 0. 0.
      2.24719103e-03 0. 2.24719103e-03 0. 2.24719103e-03 2.24719103e-03
      0. 2.24719103e-03 6.74157310e-03 2.24719103e-03 2.24719103e-03 0.
      0. 0. 0. 0. 2.24719103e-03 0. 0. 0. 0. 4.49438207e-03 0.
      2.24719103e-03 0. 0. 0. 0. 2.24719103e-03 2.24719103e-03 0. 0. 0.
      0. 2.24719103e-03 4.49438207e-03 0. 0. 0. 0. 2.24719103e-03 0. 0.
      0. 0. 0. 4.49438207e-03 2.24719103e-03 0. 0. 2.24719103e-03 0. 0.
      2.24719103e-03 0. 0. 0. 0. 0. 4.49438207e-03 0. 2.24719103e-03 0.
      2.24719103e-03 0. 0. 0. 0. 0. 4.49438207e-03 4.49438207e-03 0. 0.
      2.24719103e-03 0. 0. 0. 0. 0. 0. 0. 2.24719103e-03 0.
      2.24719103e-03 0. 0. 0. 0. 2.24719103e-03 0. 0. 0. 0.
      2.24719103e-03 0. 0. 0. 4.49438207e-03 2.24719103e-03 0. 0. 0. 0.
      0. 2.24719103e-03 2.24719103e-03 0. 0. 0. 4.49438207e-03
      2.24719103e-03 0. 0. 0. 2.24719103e-03 2.24719103e-03
      4.49438207e-03 2.24719103e-03 0. 0. 0. 0. 0. 0. 0. 0. 0.
      2.24719103e-03 2.24719103e-03 0. 0. 2.24719103e-03 0.
      2.24719103e-03 2.24719103e-03 2.24719103e-03 2.24719103e-03
      2.24719103e-03 4.49438207e-03 0. 6.74157310e-03 0. 0.
      2.24719103e-03 0. 0. 0. 0. 2.24719103e-03 4.49438207e-03
      2.24719103e-03 4.49438207e-03 0. 0. 0. 0. 0. 2.24719103e-03 0.
      2.24719103e-03 0. 2.24719103e-03 0. 0. 0. 0. 0. 0. 0.
      2.24719103e-03 0. 0. 0. 0. 0. 0. 2.24719103e-03 2.24719103e-03 0.
      0. 0. 0. 0. 0. 0. 0. 2.24719103e-03 0. 0. 0. 0. 0. 0. 0.
      2.24719103e-03 6.74157310e-03 2.24719103e-03 0. 0. 0. 0. 0.
      2.24719103e-03 0. 0. 0. 0. 0. 2.24719103e-03 0. 0. 0. 0. 0. 0.
      2.24719103e-03 0. 0. 0. 0. 2.24719103e-03 0. 0. 0. 0. 0. 0. 0. 0.
      0. 2.24719103e-03 0. 6.74157310e-03 2.24719103e-03 0. 0. 0.
      6.74157310e-03 0. 0. 0. 0. 2.24719103e-03 0. 2.24719103e-03 0.
      2.24719103e-03 4.49438207e-03 0. 0. 0. 0. 2.24719103e-03 0. 0. 0.
      0. 0. 0. 2.24719103e-03 0. 0. 2.24719103e-03 0. 0. 0.
      4.49438207e-03 0. 8.98876414e-03 4.49438207e-03 0. 0. 0. 0.
      4.49438207e-03 2.24719103e-03 0. 6.74157310e-03 0. 2.24719103e-03
      2.24719103e-03 8.98876414e-03 0. 0. 2.24719103e-03 2.24719103e-03
      0. 0. 0. 0. 4.49438207e-03 0. 2.24719103e-03 2.24719103e-03 0. 0.
      0. 0. 0. 4.49438207e-03 2.24719103e-03 0. 2.24719103e-03
      2.24719103e-03 0. 0. 4.49438207e-03 0. 2.24719103e-03 0.
      2.24719103e-03 0. 0. 4.49438207e-03 2.24719103e-03 0. 0.
      2.24719103e-03 0. 0. 0. 6.74157310e-03 4.49438207e-03 0.
      2.24719103e-03 2.24719103e-03 4.49438207e-03 0. 0. 0. 0.
      2.24719103e-03 2.24719103e-03 2.24719103e-03 2.24719103e-03
      2.24719103e-03 0. 0. 0. 2.24719103e-03 0. 0. 0. 0. 0.
      2.24719103e-03 2.24719103e-03 0. 6.74157310e-03 0. 4.49438207e-03
      0. 0. 0. 0. 0. 2.24719103e-03 0. 0. 2.24719103e-03 2.24719103e-03
      2.24719103e-03 2.24719103e-03 0. 6.74157310e-03 2.24719103e-03 0.
      6.74157310e-03 2.24719103e-03 0. 0. 0. 0. 0. 0. 0. 2.24719103e-03
      0. 0. 0. 2.24719103e-03 0. 0. 0. 0. 2.24719103e-03 0. 0.
      4.49438207e-03 4.49438207e-03 2.24719103e-03 0. 0. 0. 0. 0. 0. 0.
      0. 0. 4.49438207e-03 2.24719103e-03 0. 0. 0. 2.24719103e-03 0.
      2.24719103e-03 0. 4.49438207e-03 4.49438207e-03 0. 0. 0.
      4.49438207e-03 0. 2.24719103e-03 0. 2.24719103e-03 2.24719103e-03
      2.24719103e-03 0. 0. 2.24719103e-03 0. 0. 4.49438207e-03
      2.24719103e-03 0. 2.24719103e-03 0. 2.24719103e-03 0. 0. 0.
      4.49438207e-03 0. 4.49438207e-03 4.49438207e-03 0. 4.49438207e-03
      0. 0. 2.24719103e-03 0. 0. 0. 0. 0. 0. 0. 2.24719103e-03
      2.24719103e-03 0. 0. 0. 2.24719103e-03 0. 0. 0. 0. 0. 0. 0.
      2.24719103e-03 0. 2.24719103e-03 0. 0. 2.24719103e-03 0.
      2.24719103e-03 2.24719103e-03 2.24719103e-03 0. 2.24719103e-03 0.
      2.24719103e-03 2.24719103e-03 0. 0. 4.49438207e-03 2.24719103e-03
      0. 0. 2.24719103e-03 0. 0. 0. 2.24719103e-03 0. 0. 0.
      4.49438207e-03 0. 2.24719103e-03 0. 0. 0. 0. 0. 0. 0.
      2.24719103e-03 0. 0. 0. 2.24719103e-03 0. 0. 0. 0. 0. 0. 0.
      2.24719103e-03 0. 0. 2.24719103e-03 0. 0. 2.24719103e-03 0. 0.
      2.24719103e-03 4.49438207e-03 2.24719103e-03 4.49438207e-03 0.
      2.24719103e-03 2.24719103e-03 4.49438207e-03 0. 0. 0. 0.
      2.24719103e-03 0. 2.24719103e-03 0. 2.24719103e-03 0.
      2.24719103e-03 0. 4.49438207e-03 0. 0. 0. 4.49438207e-03
      2.24719103e-03 2.24719103e-03 0. 0. 0. 2.24719103e-03
      2.24719103e-03 0. 0. 0. 4.49438207e-03 0. 2.24719103e-03 0. 0.
      2.24719103e-03 0. 0. 2.24719103e-03 2.24719103e-03 0.
      2.24719103e-03 0. 4.49438207e-03 2.24719103e-03 2.24719103e-03
      2.24719103e-03 0. 2.24719103e-03 4.49438207e-03 0. 4.49438207e-03
      2.24719103e-03 0. 0. 0. 0. 0. 6.74157310e-03 0. 4.49438207e-03
      2.24719103e-03 2.24719103e-03 2.24719103e-03 0. 0. 0. 0. 0. 0. 0.
      0. 0. 0. 2.24719103e-03 2.24719103e-03 4.49438207e-03 0.
      2.24719103e-03 0. 2.24719103e-03 0. 2.24719103e-03 0. 0. 0.
      2.24719103e-03 0. 0. 2.24719103e-03 0. 0. 0. 0. 2.24719103e-03 0.
      2.24719103e-03 0. 0. 2.24719103e-03 0. 0. 0. 0. 0. 0. 0.
      2.24719103e-03 2.24719103e-03 0. 4.49438207e-03 2.24719103e-03 0.
      0. 4.49438207e-03 0. 0. 0. 2.24719103e-03 0. 0. 0. 0. 0. 0.
      2.24719103e-03 0. 0. 0. 0. 0. 0. 0. 2.24719103e-03 0.
      4.49438207e-03 4.49438207e-03 2.24719103e-03 0. 0. 0. 0. 0. 0. 0.
      0. 2.24719103e-03 0. 0. 2.24719103e-03 0. 0. 2.24719103e-03
      2.24719103e-03 0. 0. 0. 0. 0. 0. 4.49438207e-03 0. 0.
      4.49438207e-03 0. 2.24719103e-03 0. 4.49438207e-03 0. 0. 0.
      4.49438207e-03 0. 2.24719103e-03 0. 0. 0. 0. 6.74157310e-03 0. 0.
      0. 0. 0. 4.49438207e-03 0. 0. 0. 0. 2.24719103e-03 0. 0.
      2.24719103e-03 0. 2.24719103e-03 0. 2.24719103e-03 0. 0.
      2.24719103e-03 2.24719103e-03 2.24719103e-03 0. 0. 0. 0. 0.
      6.74157310e-03 0. 0. 0. 2.24719103e-03 0. 2.24719103e-03
      2.24719103e-03 2.24719103e-03 0. 0. 0. 0. 2.24719103e-03 0.
      4.49438207e-03 0. 6.74157310e-03 0. 0. 0. 0. 0. 4.49438207e-03 0.
      2.24719103e-03 2.24719103e-03 2.24719103e-03 2.24719103e-03 0.
      2.24719103e-03 4.49438207e-03 0. 2.24719103e-03 0. 4.49438207e-03
      2.24719103e-03 0. 0. 0. 2.24719103e-03 0. 0. 4.49438207e-03 0. 0.
      2.24719103e-03 2.24719103e-03 0. 2.24719103e-03 4.49438207e-03
      2.24719103e-03 0. 0. 0. 0. 2.24719103e-03 0. 0. 2.24719103e-03
      2.24719103e-03 2.24719103e-03 0. 0. 0. 0. 0. 0. 0. 0.
      2.24719103e-03 0. 0. 0. 4.49438207e-03 0. 1.34831462e-02 0. 0. 0.
      0. 0. 0. 0. 2.24719103e-03 0. 0. 0. 2.24719103e-03 2.24719103e-03
      0. 2.24719103e-03 0. 4.49438207e-03 0. 2.24719103e-03 0. 0. 0.</_>
    <_>
      0. 0. 2.02020202e-02 0. 0. 0. 0. 0. 0. 6.73400657e-03 0. 0.
      6.73400657e-03 0. 3.36700329e-03 0. 0. 3.36700329e-03 0.
      3.36700329e-03 3.36700329e-03 0. 3.36700329e-03 0. 0.
      1.01010101e-02 0. 0. 0. 0. 0. 6.73400657e-03 0. 3.36700329e-03
      6.73400657e-03 0. 3.36700329e-03 0. 0. 3.36700329e-03 0. 0. 0.
      3.36700329e-03 6.73400657e-03 0. 0. 0. 0. 3.36700329e-03 0. 0. 0.
      0. 0. 0. 0. 0. 6.73400657e-03 0. 0. 0. 3.36700329e-03
      6.73400657e-03 0. 0. 0. 3.36700329e-03 0. 0. 0. 0. 0. 0. 0. 0. 0.
      0. 0. 0. 0. 3.36700329e-03 0. 0. 0. 0. 3.36700329e-03 0. 0. 0. 0.
      0. 0. 0. 0. 0. 0. 3.36700329e-03 0. 0. 0. 0. 0. 0. 0. 0.
      6.73400657e-03 0. 0. 0. 0. 0. 0. 0. 0. 0. 1.34680131e-02 0. 0. 0.
      0. 3.36700329e-03 0. 0. 0. 0. 3.36700329e-03 0. 0. 0. 0.
      3.36700329e-03 0. 0. 0. 6.73400657e-03 0. 0. 6.73400657e-03 0.
      3.36700329e-03 0. 0. 3.36700329e-03 0. 0. 0. 0. 6.73400657e-03 0.
      3.36700329e-03 0. 0. 3.36700329e-03 3.36700329e-03 0. 0. 0. 0. 0.
      3.36700329e-03 0. 0. 0. 0. 0. 0. 0. 0. 0. 0. 0. 0. 0. 0. 0. 0. 0.
      0. 0. 3.36700329e-03 3.36700329e-03 0. 0. 0. 0. 0. 3.36700329e-03
      0. 0. 0. 3.36700329e-03 3.36700329e-03 0. 0. 0. 0. 3.36700329e-03
      0. 3.36700329e-03 0. 0. 3.36700329e-03 0. 0. 0. 0. 0. 0. 0. 0. 0.
      0. 0. 0. 0. 3.36700329e-03 0. 0. 3.36700329e-03 3.36700329e-03 0.
      0. 0. 0. 0. 0. 0. 6.73400657e-03 6.73400657e-03 0. 0. 0. 0. 0.
      3.36700329e-03 3.36700329e-03 6.73400657e-03 3.36700329e-03 0. 0.
      0. 0. 0. 3.36700329e-03 0. 0. 0. 0. 3.36700329e-03 0. 0.
      3.36700329e-03 0. 1.01010101e-02 0. 0. 1.34680131e-02 0.
      3.36700329e-03 0. 3.36700329e-03 0. 3.36700329e-03 6.73400657e-03
      0. 0. 0. 3.36700329e-03 3.36700329e-03 0. 0. 0. 0. 6.73400657e-03
      3.36700329e-03 0. 0. 3.36700329e-03 0. 0. 0. 0. 0. 3.36700329e-03
      0. 0. 3.36700329e-03 0. 0. 0. 0. 0. 0. 0. 0. 0. 0. 0. 0. 0. 0.
      1.01010101e-02 3.36700329e-03 0. 3.36700329e-03 1.01010101e-02
      6.73400657e-03 3.36700329e-03 0. 0. 0. 0. 0. 0. 0. 0. 0. 0. 0. 0.
      0. 3.36700329e-03 0. 0. 3.36700329e-03 3.36700329e-03 0. 0. 0.
      3.36700329e-03 0. 0. 0. 3.36700329e-03 0. 0. 0. 0. 0. 0. 0. 0. 0.
      0. 0. 0. 3.36700329e-03 0. 0. 0. 0. 3.36700329e-03 0. 0. 0. 0. 0.
      0. 3.36700329e-03 0. 0. 0. 0. 0. 0. 0. 3.36700329e-03 0. 0. 0. 0.
      0. 0. 0. 0. 0. 0. 0. 0. 6.73400657e-03 3.36700329e-03 0. 0. 0. 0.
      0. 3.36700329e-03 0. 0. 0. 0. 0. 3.36700329e-03 0. 0. 0.
      3.36700329e-03 0. 0. 0. 0. 0. 0. 0. 0. 0. 0. 0. 0. 1.34680131e-02
      0. 0. 0. 0. 0. 0. 0. 0. 0. 0. 3.36700329e-03 0. 0. 0. 0. 0.
      3.36700329e-03 0. 0. 0. 0. 0. 3.36700329e-03 0. 0. 0. 0. 0. 0. 0.
      0. 0. 0. 0. 0. 6.73400657e-03 0. 0. 0. 3.36700329e-03 0. 0. 0. 0.
      0. 3.36700329e-03 3.36700329e-03 0. 0. 3.36700329e-03
      3.36700329e-03 0. 6.73400657e-03 0. 0. 3.36700329e-03
      3.36700329e-03 0. 6.73400657e-03 0. 0. 3.36700329e-03 0. 0. 0.
      3.36700329e-03 0. 3.36700329e-03 3.36700329e-03 0. 3.36700329e-03
      0. 0. 0. 0. 3.36700329e-03 3.36700329e-03 0. 3.36700329e-03
      3.36700329e-03 0. 0. 3.36700329e-03 0. 0. 0. 0. 3.36700329e-03 0.
      3.36700329e-03 0. 0. 0. 0. 0. 0. 0. 0. 0. 3.36700329e-03
      3.36700329e-03 0. 6.73400657e-03 0. 0. 3.36700329e-03
      6.73400657e-03 0. 0. 0. 0. 0. 0. 3.36700329e-03 0. 0. 0. 0. 0. 0.
      0. 0. 3.36700329e-03 0. 0. 3.36700329e-03 0. 0. 3.36700329e-03
      3.36700329e-03 0. 0. 3.36700329e-03 0. 0. 0. 0. 0. 0. 0. 0. 0. 0.
      0. 3.36700329e-03 0. 0. 0. 0. 0. 0. 3.36700329e-03 0. 0. 0. 0. 0.
      0. 0. 0. 0. 0. 3.36700329e-03 0. 0. 3.36700329e-03 0. 0.
      2.35690232e-02 0. 0. 3.36700329e-03 0. 0. 0. 0. 0. 0. 0.
      3.36700329e-03 0. 0. 3.36700329e-03 0. 0. 0. 0. 0. 3.36700329e-03
      0. 0. 3.36700329e-03 0. 0. 0. 0. 3.36700329e-03 3.36700329e-03 0.
      3.36700329e-03 0. 3.36700329e-03 0. 0. 0. 0. 0. 0. 0. 0. 0. 0. 0.
      0. 0. 0. 0. 0. 0. 0. 0. 3.36700329e-03 0. 0. 0. 0. 0. 0. 0. 0.
      3.36700329e-03 0. 0. 0. 3.36700329e-03 0. 0. 0. 0. 0. 0. 0. 0. 0.
      0. 0. 0. 3.36700329e-03 0. 0. 0. 0. 0. 0. 0. 0. 0. 0. 0. 0. 0. 0.
      0. 0. 3.36700329e-03 0. 0. 0. 3.36700329e-03 0. 3.36700329e-03 0.
      3.36700329e-03 0. 0. 0. 0. 0. 6.73400657e-03 0. 3.36700329e-03 0.
      0. 0. 0. 3.36700329e-03 0. 0. 0. 0. 0. 0. 3.36700329e-03
      1.34680131e-02 3.36700329e-03 0. 0. 0. 3.36700329e-03 0. 0. 0.
      3.36700329e-03 0. 0. 0. 3.36700329e-03 0. 0. 0. 0. 0. 0. 0. 0. 0.
      6.73400657e-03 0. 0. 0. 0. 0. 0. 0. 0. 0. 0. 0. 0. 0.
      1.68350171e-02 0. 0. 0. 0. 3.36700329e-03 0. 0. 0. 3.36700329e-03
      0. 3.36700329e-03 3.36700329e-03 0. 0. 0. 0. 0. 0. 3.36700329e-03
      0. 0. 0. 0. 0. 3.36700329e-03 0. 3.36700329e-03 6.73400657e-03
      1.01010101e-02 3.36700329e-03 0. 0. 0. 0. 0. 0. 0. 0. 0. 0. 0.
      6.73400657e-03 0. 0. 0. 3.36700329e-03 0. 6.73400657e-03 0. 0. 0.
      3.36700329e-03 0. 6.73400657e-03 0. 0. 0. 0. 0. 0. 0.
      3.36700329e-03 0. 0. 0. 0. 3.36700329e-03 3.36700329e-03
      3.36700329e-03 0. 3.36700329e-03 0. 0. 3.36700329e-03 0. 0. 0. 0.
      0. 0. 0. 0. 0. 0. 0. 0. 0. 0. 0. 0. 0. 0. 0. 0. 3.36700329e-03 0.
      0. 0. 0. 0. 0. 0. 0. 0. 0. 0. 0. 3.36700329e-03 0. 0. 0.
      3.36700329e-03 0. 0. 3.36700329e-03 0. 0. 0. 3.36700329e-03 0. 0.
      0. 0. 0. 0. 0. 0. 0. 0. 0. 0. 0. 0. 3.36700329e-03 0.
      3.36700329e-03 0. 0. 3.36700329e-03 0. 0. 0. 0. 0. 0. 0. 0. 0.
      3.36700329e-03 0. 0. 0. 3.36700329e-03 3.36700329e-03 0.
      6.73400657e-03 0. 0. 0. 0. 0. 3.36700329e-03 3.36700329e-03 0. 0.
      3.36700329e-03 0. 0. 0. 0. 0. 0. 0. 0. 3.36700329e-03 0. 0. 0. 0.
      0. 0. 3.36700329e-03 3.36700329e-03 3.36700329e-03 0.
      3.36700329e-03 3.36700329e-03 3.36700329e-03 0. 0. 0. 0. 0. 0. 0.
      0. 3.36700329e-03 6.73400657e-03 0. 0. 0. 0. 6.73400657e-03
      6.73400657e-03 0. 0. 0. 6.73400657e-03 0. 0. 3.36700329e-03 0. 0.
      0. 0. 0. 0. 0. 0. 3.36700329e-03 3.36700329e-03 0. 0. 0.
      3.36700329e-03 0. 3.36700329e-03 0. 0. 0. 0. 0. 0. 3.36700329e-03
      0. 3.36700329e-03 0. 0. 0. 0. 0. 0. 3.36700329e-03 0. 0.
      3.36700329e-03 3.36700329e-03 0. 6.73400657e-03 0. 0.
      6.73400657e-03 0. 3.36700329e-03 3.36700329e-03 0. 3.36700329e-03
      0.</_>
    <_>
      0. 2.90697673e-03 1.45348837e-03 0. 0. 0. 0. 2.90697673e-03 0.
      1.45348837e-03 2.90697673e-03 0. 0. 1.45348837e-03 2.90697673e-03
      0. 1.01744188e-02 0. 0. 1.45348837e-03 0. 0. 0. 0. 0.
      2.90697673e-03 4.36046533e-03 0. 0. 4.36046533e-03 0. 0. 0. 0. 0.
      0. 0. 0. 2.90697673e-03 1.45348837e-03 0. 0. 1.45348837e-03
      1.45348837e-03 0. 1.45348837e-03 0. 0. 0. 1.45348837e-03 0. 0.
      2.90697673e-03 0. 0. 0. 1.45348837e-03 0. 0. 0. 2.90697673e-03 0.
      0. 0. 1.45348837e-03 1.45348837e-03 4.36046533e-03 0.
      2.90697673e-03 0. 1.45348837e-03 1.45348837e-03 0. 0. 0. 0. 0. 0.
      1.45348837e-03 0. 0. 0. 0. 0. 1.45348837e-03 1.45348837e-03 0.
      4.36046533e-03 0. 1.45348837e-03 0. 2.90697673e-03 1.45348837e-03
      0. 0. 0. 0. 1.45348837e-03 1.45348837e-03 0. 1.45348837e-03
      4.36046533e-03 0. 2.90697673e-03 2.90697673e-03 0. 2.90697673e-03
      0. 0. 0. 0. 0. 0. 1.45348837e-03 0. 4.36046533e-03 4.36046533e-03
      0. 0. 0. 0. 7.26744160e-03 1.45348837e-03 0. 0. 1.45348837e-03 0.
      2.90697673e-03 0. 0. 0. 0. 0. 0. 0. 0. 1.45348837e-03
      1.45348837e-03 0. 0. 1.45348837e-03 2.90697673e-03 0.
      1.30813951e-02 0. 1.45348837e-03 0. 0. 1.45348837e-03 0. 0. 0. 0.
      0. 0. 1.45348837e-03 0. 0. 1.45348837e-03 0. 1.45348837e-03 0. 0.
      0. 0. 2.90697673e-03 1.45348837e-03 0. 1.45348837e-03 0. 0. 0. 0.
      1.45348837e-03 1.45348837e-03 1.45348837e-03 1.45348837e-03
      1.45348837e-03 0. 0. 5.81395347e-03 0. 2.90697673e-03 0. 0. 0. 0.
      0. 0. 1.45348837e-03 0. 0. 0. 2.90697673e-03 0. 2.90697673e-03
      1.45348837e-03 4.36046533e-03 2.90697673e-03 1.45348837e-03
      1.45348837e-03 0. 2.90697673e-03 1.45348837e-03 0. 2.90697673e-03
      0. 1.45348837e-03 1.45348837e-03 0. 0. 0. 1.45348837e-03 0. 0.
      1.45348837e-03 0. 0. 0. 0. 1.45348837e-03 0. 1.45348837e-03
      1.45348837e-03 4.36046533e-03 0. 0. 0. 0. 7.26744160e-03
      1.45348837e-03 2.90697673e-03 2.90697673e-03 0. 2.90697673e-03
      7.26744160e-03 1.45348837e-03 2.90697673e-03 0. 0. 0. 0. 0. 0.
      4.36046533e-03 0. 0. 1.45348837e-03 0. 1.45348837e-03 0. 0. 0. 0.
      1.45348837e-03 0. 0. 1.45348837e-03 0. 0. 2.90697673e-03
      1.45348837e-03 2.90697673e-03 2.90697673e-03 0. 0. 0. 0.
      2.90697673e-03 0. 0. 0. 0. 2.90697673e-03 2.90697673e-03 0. 0. 0.
      0. 0. 2.90697673e-03 1.45348837e-03 1.45348837e-03 2.90697673e-03
      0. 1.45348837e-03 0. 0. 4.36046533e-03 0. 1.45348837e-03
      4.36046533e-03 0. 1.45348837e-03 2.90697673e-03 1.45348837e-03
      1.45348837e-03 0. 1.45348837e-03 4.36046533e-03 0. 0. 0.
      1.45348837e-03 0. 0. 7.26744160e-03 4.36046533e-03 1.45348837e-03
      7.26744160e-03 2.90697673e-03 0. 1.45348837e-03 2.90697673e-03 0.
      2.90697673e-03 0. 0. 0. 1.45348837e-03 0. 0. 0. 0. 4.36046533e-03
      0. 1.45348837e-03 0. 0. 0. 1.45348837e-03 2.90697673e-03 0.
      1.45348837e-03 0. 1.45348837e-03 0. 1.45348837e-03 4.36046533e-03
      0. 1.45348837e-03 1.45348837e-03 1.45348837e-03 0. 0.
      1.45348837e-03 0. 0. 0. 0. 0. 1.45348837e-03 0. 0. 0. 0. 0. 0.
      2.90697673e-03 0. 0. 0. 2.90697673e-03 0. 0. 1.45348837e-03 0. 0.
      0. 2.90697673e-03 2.90697673e-03 1.45348837e-03 0. 0.
      1.45348837e-03 0. 0. 0. 0. 1.45348837e-03 0. 2.90697673e-03
      1.45348837e-03 1.45348837e-03 1.45348837e-03 0. 1.45348837e-03 0.
      0. 1.45348837e-03 0. 0. 0. 0. 1.45348837e-03 0. 0. 0.
      1.45348837e-03 0. 0. 0. 1.45348837e-03 0. 1.45348837e-03 0. 0. 0.
      0. 0. 0. 1.45348837e-03 0. 0. 0. 0. 1.45348837e-03 0. 0. 0. 0.
      1.45348837e-03 0. 2.90697673e-03 0. 0. 1.45348837e-03 0.
      4.36046533e-03 1.45348837e-03 2.90697673e-03 0. 0. 1.45348837e-03
      1.45348837e-03 0. 0. 0. 0. 2.90697673e-03 0. 0. 1.45348837e-03 0.
      1.45348837e-03 0. 1.45348837e-03 2.90697673e-03 0. 2.90697673e-03
      1.45348837e-03 2.90697673e-03 0. 0. 0. 0. 0. 0. 0. 0.
      1.45348837e-03 0. 0. 0. 0. 1.45348837e-03 2.90697673e-03
      2.90697673e-03 1.45348837e-03 1.45348837e-03 2.90697673e-03
      1.45348837e-03 0. 1.45348837e-03 0. 1.45348837e-03 2.90697673e-03
      4.36046533e-03 1.45348837e-03 0. 0. 1.45348837e-03 0. 0. 0. 0. 0.
      1.45348837e-03 0. 0. 2.90697673e-03 1.45348837e-03 0.
      1.45348837e-03 2.90697673e-03 0. 0. 1.45348837e-03 0. 0.
      1.45348837e-03 1.45348837e-03 0. 4.36046533e-03 1.45348837e-03
      1.45348837e-03 0. 0. 0. 1.45348837e-03 1.45348837e-03
      1.45348837e-03 0. 0. 0. 0. 1.45348837e-03 1.45348837e-03 0. 0. 0.
      0. 0. 0. 1.45348837e-03 0. 0. 0. 1.45348837e-03 0. 0.
      1.45348837e-03 0. 1.45348837e-03 0. 0. 1.45348837e-03 0. 0.
      2.90697673e-03 0. 2.03488376e-02 0. 0. 0. 0. 1.45348837e-03
      2.90697673e-03 1.45348837e-03 0. 0. 0. 2.90697673e-03
      2.90697673e-03 0. 0. 1.45348837e-03 0. 1.45348837e-03 0.
      1.45348837e-03 2.90697673e-03 1.16279069e-02 0. 0. 2.90697673e-03
      0. 1.45348837e-03 0. 0. 0. 0. 0. 0. 0. 0. 0. 0. 0. 2.90697673e-03
      0. 0. 0. 0. 0. 1.45348837e-03 1.45348837e-03 0. 0. 2.90697673e-03
      0. 0. 0. 7.26744160e-03 0. 0. 2.90697673e-03 0. 0. 1.45348837e-03
      0. 0. 8.72093067e-03 0. 0. 0. 1.45348837e-03 0. 0. 1.45348837e-03
      0. 1.45348837e-03 0. 0. 0. 1.45348837e-03 0. 1.30813951e-02 0. 0.
      0. 0. 1.45348837e-03 0. 0. 0. 0. 0. 1.45348837e-03 2.90697673e-03
      1.45348837e-03 0. 2.90697673e-03 0. 0. 0. 0. 0. 1.45348837e-03
      5.81395347e-03 1.45348837e-03 0. 0. 1.45348837e-03 0.
      2.90697673e-03 1.45348837e-03 1.45348837e-03 4.36046533e-03 0. 0.
      0. 1.45348837e-03 1.45348837e-03 0. 1.45348837e-03 1.45348837e-03
      0. 1.45348837e-03 4.36046533e-03 1.45348837e-03 0. 1.45348837e-03
      0. 0. 0. 0. 1.45348837e-03 0. 0. 0. 1.45348837e-03 1.45348837e-03
      0. 0. 2.90697673e-03 0. 0. 0. 1.45348837e-03 0. 2.90697673e-03
      2.90697673e-03 0. 2.90697673e-03 1.45348837e-03 2.90697673e-03 0.
      0. 0. 0. 2.90697673e-03 1.45348837e-03 1.45348837e-03
      1.45348837e-03 1.45348837e-03 0. 0. 0. 1.45348837e-03
      1.45348837e-03 0. 1.45348837e-03 4.36046533e-03 5.81395347e-03
      1.45348837e-03 0. 5.81395347e-03 1.45348837e-03 0. 1.45348837e-03
      0. 4.36046533e-03 2.90697673e-03 0. 0. 0. 0. 0. 0. 0.
      1.45348837e-03 2.90697673e-03 1.45348837e-03 0. 0. 1.45348837e-03
      5.81395347e-03 0. 4.36046533e-03 0. 1.45348837e-03 0.
      4.36046533e-03 4.36046533e-03 1.45348837e-03 1.45348837e-03
      1.45348837e-03 0. 0. 1.45348837e-03 0. 0. 0. 0. 0. 2.90697673e-03
      0. 0. 0. 0. 1.45348837e-03 1.45348837e-03 2.90697673e-03
      2.90697673e-03 0. 0. 0. 0. 1.45348837e-03 0. 0. 1.45348837e-03
      2.90697673e-03 2.90697673e-03 0. 1.45348837e-03 0. 2.90697673e-03
      1.45348837e-03 5.81395347e-03 1.45348837e-03 0. 0. 0. 0. 0. 0. 0.
      0. 0. 0. 0. 0. 0. 0. 0. 1.45348837e-03 2.90697673e-03
      2.90697673e-03 1.45348837e-03 2.90697673e-03 0. 2.90697673e-03 0.
      2.90697673e-03 0. 2.90697673e-03 0. 4.36046533e-03 7.26744160e-03
      1.45348837e-03 0. 0. 0. 1.45348837e-03 4.36046533e-03 0. 0.
      2.90697673e-03 4.36046533e-03 0. 0. 1.45348837e-03 4.36046533e-03
      0. 0. 0. 0. 0. 2.90697673e-03 1.45348837e-03 0. 2.90697673e-03 0.
      1.45348837e-03 1.45348837e-03 0. 0. 1.45348837e-03 0. 0. 0. 0.
      1.45348837e-03 0. 1.45348837e-03 0. 2.90697673e-03 0. 0.
      1.45348837e-03 0. 1.45348837e-03 0. 0. 0. 0. 1.45348837e-03 0. 0.
      0. 0. 0. 0. 0. 2.90697673e-03 0. 0. 0. 0. 0. 0. 0. 0.
      2.90697673e-03 1.45348837e-03 0. 0. 1.45348837e-03 0. 0.
      2.90697673e-03 0. 1.45348837e-03 0. 0. 0. 0. 0. 0. 0. 0. 0.
      1.45348837e-03 0. 0. 4.36046533e-03 2.90697673e-03 0.
      1.45348837e-03 1.45348837e-03 0. 0. 0. 2.90697673e-03 0. 0. 0. 0.
      0. 0. 0. 2.90697673e-03 0. 0. 2.90697673e-03 0. 0. 2.90697673e-03
      0. 0. 0. 4.36046533e-03 0. 1.45348837e-03 2.90697673e-03
      1.45348837e-03 5.81395347e-03 0. 0. 0. 1.45348837e-03
      2.90697673e-03 1.45348837e-03 4.36046533e-03 1.45348837e-03
      1.45348837e-03 2.90697673e-03 2.90697673e-03 0. 1.45348837e-03 0.
      5.81395347e-03 0. 1.45348837e-03 0. 0. 0. 2.90697673e-03
      1.45348837e-03 0. 0. 4.36046533e-03 1.45348837e-03 4.36046533e-03
      0. 2.90697673e-03 1.45348837e-03 0. 0. 1.45348837e-03
      1.45348837e-03 0. 4.36046533e-03 0. 2.90697673e-03 0. 0.
      1.45348837e-03 4.36046533e-03 0. 0. 0. 0. 0. 2.90697673e-03
      2.90697673e-03 0. 0. 0. 0. 0. 0. 0. 1.45348837e-03 0.
      2.90697673e-03 1.45348837e-03 0. 0. 0. 0. 1.45348837e-03
      1.45348837e-03 0. 0. 5.81395347e-03 1.45348837e-03 0.
      1.45348837e-03 0. 0. 1.45348837e-03 0. 0. 1.45348837e-03 0. 0.
      1.45348837e-03</_>
    <_>
      0. 0. 1.38408309e-02 3.46020772e-03 0. 0. 0. 3.46020772e-03
      3.46020772e-03 0. 0. 0. 3.46020772e-03 0. 6.92041544e-03 0.
      3.46020772e-03 0. 0. 0. 0. 0. 0. 0. 3.46020772e-03 3.46020772e-03
      0. 3.46020772e-03 6.92041544e-03 0. 0. 0. 0. 0. 0. 0. 0. 0. 0. 0.
      0. 3.46020772e-03 0. 0. 1.03806229e-02 0. 0. 0. 0. 0.
      3.46020772e-03 0. 0. 0. 0. 6.92041544e-03 0. 3.46020772e-03 0.
      3.46020772e-03 3.46020772e-03 0. 3.46020772e-03 0. 0. 0. 0. 0. 0.
      0. 0. 0. 0. 0. 0. 0. 0. 0. 0. 0. 0. 0. 3.46020772e-03
      3.46020772e-03 3.46020772e-03 6.92041544e-03 0. 0. 0. 0.
      3.46020772e-03 0. 0. 0. 0. 0. 3.46020772e-03 0. 0. 0.
      3.46020772e-03 0. 0. 3.46020772e-03 3.46020772e-03 0.
      3.46020772e-03 3.46020772e-03 0. 0. 0. 0. 0. 0. 0. 3.46020772e-03
      0. 0. 0. 0. 6.92041544e-03 0. 3.46020772e-03 0. 0. 3.46020772e-03
      0. 0. 0. 0. 0. 0. 0. 3.46020772e-03 0. 0. 0. 6.92041544e-03
      3.46020772e-03 0. 3.46020772e-03 6.92041544e-03 0. 0. 0. 0. 0. 0.
      0. 0. 0. 0. 3.46020772e-03 0. 3.46020772e-03 0. 6.92041544e-03 0.
      0. 0. 0. 0. 0. 0. 0. 0. 0. 0. 3.46020772e-03 0. 0. 3.46020772e-03
      0. 0. 0. 6.92041544e-03 0. 3.46020772e-03 0. 0. 3.46020772e-03 0.
      3.46020772e-03 0. 0. 0. 0. 0. 0. 3.46020772e-03 0. 0. 0. 0. 0. 0.
      0. 0. 0. 0. 0. 0. 0. 0. 0. 0. 3.46020772e-03 3.46020772e-03
      3.46020772e-03 0. 0. 0. 0. 0. 3.46020772e-03 0. 0. 0.
      3.46020772e-03 0. 0. 0. 0. 0. 0. 0. 0. 0. 0. 0. 0. 0. 0.
      6.92041544e-03 0. 1.03806229e-02 0. 3.46020772e-03 0. 0. 0. 0.
      3.46020772e-03 0. 0. 0. 0. 3.46020772e-03 0. 0. 0. 0. 0.
      3.46020772e-03 0. 0. 0. 0. 0. 0. 0. 0. 0. 0. 3.46020772e-03 0. 0.
      3.46020772e-03 0. 3.46020772e-03 0. 0. 0. 0. 3.46020772e-03
      6.92041544e-03 3.46020772e-03 0. 0. 0. 0. 0. 0. 0. 0. 0.
      3.46020772e-03 3.46020772e-03 0. 0. 0. 0. 3.46020772e-03 0. 0. 0.
      0. 6.92041544e-03 0. 0. 0. 0. 0. 0. 0. 0. 0. 3.46020772e-03 0. 0.
      0. 3.46020772e-03 0. 0. 0. 0. 0. 0. 0. 0. 0. 0. 0. 0.
      3.46020772e-03 0. 3.46020772e-03 0. 0. 0. 0. 3.46020772e-03 0. 0.
      0. 0. 3.46020772e-03 0. 3.46020772e-03 3.46020772e-03 0. 0.
      3.46020772e-03 0. 0. 0. 0. 0. 3.46020772e-03 0. 0. 0.
      3.46020772e-03 0. 0. 0. 0. 0. 3.46020772e-03 0. 3.46020772e-03 0.
      0. 0. 0. 3.46020772e-03 0. 3.46020772e-03 3.46020772e-03
      3.46020772e-03 1.03806229e-02 3.46020772e-03 0. 0. 0.
      3.46020772e-03 0. 0. 0. 0. 3.46020772e-03 0. 0. 3.46020772e-03
      3.46020772e-03 0. 0. 0. 0. 0. 3.46020772e-03 0. 0. 0. 0. 0. 0.
      3.46020772e-03 0. 3.46020772e-03 0. 0. 0. 0. 0. 0. 3.46020772e-03
      0. 0. 0. 3.46020772e-03 0. 0. 3.46020772e-03 0. 0. 0.
      3.46020772e-03 0. 0. 0. 0. 0. 0. 3.46020772e-03 0. 0. 0. 0. 0. 0.
      0. 0. 6.92041544e-03 0. 0. 0. 0. 0. 3.46020772e-03 0. 0. 0. 0. 0.
      0. 3.46020772e-03 0. 0. 0. 0. 0. 0. 0. 0. 6.92041544e-03
      6.92041544e-03 1.38408309e-02 0. 0. 6.92041544e-03 3.46020772e-03
      3.46020772e-03 0. 0. 0. 0. 0. 0. 0. 0. 0. 0. 0. 0. 3.46020772e-03
      3.46020772e-03 0. 0. 0. 0. 0. 0. 0. 0. 3.46020772e-03 0. 0. 0. 0.
      0. 0. 0. 3.46020772e-03 0. 3.46020772e-03 3.46020772e-03 0. 0. 0.
      3.46020772e-03 3.46020772e-03 0. 0. 0. 0. 3.46020772e-03 0. 0. 0.
      3.46020772e-03 0. 0. 0. 0. 0. 0. 0. 0. 0. 3.46020772e-03
      3.46020772e-03 0. 6.92041544e-03 3.46020772e-03 0. 3.46020772e-03
      0. 0. 0. 0. 6.92041544e-03 0. 0. 0. 0. 3.46020772e-03 0.
      3.46020772e-03 0. 0. 3.46020772e-03 3.46020772e-03 0. 0. 0. 0.
      3.46020772e-03 0. 0. 0. 0. 0. 0. 0. 6.92041544e-03 0. 0. 0. 0. 0.
      0. 0. 0. 0. 0. 0. 3.46020772e-03 3.46020772e-03 0. 0. 0. 0. 0. 0.
      0. 0. 0. 0. 6.92041544e-03 0. 0. 0. 0. 6.92041544e-03 0. 0. 0. 0.
      0. 3.46020772e-03 0. 0. 0. 0. 3.46020772e-03 0. 0. 0.
      3.46020772e-03 0. 0. 0. 3.46020772e-03 0. 3.46020772e-03 0. 0. 0.
      0. 0. 0. 0. 0. 0. 0. 0. 0. 6.92041544e-03 3.46020772e-03 0. 0.
      6.92041544e-03 0. 0. 0. 0. 0. 0. 0. 0. 0. 0. 0. 0. 0. 0.
      3.46020772e-03 0. 0. 0. 0. 0. 0. 0. 0. 0. 6.92041544e-03
      3.46020772e-03 0. 3.46020772e-03 0. 3.46020772e-03 0. 0. 0. 0. 0.
      0. 0. 0. 0. 3.46020772e-03 0. 0. 0. 0. 0. 6.92041544e-03
      3.46020772e-03 0. 0. 0. 0. 0. 0. 0. 0. 0. 0. 3.46020772e-03 0. 0.
      0. 3.46020772e-03 0. 3.46020772e-03 0. 0. 1.03806229e-02 0. 0.
      3.46020772e-03 0. 0. 0. 0. 0. 0. 0. 0. 3.46020772e-03 0. 0. 0. 0.
      0. 0. 0. 0. 0. 0. 0. 0. 0. 3.46020772e-03 3.46020772e-03 0. 0.
      3.46020772e-03 0. 0. 3.46020772e-03 3.46020772e-03 0. 0.
      3.46020772e-03 3.46020772e-03 3.46020772e-03 0. 3.46020772e-03
      6.92041544e-03 0. 0. 3.46020772e-03 6.92041544e-03 0. 0. 0. 0. 0.
      0. 0. 0. 0. 0. 3.46020772e-03 0. 0. 0. 0. 0. 0. 0. 3.46020772e-03
      3.46020772e-03 3.46020772e-03 0. 0. 0. 0. 0. 0. 0. 0.
      6.92041544e-03 0. 0. 6.92041544e-03 0. 0. 0. 0. 0. 0.
      3.46020772e-03 0. 0. 0. 0. 0. 0. 0. 0. 3.46020772e-03
      3.46020772e-03 0. 0. 0. 3.46020772e-03 0. 0. 3.46020772e-03 0.
      6.92041544e-03 6.92041544e-03 0. 0. 0. 0. 0. 0. 0. 6.92041544e-03
      3.46020772e-03 0. 0. 3.46020772e-03 0. 3.46020772e-03 0. 0.
      3.46020772e-03 3.46020772e-03 0. 0. 0. 0. 3.46020772e-03 0. 0.
      3.46020772e-03 0. 0. 0. 0. 3.46020772e-03 0. 0. 3.46020772e-03 0.
      3.46020772e-03 0. 0. 0. 0. 0. 0. 0. 0. 0. 0. 0. 0. 0.
      3.46020772e-03 0. 0. 0. 0. 0. 0. 0. 3.46020772e-03 0. 0. 0. 0. 0.
      0. 3.46020772e-03 0. 3.46020772e-03 0. 0. 3.46020772e-03 0. 0. 0.
      0. 0. 0. 0. 0. 0. 3.46020772e-03 3.46020772e-03 3.46020772e-03 0.
      0. 0. 0. 0. 0. 0. 0. 0. 0. 0. 0. 3.46020772e-03 0. 0. 0. 0.
      3.46020772e-03 0. 0. 0. 0. 0. 0. 6.92041544e-03 0. 3.46020772e-03
      6.92041544e-03 0. 0. 3.46020772e-03 3.46020772e-03 0.
      3.46020772e-03 3.46020772e-03 0. 0. 0. 0. 0. 3.46020772e-03 0. 0.
      0. 0. 3.46020772e-03 6.92041544e-03 0. 3.46020772e-03 0. 0.
      1.03806229e-02 0. 0. 0. 0. 0. 0. 0. 0. 3.46020772e-03 0.
      3.46020772e-03 0. 0. 0. 0. 3.46020772e-03 0. 0. 3.46020772e-03 0.
      3.46020772e-03 0. 0. 0. 0. 0. 0. 0. 0. 0. 0. 0. 0. 3.46020772e-03
      0. 0. 0. 0. 3.46020772e-03 0. 6.92041544e-03 3.46020772e-03 0. 0.
      0. 0. 0. 1.73010379e-02 0. 0. 0. 3.46020772e-03 0. 3.46020772e-03
      0. 0. 3.46020772e-03 0. 0. 3.46020772e-03 6.92041544e-03 0. 0. 0.
      0. 3.46020772e-03 0. 0. 0. 0.</_>
    <_>
      0. 0. 0. 0. 0. 0. 0. 0. 0. 0. 0. 0. 4.78468882e-03 0. 0. 0. 0. 0.
      0. 0. 4.78468882e-03 0. 0. 0. 0. 4.78468882e-03 0. 0. 0. 0. 0. 0.
      0. 4.78468882e-03 0. 0. 0. 0. 0. 0. 0. 0. 0. 0. 0. 0. 0. 0.
      4.78468882e-03 0. 0. 0. 9.56937764e-03 0. 0. 0. 0. 0. 0. 0. 0. 0.
      0. 0. 0. 0. 0. 0. 0. 0. 0. 0. 0. 0. 0. 0. 0. 4.78468882e-03 0. 0.
      4.78468882e-03 0. 0. 0. 0. 0. 0. 0. 0. 0. 0. 0. 0. 0. 0.
      4.78468882e-03 0. 0. 0. 0. 0. 0. 0. 0. 0. 0. 0. 0. 0. 0. 0. 0. 0.
      0. 0. 9.56937764e-03 4.78468882e-03 0. 4.78468882e-03
      4.78468882e-03 0. 4.78468882e-03 0. 0. 0. 0. 0. 9.56937764e-03 0.
      0. 0. 0. 0. 4.78468882e-03 0. 0. 0. 1.43540669e-02 0. 0. 0. 0. 0.
      4.78468882e-03 0. 0. 9.56937764e-03 0. 4.78468882e-03 0.
      4.78468882e-03 0. 0. 0. 0. 0. 1.43540669e-02 0. 0. 0. 0. 0.
      4.78468882e-03 0. 0. 0. 4.78468882e-03 0. 0. 0. 4.78468882e-03 0.
      0. 0. 0. 0. 0. 0. 0. 4.78468882e-03 0. 0. 0. 0. 0. 0. 0.
      4.78468882e-03 0. 0. 0. 0. 0. 0. 4.78468882e-03 0. 0.
      4.78468882e-03 0. 0. 0. 0. 0. 0. 4.78468882e-03 4.78468882e-03
      4.78468882e-03 0. 4.78468882e-03 0. 0. 4.78468882e-03 0. 0. 0. 0.
      0. 0. 0. 4.78468882e-03 9.56937764e-03 0. 0. 0. 0. 0. 0. 0. 0. 0.
      0. 0. 9.56937764e-03 0. 0. 0. 4.78468882e-03 4.78468882e-03 0. 0.
      0. 0. 0. 0. 0. 0. 0. 0. 0. 0. 0. 0. 0. 0. 4.78468882e-03 0.
      4.78468882e-03 0. 0. 0. 0. 0. 4.78468882e-03 0. 4.78468882e-03 0.
      0. 0. 0. 4.78468882e-03 0. 0. 0. 0. 0. 0. 0. 0. 0. 0.
      4.78468882e-03 0. 0. 4.78468882e-03 0. 1.43540669e-02 0. 0. 0. 0.
      4.78468882e-03 0. 0. 0. 0. 0. 4.78468882e-03 0. 4.78468882e-03
      4.78468882e-03 0. 0. 0. 0. 0. 0. 0. 0. 0. 4.78468882e-03
      4.78468882e-03 0. 0. 0. 0. 0. 0. 0. 0. 0. 0. 0. 0. 0. 0.
      4.78468882e-03 0. 0. 0. 4.78468882e-03 0. 0. 0. 0. 0. 0. 0. 0. 0.
      0. 0. 0. 0. 0. 0. 0. 0. 0. 0. 0. 0. 0. 0. 0. 0. 4.78468882e-03 0.
      0. 0. 0. 0. 4.78468882e-03 9.56937764e-03 0. 0. 0. 0. 0. 0. 0. 0.
      0. 0. 0. 0. 4.78468882e-03 4.78468882e-03 4.78468882e-03 0.
      4.78468882e-03 9.56937764e-03 4.78468882e-03 0. 0. 0. 0. 0. 0. 0.
      0. 0. 0. 0. 0. 0. 4.78468882e-03 0. 0. 0. 0. 0. 0. 0. 0. 0. 0. 0.
      0. 0. 0. 4.78468882e-03 0. 0. 0. 0. 0. 0. 4.78468882e-03 0. 0.
      9.56937764e-03 0. 0. 0. 0. 0. 0. 4.78468882e-03 4.78468882e-03 0.
      0. 0. 0. 0. 0. 0. 0. 0. 0. 4.78468882e-03 0. 0. 0. 4.78468882e-03
      0. 0. 0. 0. 0. 0. 9.56937764e-03 0. 0. 0. 0. 9.56937764e-03 0.
      4.78468882e-03 0. 0. 0. 0. 4.78468882e-03 4.78468882e-03 0. 0. 0.
      0. 0. 0. 0. 0. 4.78468882e-03 0. 4.78468882e-03 4.78468882e-03 0.
      0. 0. 0. 0. 0. 0. 0. 0. 0. 1.43540669e-02 0. 0. 4.78468882e-03
      9.56937764e-03 4.78468882e-03 0. 0. 4.78468882e-03 0. 0. 0. 0. 0.
      0. 0. 0. 0. 0. 4.78468882e-03 0. 0. 0. 0. 0. 0. 0. 4.78468882e-03
      0. 0. 0. 0. 4.78468882e-03 0. 0. 0. 0. 0. 9.56937764e-03 0. 0. 0.
      0. 0. 0. 9.56937764e-03 4.78468882e-03 4.78468882e-03 0. 0.
      4.78468882e-03 0. 0. 0. 0. 0. 0. 0. 0. 0. 0. 0. 0. 0.
      4.78468882e-03 0. 0. 0. 0. 0. 0. 0. 0. 9.56937764e-03 0. 0. 0. 0.
      0. 0. 0. 0. 0. 0. 0. 4.78468882e-03 0. 0. 4.78468882e-03 0. 0. 0.
      0. 1.43540669e-02 0. 0. 4.78468882e-03 0. 0. 0. 0. 0. 0. 0.
      4.78468882e-03 0. 0. 9.56937764e-03 0. 4.78468882e-03 0.
      9.56937764e-03 0. 0. 0. 4.78468882e-03 0. 0. 0. 0. 0. 0. 0. 0. 0.
      0. 0. 0. 0. 0. 2.39234436e-02 0. 0. 0. 0. 0. 4.78468882e-03 0. 0.
      0. 0. 0. 0. 0. 0. 0. 0. 0. 0. 0. 0. 0. 0. 0. 4.78468882e-03 0. 0.
      0. 0. 0. 0. 4.78468882e-03 0. 4.78468882e-03 0. 0. 0. 0. 0.
      4.78468882e-03 4.78468882e-03 0. 0. 9.56937764e-03 0. 0. 0. 0.
      4.78468882e-03 0. 0. 0. 0. 0. 0. 0. 0. 0. 0. 4.78468882e-03 0.
      4.78468882e-03 4.78468882e-03 0. 0. 9.56937764e-03 0. 0. 0. 0. 0.
      0. 0. 4.78468882e-03 0. 4.78468882e-03 0. 0. 0. 0. 0. 0.
      4.78468882e-03 0. 0. 0. 4.78468882e-03 4.78468882e-03
      4.78468882e-03 0. 0. 4.78468882e-03 0. 0. 0. 0. 4.78468882e-03 0.
      0. 0. 0. 0. 0. 0. 0. 0. 0. 0. 4.78468882e-03 4.78468882e-03 0. 0.
      0. 4.78468882e-03 0. 0. 0. 0. 0. 0. 0. 0. 4.78468882e-03 0. 0. 0.
      0. 0. 0. 0. 0. 0. 0. 0. 0. 0. 4.78468882e-03 0. 4.78468882e-03 0.
      0. 0. 0. 0. 0. 4.78468882e-03 0. 0. 0. 0. 9.56937764e-03 0.
      4.78468882e-03 0. 9.56937764e-03 0. 0. 0. 0. 0. 4.78468882e-03 0.
      0. 0. 0. 0. 0. 4.78468882e-03 4.78468882e-03 0. 0. 0. 0. 0. 0. 0.
      0. 0. 0. 0. 0. 0. 0. 0. 4.78468882e-03 0. 0. 4.78468882e-03
      4.78468882e-03 0. 0. 0. 4.78468882e-03 0. 4.78468882e-03 0. 0. 0.
      0. 4.78468882e-03 0. 0. 0. 0. 0. 0. 0. 4.78468882e-03 0. 0. 0. 0.
      0. 0. 0. 0. 0. 4.78468882e-03 0. 9.56937764e-03 0. 0. 0.
      4.78468882e-03 0. 0. 0. 4.78468882e-03 9.56937764e-03 0. 0. 0. 0.
      0. 0. 0. 0. 0. 4.78468882e-03 4.78468882e-03 0. 0. 0. 0.
      4.78468882e-03 0. 0. 0. 0. 0. 0. 0. 0. 0. 0. 0. 0. 4.78468882e-03
      0. 0. 0. 0. 0. 0. 0. 0. 0. 4.78468882e-03 4.78468882e-03 0. 0. 0.
      4.78468882e-03 0. 0. 0. 0. 0. 0. 4.78468882e-03 4.78468882e-03 0.
      0. 0. 0. 0. 0. 0. 0. 0. 0. 9.56937764e-03 0. 0. 0. 0. 0.
      4.78468882e-03 0. 0. 0. 0. 0. 0. 0. 0. 0. 0. 0. 4.78468882e-03 0.
      0. 0. 0. 0. 0. 0. 4.78468882e-03 4.78468882e-03 0. 0. 0. 0.
      4.78468882e-03 0. 0. 0. 4.78468882e-03 0. 0. 0. 0. 0. 0. 0. 0. 0.
      0. 0. 0. 0. 0. 0. 0. 0. 0. 4.78468882e-03 0. 0. 0. 4.78468882e-03
      0. 0. 0. 0. 0. 0. 0. 0. 4.78468882e-03 0. 0. 0. 4.78468882e-03 0.
      0. 0. 0. 0. 0. 4.78468882e-03 0. 0. 0. 0. 0. 0. 0. 0. 0. 0. 0. 0.
      0.</_>
    <_>
      0. 0. 2.59740255e-03 0. 0. 2.59740255e-03 0. 0. 0. 0. 0. 0.
      5.19480510e-03 5.19480510e-03 2.59740255e-03 2.59740255e-03 0. 0.
      0. 0. 0. 2.59740255e-03 2.59740255e-03 0. 0. 5.19480510e-03 0. 0.
      2.59740255e-03 0. 5.19480510e-03 0. 0. 2.59740255e-03 0. 0.
      5.19480510e-03 2.59740255e-03 5.19480510e-03 0. 0. 0. 0. 0. 0.
      5.19480510e-03 0. 0. 0. 7.79220741e-03 0. 2.59740255e-03 0. 0. 0.
      0. 0. 0. 0. 0. 2.59740255e-03 0. 2.59740255e-03 0. 0.
      2.59740255e-03 0. 0. 2.59740255e-03 0. 0. 2.59740255e-03 0. 0.
      2.59740255e-03 0. 0. 2.59740255e-03 0. 0. 2.59740255e-03 0. 0. 0.
      0. 0. 0. 0. 0. 2.59740255e-03 0. 0. 0. 0. 0. 0. 0. 2.59740255e-03
      2.59740255e-03 0. 5.19480510e-03 5.19480510e-03 5.19480510e-03 0.
      2.59740255e-03 2.59740255e-03 1.29870130e-02 0. 0. 2.59740255e-03
      0. 0. 0. 2.59740255e-03 0. 0. 2.59740255e-03 0. 2.59740255e-03
      2.59740255e-03 2.59740255e-03 0. 2.59740255e-03 0. 0. 0. 0. 0. 0.
      0. 0. 0. 0. 2.59740255e-03 0. 0. 0. 2.59740255e-03 0. 0. 0.
      1.29870130e-02 0. 2.59740255e-03 0. 0. 5.19480510e-03 0. 0. 0. 0.
      2.59740255e-03 0. 0. 0. 2.59740255e-03 7.79220741e-03 0.
      2.59740255e-03 0. 2.59740255e-03 2.59740255e-03 0. 0. 0.
      1.29870130e-02 0. 0. 0. 0. 0. 5.19480510e-03 2.59740255e-03 0. 0.
      0. 0. 0. 0. 0. 0. 0. 5.19480510e-03 0. 0. 0. 0. 0. 0.
      2.59740255e-03 0. 0. 2.59740255e-03 2.59740255e-03 0. 0. 0. 0.
      2.59740255e-03 0. 0. 0. 7.79220741e-03 0. 0. 0. 0. 0. 0. 0.
      2.59740255e-03 0. 0. 0. 0. 0. 2.59740255e-03 0. 0. 0. 0. 0. 0. 0.
      0. 0. 0. 0. 5.19480510e-03 2.59740255e-03 0. 2.59740255e-03 0.
      2.59740255e-03 2.59740255e-03 0. 7.79220741e-03 5.19480510e-03
      2.59740255e-03 0. 0. 0. 0. 0. 2.59740255e-03 5.19480510e-03 0. 0.
      0. 0. 0. 2.59740255e-03 5.19480510e-03 2.59740255e-03
      5.19480510e-03 0. 2.59740255e-03 0. 2.59740255e-03 0. 0.
      5.19480510e-03 2.59740255e-03 5.19480510e-03 2.59740255e-03
      2.59740255e-03 0. 0. 0. 0. 0. 0. 0. 2.59740255e-03 0.
      5.19480510e-03 0. 0. 0. 0. 0. 0. 0. 2.59740255e-03 0.
      2.59740255e-03 0. 2.59740255e-03 0. 0. 0. 0. 0. 0. 0. 0. 0. 0. 0.
      2.59740255e-03 0. 2.59740255e-03 0. 2.59740255e-03 0.
      5.19480510e-03 7.79220741e-03 2.59740255e-03 0. 5.19480510e-03
      2.59740255e-03 0. 2.59740255e-03 0. 2.59740255e-03 2.59740255e-03
      0. 2.59740255e-03 0. 5.19480510e-03 0. 0. 5.19480510e-03
      2.59740255e-03 0. 0. 0. 2.59740255e-03 0. 2.59740255e-03
      2.59740255e-03 2.59740255e-03 2.59740255e-03 0. 2.59740255e-03 0.
      0. 0. 0. 5.19480510e-03 0. 0. 0. 0. 0. 0. 2.59740255e-03 0. 0. 0.
      0. 0. 0. 5.19480510e-03 0. 0. 0. 0. 0. 0. 0. 0. 5.19480510e-03 0.
      0. 0. 0. 0. 0. 2.59740255e-03 0. 0. 0. 0. 0. 0. 0. 0. 0. 0.
      5.19480510e-03 7.79220741e-03 0. 0. 0. 0. 2.59740255e-03 0. 0. 0.
      0. 0. 2.59740255e-03 0. 5.19480510e-03 0. 0. 0. 2.59740255e-03 0.
      0. 0. 2.59740255e-03 0. 0. 0. 0. 5.19480510e-03 0. 0. 0.
      2.59740255e-03 2.59740255e-03 0. 0. 0. 0. 0. 0. 0. 0. 0. 0.
      2.59740255e-03 0. 0. 0. 0. 5.19480510e-03 0. 0. 0. 0.
      2.33766232e-02 2.59740255e-03 0. 2.59740255e-03 0. 0. 0. 0. 0.
      2.59740255e-03 0. 0. 2.59740255e-03 2.59740255e-03 0. 0. 0. 0. 0.
      0. 0. 0. 1.03896102e-02 0. 0. 0. 0. 5.19480510e-03 0. 0. 0. 0. 0.
      2.59740255e-03 0. 0. 0. 0. 2.59740255e-03 5.19480510e-03 0. 0. 0.
      0. 0. 2.59740255e-03 0. 0. 0. 0. 0. 0. 0. 0. 0. 0. 0. 0.
      2.59740255e-03 0. 0. 0. 0. 0. 0. 5.19480510e-03 0. 5.19480510e-03
      2.59740255e-03 0. 0. 0. 0. 0. 0. 0. 0. 2.59740255e-03
      2.59740255e-03 0. 2.59740255e-03 0. 5.19480510e-03 5.19480510e-03
      2.59740255e-03 0. 0. 2.59740255e-03 2.59740255e-03 0.
      5.19480510e-03 1.29870130e-02 0. 0. 0. 0. 0. 0. 1.29870130e-02 0.
      0. 0. 2.59740255e-03 2.59740255e-03 0. 0. 0. 0. 2.59740255e-03 0.
      2.59740255e-03 0. 0. 0. 2.59740255e-03 0. 0. 0. 0. 0. 0.
      5.19480510e-03 0. 0. 0. 0. 0. 0. 2.59740255e-03 0. 0. 0. 0.
      2.59740255e-03 0. 0. 0. 0. 0. 0. 0. 5.19480510e-03 0. 0. 0. 0. 0.
      2.59740255e-03 0. 5.19480510e-03 0. 0. 5.19480510e-03 0. 0. 0. 0.
      2.59740255e-03 0. 0. 2.59740255e-03 0. 0. 0. 0. 0. 2.59740255e-03
      2.59740255e-03 0. 0. 0. 0. 0. 0. 0. 2.59740255e-03 0. 0. 0. 0. 0.
      0. 0. 2.33766232e-02 2.59740255e-03 0. 0. 2.59740255e-03 0. 0. 0.
      0. 0. 0. 0. 2.59740255e-03 0. 0. 0. 0. 0. 2.59740255e-03 0. 0. 0.
      0. 0. 0. 0. 0. 0. 0. 0. 2.59740255e-03 7.79220741e-03
      2.59740255e-03 0. 2.59740255e-03 2.59740255e-03 0. 0. 0. 0. 0. 0.
      0. 5.19480510e-03 0. 0. 0. 2.59740255e-03 2.59740255e-03 0. 0. 0.
      2.59740255e-03 0. 0. 0. 0. 0. 0. 0. 0. 2.59740255e-03 0. 0. 0. 0.
      0. 0. 0. 0. 0. 0. 0. 0. 5.19480510e-03 2.59740255e-03
      2.59740255e-03 0. 0. 0. 0. 0. 0. 0. 0. 0. 0. 0. 5.19480510e-03 0.
      0. 0. 0. 2.59740255e-03 0. 0. 2.59740255e-03 0. 0. 0.
      2.59740255e-03 0. 0. 0. 0. 0. 0. 2.59740255e-03 2.59740255e-03
      2.59740255e-03 0. 0. 0. 0. 2.59740255e-03 0. 0. 0. 2.59740255e-03
      0. 2.59740255e-03 1.55844148e-02 0. 0. 5.19480510e-03
      2.59740255e-03 0. 2.59740255e-03 2.59740255e-03 0. 0. 0. 0. 0. 0.
      0. 2.59740255e-03 0. 0. 0. 0. 0. 0. 0. 0. 0. 0. 0. 0. 0. 0. 0. 0.
      0. 2.59740255e-03 2.59740255e-03 2.59740255e-03 0. 0.
      2.59740255e-03 2.59740255e-03 0. 0. 2.59740255e-03 0. 0. 0. 0. 0.
      0. 0. 0. 0. 2.59740255e-03 0. 2.59740255e-03 0. 0. 0.
      1.29870130e-02 0. 0. 0. 0. 0. 0. 0. 2.59740255e-03 0. 0. 0. 0. 0.
      0. 2.59740255e-03 0. 0. 0. 2.59740255e-03 2.59740255e-03 0. 0.
      2.59740255e-03 0. 0. 2.59740255e-03 0. 0. 0. 2.59740255e-03
      5.19480510e-03 0. 0. 2.59740255e-03 0. 0. 0. 0. 5.19480510e-03 0.
      0. 0. 2.59740255e-03 0. 2.59740255e-03 2.59740255e-03 0.
      7.79220741e-03 0. 0. 0. 0. 0. 0. 0. 0. 0. 0. 2.59740255e-03 0.
      2.59740255e-03 0. 0. 0. 2.59740255e-03 0. 0. 0. 0. 0. 0. 0. 0.
      2.59740255e-03 0. 0. 0. 7.79220741e-03 0. 0. 2.59740255e-03 0. 0.
      0. 0. 0. 0. 0. 5.19480510e-03 0. 0. 2.59740255e-03 2.59740255e-03
      0. 0. 0. 0. 0. 0. 2.59740255e-03 0. 0. 0. 0. 0. 0. 0.
      7.79220741e-03 2.59740255e-03 0. 0. 5.19480510e-03 0. 0. 0. 0.
      2.59740255e-03 2.59740255e-03 0. 2.59740255e-03 5.19480510e-03 0.
      2.59740255e-03 0. 0. 0. 0. 0. 0. 0. 0. 0. 2.59740255e-03 0.
      2.59740255e-03 2.59740255e-03 0. 0. 2.59740255e-03 0. 0. 0.
      2.59740255e-03 0. 5.19480510e-03 0. 0. 0. 5.19480510e-03 0. 0. 0.
      0. 0. 0. 0. 0. 2.59740255e-03 0. 0. 0. 0. 0. 5.19480510e-03 0. 0.
      2.59740255e-03 0. 0. 0. 0. 0. 0. 0. 0. 0. 0. 0. 0. 0. 0.
      2.59740255e-03 5.19480510e-03 2.59740255e-03 0. 0. 0. 0. 0. 0. 0.
      0. 0. 0. 0. 0. 0. 0. 2.59740255e-03 0. 0. 0. 0. 0.</_>
    <_>
      3.00300308e-03 0. 0. 6.00600615e-03 0. 3.00300308e-03 0.
      3.00300308e-03 0. 0. 0. 0. 0. 0. 3.00300308e-03 0. 3.00300308e-03
      0. 3.00300308e-03 0. 0. 3.00300308e-03 3.00300308e-03 0. 0.
      3.00300308e-03 0. 0. 0. 0. 3.00300308e-03 3.00300308e-03 0. 0.
      3.00300308e-03 3.00300308e-03 0. 0. 0. 3.00300308e-03 0. 0.
      3.00300308e-03 3.00300308e-03 3.00300308e-03 0. 3.00300308e-03 0.
      0. 0. 0. 0. 0. 3.00300308e-03 0. 0. 0. 0. 0. 0. 0. 0.
      3.00300308e-03 0. 0. 0. 0. 0. 0. 0. 0. 0. 0. 0. 0. 0. 0. 0. 0.
      3.00300308e-03 0. 0. 0. 0. 0. 0. 3.00300308e-03 0. 0. 0. 0. 0. 0.
      0. 0. 0. 0. 0. 3.00300308e-03 3.00300308e-03 0. 0. 0. 0. 0. 0. 0.
      0. 3.00300308e-03 0. 0. 6.00600615e-03 3.00300308e-03
      3.00300308e-03 0. 3.00300308e-03 9.00900923e-03 0. 3.00300308e-03
      0. 0. 0. 0. 0. 0. 0. 3.00300308e-03 0. 0. 0. 3.00300308e-03
      6.00600615e-03 0. 0. 0. 0. 0. 0. 0. 0. 0. 0. 0. 6.00600615e-03 0.
      0. 0. 0. 0. 0. 0. 0. 6.00600615e-03 0. 0. 0. 0. 0. 0. 0. 0. 0. 0.
      0. 0. 6.00600615e-03 0. 0. 0. 3.00300308e-03 0. 3.00300308e-03 0.
      0. 3.00300308e-03 0. 0. 0. 0. 3.00300308e-03 0. 0. 3.00300308e-03
      3.00300308e-03 0. 0. 0. 0. 3.00300308e-03 0. 0. 0. 0. 0. 0. 0. 0.
      0. 3.00300308e-03 0. 0. 0. 0. 0. 0. 0. 0. 3.00300308e-03 0. 0. 0.
      0. 6.00600615e-03 0. 3.00300308e-03 0. 0. 0. 3.00300308e-03 0. 0.
      0. 0. 0. 0. 0. 0. 0. 3.00300308e-03 0. 0. 3.00300308e-03 0. 0. 0.
      0. 3.00300308e-03 0. 3.00300308e-03 0. 0. 3.00300308e-03
      3.00300308e-03 0. 0. 0. 0. 3.00300308e-03 3.00300308e-03 0. 0.
      3.00300308e-03 0. 9.00900923e-03 0. 0. 0. 0. 0. 3.00300308e-03
      3.00300308e-03 3.00300308e-03 0. 0. 0. 0. 3.00300308e-03 0. 0.
      3.00300308e-03 0. 3.00300308e-03 0. 0. 0. 0. 0. 0. 6.00600615e-03
      3.00300308e-03 0. 0. 3.00300308e-03 6.00600615e-03 0.
      3.00300308e-03 3.00300308e-03 1.20120123e-02 0. 6.00600615e-03 0.
      0. 0. 0. 0. 0. 0. 0. 3.00300308e-03 0. 0. 0. 3.00300308e-03 0. 0.
      0. 3.00300308e-03 3.00300308e-03 3.00300308e-03 0. 3.00300308e-03
      0. 0. 0. 0. 0. 3.00300308e-03 0. 0. 0. 0. 0. 3.00300308e-03
      3.00300308e-03 0. 0. 3.00300308e-03 3.00300308e-03 0.
      3.00300308e-03 6.00600615e-03 0. 0. 3.00300308e-03 0. 0.
      3.00300308e-03 3.00300308e-03 3.00300308e-03 0. 0. 3.00300308e-03
      3.00300308e-03 0. 0. 0. 0. 0. 0. 0. 0. 0. 0. 0. 0. 3.00300308e-03
      0. 0. 0. 0. 0. 0. 0. 0. 0. 0. 0. 0. 0. 0. 3.00300308e-03 0. 0. 0.
      3.00300308e-03 3.00300308e-03 3.00300308e-03 0. 0. 6.00600615e-03
      6.00600615e-03 0. 0. 0. 0. 0. 0. 0. 0. 0. 3.00300308e-03 0. 0. 0.
      3.00300308e-03 0. 0. 0. 0. 0. 0. 0. 3.00300308e-03 0. 0. 0.
      3.00300308e-03 0. 0. 0. 9.00900923e-03 3.00300308e-03 0. 0. 0. 0.
      0. 0. 0. 0. 3.00300308e-03 0. 0. 0. 0. 0. 3.00300308e-03 0.
      3.00300308e-03 0. 0. 3.00300308e-03 3.00300308e-03 0. 0.
      3.00300308e-03 0. 0. 3.00300308e-03 0. 0. 0. 0. 0. 0. 0. 0. 0.
      3.00300308e-03 0. 0. 0. 0. 0. 3.00300308e-03 3.00300308e-03 0.
      3.00300308e-03 0. 0. 3.00300308e-03 0. 0. 0. 6.00600615e-03 0. 0.
      9.00900923e-03 0. 6.00600615e-03 0. 0. 3.00300308e-03 0.
      6.00600615e-03 0. 0. 0. 3.00300308e-03 0. 0. 0. 0. 0. 0.
      3.00300308e-03 0. 0. 0. 0. 3.00300308e-03 0. 0. 0. 0. 0.
      3.00300308e-03 0. 3.00300308e-03 0. 3.00300308e-03 0.
      3.00300308e-03 0. 0. 0. 0. 0. 3.00300308e-03 0. 0. 0. 0. 0.
      3.00300308e-03 3.00300308e-03 0. 0. 0. 0. 3.00300308e-03
      3.00300308e-03 0. 9.00900923e-03 3.00300308e-03 0. 3.00300308e-03
      0. 0. 0. 0. 0. 0. 0. 0. 0. 0. 0. 6.00600615e-03 0. 0. 0. 0. 0. 0.
      0. 3.00300308e-03 0. 0. 0. 0. 0. 0. 3.00300308e-03 3.00300308e-03
      3.00300308e-03 0. 0. 0. 0. 0. 3.00300308e-03 3.00300308e-03 0.
      3.00300308e-03 0. 0. 0. 0. 0. 0. 0. 0. 3.00300308e-03
      9.00900923e-03 0. 6.00600615e-03 0. 0. 9.00900923e-03
      3.00300308e-03 3.00300308e-03 0. 0. 6.00600615e-03 0. 0. 0.
      1.20120123e-02 0. 0. 0. 0. 1.20120123e-02 0. 0. 1.20120123e-02 0.
      0. 0. 3.00300308e-03 0. 6.00600615e-03 0. 0. 0. 0. 0.
      3.00300308e-03 3.00300308e-03 0. 0. 0. 0. 0. 0. 0. 0. 0. 0. 0. 0.
      0. 0. 0. 0. 0. 3.00300308e-03 0. 0. 0. 0. 6.00600615e-03 0. 0.
      3.00300308e-03 0. 0. 0. 0. 0. 0. 3.00300308e-03 6.00600615e-03
      3.00300308e-03 3.00300308e-03 0. 0. 3.00300308e-03 0. 0. 0. 0. 0.
      0. 0. 0. 3.00300308e-03 6.00600615e-03 0. 0. 0. 0. 0. 0. 0. 0. 0.
      9.00900923e-03 6.00600615e-03 0. 3.00300308e-03 3.00300308e-03 0.
      0. 0. 3.00300308e-03 0. 0. 0. 0. 3.00300308e-03 3.00300308e-03 0.
      0. 3.00300308e-03 0. 0. 0. 6.00600615e-03 0. 0. 3.00300308e-03 0.
      0. 0. 3.00300308e-03 0. 3.00300308e-03 0. 0. 3.00300308e-03
      3.00300308e-03 0. 0. 0. 0. 0. 0. 3.00300308e-03 3.00300308e-03 0.
      3.00300308e-03 3.00300308e-03 0. 0. 0. 0. 3.00300308e-03 0. 0.
      6.00600615e-03 3.00300308e-03 0. 0. 3.00300308e-03 3.00300308e-03
      0. 0. 0. 0. 3.00300308e-03 0. 3.00300308e-03 0. 0. 0. 0. 0. 0. 0.
      0. 0. 0. 3.00300308e-03 0. 0. 0. 0. 0. 0. 0. 0. 1.20120123e-02 0.
      0. 0. 0. 0. 3.00300308e-03 3.00300308e-03 3.00300308e-03 0. 0. 0.
      0. 0. 0. 0. 0. 6.00600615e-03 0. 0. 3.00300308e-03 0. 0.
      3.00300308e-03 0. 0. 6.00600615e-03 0. 0. 0. 3.00300308e-03 0. 0.
      3.00300308e-03 0. 0. 6.00600615e-03 0. 0. 3.00300308e-03 0. 0.
      6.00600615e-03 0. 0. 6.00600615e-03 0. 0. 0. 0. 6.00600615e-03
      6.00600615e-03 0. 0. 0. 0. 3.00300308e-03 6.00600615e-03 0. 0. 0.
      0. 0. 0. 3.00300308e-03 3.00300308e-03 0. 3.00300308e-03 0. 0. 0.
      0. 0. 3.00300308e-03 0. 0. 0. 3.00300308e-03 3.00300308e-03 0. 0.
      0. 3.00300308e-03 0. 3.00300308e-03 0. 0. 3.00300308e-03 0. 0. 0.
      0. 0. 0. 0. 0. 3.00300308e-03 0. 0. 0. 3.00300308e-03 0.
      3.00300308e-03 0. 0. 3.00300308e-03 0. 0. 0. 0. 0. 0.
      3.00300308e-03 0. 0. 0. 0. 0. 0. 0. 0. 3.00300308e-03 0. 0.
      3.00300308e-03 6.00600615e-03 0. 0. 0. 3.00300308e-03 0.
      3.00300308e-03 0. 0. 0. 0. 3.00300308e-03 6.00600615e-03 0. 0. 0.
      0. 0. 0. 0. 0. 0. 0. 3.00300308e-03 0. 0. 0. 3.00300308e-03 0. 0.
      0. 0. 0. 0. 3.00300308e-03 0. 0. 0. 3.00300308e-03 0. 0. 0. 0.
      3.00300308e-03 0. 0. 0. 0. 0. 0. 3.00300308e-03 6.00600615e-03
      3.00300308e-03 0. 0. 0. 0. 0. 0. 0. 0. 0. 3.00300308e-03
      9.00900923e-03 0. 3.00300308e-03 0. 3.00300308e-03 0. 0. 0.
      3.00300308e-03 0. 3.00300308e-03 0. 0. 3.00300308e-03 0.
      3.00300308e-03 0. 0. 0. 0. 0. 0. 0. 0. 0. 6.00600615e-03 0.
      3.00300308e-03 0. 0. 0. 0. 0. 0. 0. 0. 6.00600615e-03 0. 0. 0. 0.
      0. 0. 3.00300308e-03 3.00300308e-03 0. 3.00300308e-03
      3.00300308e-03 0. 0. 0. 6.00600615e-03 0. 0. 0. 0. 0. 0.
      3.00300308e-03</_>
    <_>
      0. 0. 0. 0. 0. 0. 5.74712642e-03 0. 0. 0. 0. 0. 0. 0. 0. 0.
      5.74712642e-03 5.74712642e-03 0. 0. 0. 0. 0. 0. 0. 0.
      5.74712642e-03 5.74712642e-03 0. 0. 0. 5.74712642e-03 0. 0. 0. 0.
      0. 0. 0. 0. 0. 0. 0. 5.74712642e-03 0. 0. 5.74712642e-03 0. 0. 0.
      0. 0. 1.14942528e-02 5.74712642e-03 0. 0. 0. 0. 0. 0. 0. 0. 0.
      5.74712642e-03 5.74712642e-03 0. 5.74712642e-03 5.74712642e-03 0.
      0. 0. 0. 0. 0. 0. 0. 0. 0. 0. 0. 0. 0. 0. 0. 0. 5.74712642e-03 0.
      0. 0. 0. 0. 0. 0. 0. 0. 0. 0. 0. 0. 0. 0. 5.74712642e-03 0. 0. 0.
      0. 0. 0. 0. 0. 0. 0. 0. 0. 0. 0. 5.74712642e-03 0. 0. 0. 0. 0. 0.
      5.74712642e-03 0. 0. 0. 0. 0. 0. 5.74712642e-03 0. 0. 0. 0. 0.
      5.74712642e-03 5.74712642e-03 5.74712642e-03 0. 5.74712642e-03 0.
      0. 0. 0. 0. 0. 0. 0. 0. 0. 0. 0. 0. 0. 0. 0. 0. 0. 0. 0. 0. 0. 0.
      0. 5.74712642e-03 0. 0. 0. 5.74712642e-03 0. 0. 0. 0.
      5.74712642e-03 5.74712642e-03 0. 0. 0. 0. 0. 0. 0. 0. 0. 0. 0.
      5.74712642e-03 0. 0. 0. 0. 0. 0. 5.74712642e-03 0. 0. 0. 0. 0. 0.
      0. 0. 0. 0. 0. 0. 0. 0. 0. 5.74712642e-03 0. 0. 0. 0. 0. 0. 0.
      5.74712642e-03 0. 0. 5.74712642e-03 0. 0. 0. 0. 0. 0. 0.
      5.74712642e-03 5.74712642e-03 0. 5.74712642e-03 0. 0. 0. 0.
      5.74712642e-03 5.74712642e-03 0. 0. 5.74712642e-03 0. 0. 0. 0.
      5.74712642e-03 0. 0. 0. 5.74712642e-03 0. 0. 0. 0. 0.
      5.74712642e-03 0. 0. 0. 0. 0. 0. 0. 5.74712642e-03 0. 0. 0. 0. 0.
      0. 0. 0. 0. 0. 0. 0. 0. 0. 0. 0. 0. 0. 0. 0. 0. 0. 0.
      1.14942528e-02 0. 0. 0. 0. 0. 5.74712642e-03 0. 0. 0. 0. 0. 0. 0.
      0. 0. 0. 5.74712642e-03 0. 0. 0. 0. 0. 0. 5.74712642e-03 0. 0. 0.
      0. 0. 5.74712642e-03 0. 0. 0. 0. 0. 0. 0. 5.74712642e-03 0. 0. 0.
      0. 0. 0. 0. 0. 0. 5.74712642e-03 0. 0. 0. 0. 0. 0. 0.
      1.14942528e-02 0. 0. 5.74712642e-03 0. 0. 0. 0. 0. 0. 0.
      5.74712642e-03 0. 0. 0. 5.74712642e-03 0. 0. 0. 0. 0. 0. 0. 0. 0.
      0. 5.74712642e-03 0. 0. 0. 0. 0. 5.74712642e-03 0. 0. 0. 0. 0. 0.
      0. 0. 0. 0. 0. 0. 0. 0. 0. 0. 5.74712642e-03 1.72413792e-02 0. 0.
      5.74712642e-03 0. 0. 0. 0. 0. 0. 0. 0. 0. 0. 0. 0. 0. 0. 0. 0. 0.
      0. 0. 0. 0. 0. 0. 0. 0. 0. 0. 0. 0. 0. 0. 0. 5.74712642e-03
      5.74712642e-03 0. 0. 0. 0. 0. 0. 5.74712642e-03 0. 0. 0. 0. 0. 0.
      0. 0. 0. 5.74712642e-03 0. 5.74712642e-03 0. 0. 0. 0.
      1.14942528e-02 5.74712642e-03 0. 0. 0. 0. 0. 0. 0. 0. 0.
      5.74712642e-03 0. 0. 0. 0. 0. 0. 0. 0. 5.74712642e-03
      5.74712642e-03 0. 0. 0. 0. 0. 0. 5.74712642e-03 0. 0. 0. 0. 0. 0.
      5.74712642e-03 0. 0. 5.74712642e-03 5.74712642e-03 0. 0.
      5.74712642e-03 0. 0. 0. 0. 0. 0. 0. 0. 0. 0. 0. 0. 0.
      5.74712642e-03 0. 5.74712642e-03 0. 0. 5.74712642e-03 0. 0. 0. 0.
      5.74712642e-03 0. 0. 0. 0. 5.74712642e-03 5.74712642e-03 0. 0. 0.
      1.14942528e-02 0. 5.74712642e-03 0. 0. 0. 0. 0. 0. 0.
      1.14942528e-02 0. 0. 0. 0. 0. 0. 5.74712642e-03 0. 0. 0. 0. 0. 0.
      0. 0. 0. 0. 0. 5.74712642e-03 0. 0. 0. 5.74712642e-03 0. 0. 0. 0.
      0. 5.74712642e-03 0. 0. 0. 1.72413792e-02 0. 5.74712642e-03 0. 0.
      1.14942528e-02 0. 0. 5.74712642e-03 0. 0. 0. 0. 0. 0.
      5.74712642e-03 0. 0. 5.74712642e-03 0. 0. 0. 5.74712642e-03
      5.74712642e-03 5.74712642e-03 0. 0. 0. 5.74712642e-03 0. 0. 0. 0.
      0. 0. 0. 0. 0. 0. 0. 0. 0. 5.74712642e-03 0. 0. 0. 0. 0. 0. 0. 0.
      0. 0. 0. 5.74712642e-03 0. 0. 0. 0. 0. 0. 0. 0. 0. 5.74712642e-03
      0. 0. 5.74712642e-03 5.74712642e-03 5.74712642e-03 0. 0. 0. 0. 0.
      0. 0. 0. 0. 0. 0. 0. 0. 0. 0. 0. 0. 0. 0. 5.74712642e-03 0. 0. 0.
      0. 0. 0. 0. 0. 0. 0. 0. 0. 5.74712642e-03 0. 0. 0. 0. 0.
      5.74712642e-03 0. 0. 5.74712642e-03 0. 0. 0. 5.74712642e-03 0. 0.
      0. 0. 0. 0. 0. 0. 0. 0. 5.74712642e-03 0. 0. 0. 0. 5.74712642e-03
      0. 0. 0. 0. 0. 0. 0. 0. 0. 0. 0. 2.87356321e-02 0. 0.
      5.74712642e-03 0. 0. 5.74712642e-03 5.74712642e-03 0. 0. 0. 0.
      5.74712642e-03 0. 5.74712642e-03 0. 0. 0. 0. 0. 0. 0. 0. 0.
      5.74712642e-03 0. 0. 0. 0. 0. 0. 0. 0. 0. 0. 0. 0. 5.74712642e-03
      5.74712642e-03 0. 0. 0. 5.74712642e-03 0. 0. 0. 0. 0. 0. 0. 0. 0.
      0. 0. 0. 0. 0. 0. 5.74712642e-03 0. 0. 0. 0. 0. 0. 0.
      5.74712642e-03 0. 0. 0. 0. 0. 0. 0. 0. 0. 0. 0. 0. 0. 0. 0. 0. 0.
      0. 0. 0. 0. 1.14942528e-02 0. 0. 0. 0. 0. 0. 0. 0. 0. 0. 0. 0. 0.
      0. 0. 0. 0. 0. 0. 0. 5.74712642e-03 5.74712642e-03 0. 0. 0. 0. 0.
      0. 0. 5.74712642e-03 0. 0. 0. 0. 0. 0. 0. 5.74712642e-03 0. 0. 0.
      0. 0. 5.74712642e-03 0. 0. 0. 0. 0. 0. 0. 5.74712642e-03 0. 0.
      5.74712642e-03 0. 0. 0. 0. 5.74712642e-03 0. 0. 0. 5.74712642e-03
      0. 0. 0. 0. 0. 5.74712642e-03 0. 0. 0. 0. 0. 0. 0. 0. 0. 0. 0. 0.
      0. 5.74712642e-03 0. 0. 0. 0. 0. 0. 0. 0. 0. 0. 0. 0. 0. 0. 0. 0.
      0. 5.74712642e-03 5.74712642e-03 0. 0. 0. 0. 0. 0. 0. 0. 0.
      2.87356321e-02 0. 0. 0. 0. 0. 0. 0. 0. 5.74712642e-03
      5.74712642e-03 0. 0. 0. 0. 0. 0. 1.14942528e-02 5.74712642e-03 0.
      0. 0. 5.74712642e-03 0. 0. 0. 0. 0. 0. 0. 5.74712642e-03
      1.14942528e-02 5.74712642e-03 0. 0. 0. 0. 0. 0. 0. 0. 0. 0. 0. 0.
      0. 0. 0. 0. 0. 0. 0. 0. 0. 5.74712642e-03 0. 0. 5.74712642e-03 0.
      5.74712642e-03 0. 0. 0. 0. 0. 0. 5.74712642e-03 0. 5.74712642e-03
      1.14942528e-02 0. 0. 5.74712642e-03 0. 0. 0. 0. 0. 0. 0. 0. 0.</_>
    <_>
      0. 0. 0. 0. 0. 0. 0. 0. 0. 7.29927002e-03 7.29927002e-03 0. 0.
      1.45985400e-02 7.29927002e-03 0. 0. 0. 0. 0. 0. 7.29927002e-03 0.
      0. 0. 0. 0. 0. 7.29927002e-03 0. 0. 0. 0. 0. 0. 0. 0. 0. 0. 0. 0.
      0. 0. 0. 7.29927002e-03 0. 0. 0. 0. 0. 0. 0. 0. 0. 0. 0.
      7.29927002e-03 0. 0. 0. 0. 0. 0. 0. 7.29927002e-03 0. 0. 0. 0. 0.
      0. 0. 7.29927002e-03 0. 0. 0. 0. 0. 0. 0. 0. 0. 0. 0. 0. 0. 0.
      7.29927002e-03 0. 0. 0. 0. 0. 0. 0. 0. 0. 0. 0. 0. 0. 0. 0. 0. 0.
      0. 0. 0. 0. 0. 0. 0. 0. 0. 0. 0. 0. 0. 0. 0. 0. 0. 0. 0.
      7.29927002e-03 0. 0. 0. 7.29927002e-03 0. 0. 0. 0. 0. 0. 0. 0.
      7.29927002e-03 7.29927002e-03 0. 1.45985400e-02 0. 0. 0. 0.
      7.29927002e-03 0. 0. 0. 0. 0. 0. 7.29927002e-03 0. 0. 0. 0. 0. 0.
      0. 0. 0. 0. 0. 0. 0. 7.29927002e-03 0. 7.29927002e-03 0. 0. 0. 0.
      1.45985400e-02 0. 7.29927002e-03 0. 0. 0. 0. 0. 0. 0. 0. 0. 0. 0.
      0. 0. 0. 0. 0. 0. 0. 7.29927002e-03 0. 0. 0. 0. 7.29927002e-03 0.
      0. 7.29927002e-03 0. 0. 1.45985400e-02 0. 0. 7.29927002e-03 0. 0.
      0. 0. 0. 0. 0. 0. 0. 0. 0. 0. 0. 7.29927002e-03 0. 0. 0. 0. 0. 0.
      7.29927002e-03 0. 0. 0. 0. 0. 0. 0. 0. 7.29927002e-03 0.
      1.45985400e-02 0. 0. 0. 0. 0. 0. 0. 0. 0. 0. 0. 0. 0. 0. 0. 0. 0.
      0. 0. 0. 0. 0. 0. 0. 0. 0. 0. 0. 0. 0. 0. 7.29927002e-03
      7.29927002e-03 0. 0. 0. 0. 0. 0. 0. 7.29927002e-03 0.
      7.29927002e-03 0. 0. 0. 0. 7.29927002e-03 0. 0. 0. 0. 0.
      2.18978096e-02 0. 0. 1.45985400e-02 7.29927002e-03 0. 0. 0. 0. 0.
      0. 0. 0. 0. 0. 0. 0. 0. 0. 0. 2.18978096e-02 0. 0. 0. 0. 0. 0. 0.
      0. 0. 0. 0. 0. 0. 0. 7.29927002e-03 0. 0. 0. 0. 0. 0. 0. 0. 0. 0.
      0. 0. 7.29927002e-03 0. 0. 7.29927002e-03 0. 0. 0. 0. 0. 0. 0. 0.
      0. 0. 0. 0. 0. 0. 0. 0. 7.29927002e-03 0. 0. 7.29927002e-03
      7.29927002e-03 0. 0. 0. 0. 0. 0. 0. 1.45985400e-02 7.29927002e-03
      0. 0. 0. 0. 0. 0. 1.45985400e-02 0. 0. 0. 0. 0. 0. 0. 0. 0. 0. 0.
      0. 0. 0. 0. 0. 0. 0. 0. 0. 0. 0. 0. 0. 0. 0. 0. 0. 0. 0. 0. 0. 0.
      0. 0. 0. 0. 0. 0. 0. 0. 7.29927002e-03 0. 0. 0. 0. 0. 0. 0. 0. 0.
      0. 0. 7.29927002e-03 0. 0. 0. 0. 0. 0. 0. 0. 0. 0. 7.29927002e-03
      0. 0. 0. 0. 0. 0. 0. 0. 0. 0. 0. 0. 0. 0. 0. 0. 0. 0. 0. 0. 0. 0.
      0. 0. 0. 0. 0. 0. 0. 0. 0. 0. 0. 0. 0. 0. 0. 0. 0. 0. 0. 0. 0.
      7.29927002e-03 0. 0. 0. 0. 0. 7.29927002e-03 0. 0. 0. 0. 0. 0. 0.
      0. 0. 0. 0. 7.29927002e-03 0. 0. 0. 7.29927002e-03 0. 0.
      7.29927002e-03 7.29927002e-03 0. 0. 0. 0. 7.29927002e-03 0. 0. 0.
      0. 7.29927002e-03 0. 0. 0. 0. 0. 0. 0. 0. 0. 0. 7.29927002e-03 0.
      0. 1.45985400e-02 0. 0. 0. 0. 0. 7.29927002e-03 0. 0. 0. 0. 0. 0.
      0. 0. 0. 0. 0. 0. 7.29927002e-03 0. 7.29927002e-03 0. 0.
      7.29927002e-03 0. 0. 0. 0. 0. 0. 0. 0. 0. 0. 0. 0. 0.
      7.29927002e-03 0. 0. 0. 7.29927002e-03 0. 0. 0. 0. 0. 0. 0. 0. 0.
      0. 0. 0. 0. 0. 0. 0. 0. 2.18978096e-02 1.45985400e-02 0.
      7.29927002e-03 0. 0. 0. 0. 0. 0. 0. 0. 0. 0. 0. 0. 4.37956192e-02
      0. 0. 0. 0. 0. 0. 0. 0. 0. 0. 0. 0. 0. 0. 0. 0. 0. 0. 0. 0. 0. 0.
      0. 0. 0. 0. 0. 0. 1.45985400e-02 7.29927002e-03 0. 0. 0. 0. 0. 0.
      0. 0. 7.29927002e-03 0. 0. 0. 0. 0. 0. 0. 0. 0. 0. 0. 0.
      1.45985400e-02 0. 0. 0. 0. 0. 0. 0. 0. 0. 0. 0. 0. 0.
      7.29927002e-03 0. 0. 0. 0. 0. 0. 0. 0. 0. 0. 0. 0. 0. 0. 0. 0. 0.
      0. 0. 0. 3.64963487e-02 0. 0. 7.29927002e-03 0. 0. 7.29927002e-03
      0. 0. 0. 0. 0. 0. 0. 0. 0. 7.29927002e-03 0. 0. 0. 0. 0.
      7.29927002e-03 0. 0. 0. 0. 0. 0. 0. 7.29927002e-03 7.29927002e-03
      0. 0. 0. 0. 0. 0. 0. 0. 0. 0. 0. 0. 0. 0. 0. 0. 0. 0. 0. 0. 0. 0.
      0. 0. 0. 0. 0. 0. 0. 0. 0. 0. 0. 0. 0. 0. 0. 0. 0. 0. 0. 0. 0. 0.
      0. 0. 0. 0. 0. 0. 0. 0. 0. 0. 0. 0. 0. 0. 0. 1.45985400e-02 0. 0.
      0. 0. 0. 0. 0. 0. 0. 0. 7.29927002e-03 0. 0. 0. 0. 0.
      7.29927002e-03 0. 0. 0. 0. 0. 0. 0. 0. 0. 0. 0. 0. 0. 0.
      7.29927002e-03 0. 0. 0. 0. 0. 0. 0. 7.29927002e-03 0. 0. 0. 0. 0.
      0. 0. 0. 0. 0. 0. 0. 0. 7.29927002e-03 0. 0. 0. 7.29927002e-03 0.
      7.29927002e-03 0. 0. 0. 0. 7.29927002e-03 0. 0. 0. 0. 0. 0. 0. 0.
      0. 0. 0. 0. 0. 0. 0. 0. 0. 0. 7.29927002e-03 0. 0. 0. 0. 0. 0. 0.
      0. 7.29927002e-03 0. 0. 0. 0. 0. 0. 0. 0. 0. 0. 0. 0. 0.
      7.29927002e-03 7.29927002e-03 0. 0. 0. 0. 0. 0. 0. 0.
      2.91970801e-02 0. 0. 0. 0. 0. 0. 0. 0. 0. 0. 0. 0. 0.
      7.29927002e-03 0. 0. 0. 0. 0. 0. 0. 0. 0. 0. 0. 0. 2.18978096e-02
      0. 0. 0. 0. 7.29927002e-03 0. 0. 7.29927002e-03 0. 0. 0. 0. 0. 0.
      0. 0. 0. 7.29927002e-03 0. 0. 7.29927002e-03 0. 0. 0. 0. 0. 0. 0.
      0. 0. 0. 0. 0. 0. 0. 0. 0. 0. 0. 0. 0. 0. 0. 0. 0. 0. 0. 0. 0. 0.
      0. 0. 0. 0. 0. 0. 0. 0. 0. 0.</_>
    <_>
      0. 0. 0. 0. 0. 0. 0. 0. 0. 0. 0. 2.63852254e-03 0. 0. 0. 0.
      7.91556761e-03 0. 0. 0. 0. 2.63852254e-03 0. 0. 0. 5.27704507e-03
      0. 0. 0. 0. 5.27704507e-03 0. 5.27704507e-03 0. 2.63852254e-03 0.
      0. 2.63852254e-03 0. 7.91556761e-03 0. 0. 2.63852254e-03
      2.63852254e-03 2.63852254e-03 0. 2.63852254e-03 2.63852254e-03 0.
      0. 0. 0. 2.63852254e-03 0. 0. 0. 0. 0. 0. 7.91556761e-03 0.
      2.63852254e-03 0. 5.27704507e-03 0. 0. 0. 5.27704507e-03 0. 0. 0.
      0. 0. 0. 0. 0. 0. 0. 0. 0. 5.27704507e-03 0. 0. 0. 0. 0. 0.
      2.63852254e-03 0. 2.63852254e-03 0. 0. 0. 0. 0. 0. 0. 0. 0. 0.
      5.27704507e-03 0. 0. 2.63852254e-03 0. 5.27704507e-03
      2.63852254e-03 0. 0. 0. 0. 2.63852254e-03 0. 0. 0. 0.
      5.27704507e-03 0. 0. 0. 2.63852254e-03 0. 0. 0. 2.63852254e-03
      2.63852254e-03 2.63852254e-03 5.27704507e-03 0. 0. 0.
      2.63852254e-03 0. 2.63852254e-03 0. 0. 2.63852254e-03
      5.27704507e-03 7.91556761e-03 0. 0. 5.27704507e-03 5.27704507e-03
      2.63852254e-03 0. 0. 0. 0. 0. 2.63852254e-03 0. 0. 0. 0. 0.
      2.63852254e-03 5.27704507e-03 0. 0. 7.91556761e-03 0.
      5.27704507e-03 0. 0. 0. 2.63852254e-03 0. 0. 0. 0. 0.
      2.63852254e-03 0. 2.63852254e-03 0. 2.63852254e-03 0. 0. 0. 0.
      2.63852254e-03 0. 0. 0. 0. 0. 2.63852254e-03 0. 0. 0. 0. 0. 0. 0.
      0. 0. 0. 0. 2.63852254e-03 0. 0. 0. 2.63852254e-03 0. 0. 0. 0. 0.
      2.63852254e-03 0. 2.63852254e-03 0. 0. 0. 0. 2.63852254e-03 0.
      2.63852254e-03 0. 0. 0. 0. 0. 0. 0. 2.63852254e-03 0. 0.
      7.91556761e-03 5.27704507e-03 0. 0. 2.63852254e-03 2.63852254e-03
      0. 2.63852254e-03 0. 0. 1.58311352e-02 0. 0. 0. 2.63852254e-03 0.
      2.63852254e-03 5.27704507e-03 0. 2.63852254e-03 0. 2.63852254e-03
      0. 0. 0. 2.63852254e-03 2.63852254e-03 0. 2.63852254e-03
      2.63852254e-03 0. 2.63852254e-03 0. 2.63852254e-03 0.
      2.63852254e-03 2.63852254e-03 2.63852254e-03 0. 0. 0. 0. 0. 0.
      2.63852254e-03 0. 0. 2.63852254e-03 0. 0. 0. 0. 0. 0. 0.
      7.91556761e-03 0. 2.63852254e-03 0. 0. 0. 0. 0. 0. 0. 0. 0. 0. 0.
      2.63852254e-03 0. 0. 0. 0. 0. 2.63852254e-03 0. 1.05540901e-02
      1.58311352e-02 2.63852254e-03 0. 2.63852254e-03 0. 0. 0. 0.
      2.63852254e-03 2.63852254e-03 0. 0. 0. 0. 0. 0. 0. 0. 0. 0. 0. 0.
      0. 0. 0. 0. 2.63852254e-03 0. 0. 0. 0. 2.63852254e-03 0. 0.
      5.27704507e-03 0. 0. 0. 0. 0. 0. 0. 0. 0. 0. 0. 0. 0. 0. 0. 0. 0.
      0. 0. 0. 0. 5.27704507e-03 0. 0. 0. 0. 0. 0. 0. 0. 2.63852254e-03
      2.63852254e-03 0. 0. 0. 0. 0. 0. 5.27704507e-03 2.63852254e-03
      2.63852254e-03 0. 0. 0. 0. 0. 0. 0. 0. 0. 0. 2.63852254e-03 0.
      5.27704507e-03 0. 0. 2.63852254e-03 0. 0. 0. 0. 0. 2.63852254e-03
      2.63852254e-03 0. 2.63852254e-03 0. 0. 0. 0. 0. 0. 0.
      2.63852254e-03 0. 0. 0. 0. 0. 5.27704507e-03 0. 0. 5.27704507e-03
      0. 0. 0. 2.63852254e-03 2.63852254e-03 0. 2.63852254e-03 0. 0.
      5.27704507e-03 0. 0. 5.27704507e-03 0. 5.27704507e-03 0. 0. 0. 0.
      0. 0. 2.63852254e-03 0. 0. 0. 0. 0. 0. 0. 0. 0. 5.27704507e-03
      2.63852254e-03 0. 2.63852254e-03 0. 2.63852254e-03 0. 0.
      1.05540901e-02 0. 0. 5.27704507e-03 0. 0. 2.63852254e-03
      2.63852254e-03 0. 5.27704507e-03 0. 0. 0. 7.91556761e-03
      2.63852254e-03 0. 0. 0. 7.91556761e-03 0. 2.63852254e-03 0. 0.
      5.27704507e-03 0. 0. 0. 2.63852254e-03 0. 0. 2.63852254e-03
      2.63852254e-03 0. 0. 0. 0. 0. 2.63852254e-03 0. 0. 2.63852254e-03
      0. 0. 0. 0. 0. 0. 5.27704507e-03 0. 0. 0. 5.27704507e-03
      2.63852254e-03 0. 5.27704507e-03 0. 0. 0. 0. 0. 0. 5.27704507e-03
      0. 2.63852254e-03 2.63852254e-03 2.63852254e-03 0. 0.
      2.63852254e-03 2.63852254e-03 0. 0. 0. 0. 0. 0. 5.27704507e-03 0.
      2.63852254e-03 0. 0. 0. 0. 2.63852254e-03 0. 2.63852254e-03 0.
      2.63852254e-03 2.63852254e-03 0. 0. 2.63852254e-03 2.63852254e-03
      0. 0. 2.63852254e-03 2.63852254e-03 0. 2.63852254e-03
      2.63852254e-03 0. 0. 0. 0. 5.27704507e-03 0. 0. 2.63852254e-03 0.
      0. 0. 0. 0. 2.63852254e-03 2.63852254e-03 0. 0. 0. 0. 0. 0. 0. 0.
      0. 0. 0. 0. 0. 0. 0. 2.63852254e-03 0. 0. 2.63852254e-03 0. 0. 0.
      7.91556761e-03 2.63852254e-03 7.91556761e-03 2.63852254e-03 0.
      2.63852254e-03 2.63852254e-03 0. 5.27704507e-03 0. 0. 0. 0. 0. 0.
      0. 0. 2.63852254e-03 0. 0. 0. 0. 0. 0. 0. 0. 0. 0. 0.
      5.27704507e-03 0. 0. 2.63852254e-03 0. 0. 0. 0. 0. 0. 0. 0. 0. 0.
      7.91556761e-03 0. 0. 0. 2.63852254e-03 0. 0. 5.27704507e-03
      2.63852254e-03 2.63852254e-03 2.63852254e-03 0. 0. 0. 0.
      2.63852254e-03 2.63852254e-03 2.63852254e-03 0. 0. 2.63852254e-03
      0. 0. 0. 0. 0. 0. 0. 0. 2.63852254e-03 0. 0. 0. 0. 0. 0.
      2.63852254e-03 0. 0. 2.63852254e-03 2.63852254e-03 5.27704507e-03
      0. 0. 0. 0. 0. 0. 0. 0. 2.63852254e-03 0. 0. 0. 0. 0. 0. 0. 0. 0.
      0. 5.27704507e-03 0. 0. 0. 0. 2.63852254e-03 0. 0. 0.
      7.91556761e-03 0. 5.27704507e-03 0. 1.31926127e-02 0. 0. 0. 0. 0.
      0. 0. 2.63852254e-03 0. 0. 0. 2.63852254e-03 0. 2.63852254e-03 0.
      0. 5.27704507e-03 0. 2.63852254e-03 7.91556761e-03 0. 0. 0.
      2.63852254e-03 5.27704507e-03 0. 0. 0. 0. 0. 0. 0. 0. 0.
      2.63852254e-03 2.63852254e-03 0. 0. 0. 0. 0. 0. 0. 2.63852254e-03
      2.63852254e-03 0. 0. 0. 0. 0. 0. 0. 0. 0. 0. 2.63852254e-03 0.
      2.63852254e-03 2.63852254e-03 2.63852254e-03 0. 2.63852254e-03 0.
      0. 0. 0. 2.63852254e-03 0. 0. 0. 0. 2.63852254e-03 0. 0.
      2.63852254e-03 0. 0. 2.63852254e-03 0. 2.63852254e-03
      2.63852254e-03 5.27704507e-03 0. 0. 0. 0. 2.63852254e-03 0. 0. 0.
      0. 0. 0. 0. 0. 0. 5.27704507e-03 0. 0. 0. 0. 0. 0. 0. 0.
      5.27704507e-03 0. 0. 0. 0. 2.63852254e-03 0. 0. 0. 0. 0. 0. 0.
      2.63852254e-03 0. 0. 0. 2.63852254e-03 0. 0. 0. 0. 0. 0.
      2.63852254e-03 0. 5.27704507e-03 0. 5.27704507e-03 2.63852254e-03
      0. 2.63852254e-03 2.63852254e-03 0. 0. 0. 0. 0. 0. 0. 0. 0.
      5.27704507e-03 0. 0. 2.63852254e-03 2.63852254e-03 0.
      2.63852254e-03 0. 0. 2.63852254e-03 0. 0. 0. 2.63852254e-03 0. 0.
      0. 0. 5.27704507e-03 2.63852254e-03 0. 0. 0. 0. 0. 2.63852254e-03
      0. 0. 0. 2.63852254e-03 0. 0. 0. 0. 0. 2.63852254e-03
      2.63852254e-03 0. 0. 0. 0. 0. 2.63852254e-03 0. 2.63852254e-03 0.
      0. 2.63852254e-03 0. 0. 0. 5.27704507e-03 0. 1.58311352e-02 0. 0.
      0. 0. 0. 0. 0. 2.63852254e-03 7.91556761e-03 1.05540901e-02
      2.63852254e-03 0. 2.63852254e-03 0. 0. 0. 2.63852254e-03 0. 0. 0.
      2.63852254e-03 0. 0. 0. 0. 0. 2.63852254e-03 0. 0. 0. 0. 0. 0.
      2.63852254e-03 0. 0. 0. 2.63852254e-03 0. 0. 2.63852254e-03 0. 0.
      0. 0. 0. 0. 0. 2.63852254e-03 0. 0. 0. 0. 2.63852254e-03 0. 0.
      2.63852254e-03 2.63852254e-03 0. 0. 7.91556761e-03 0. 0. 0.
      2.63852254e-03 0. 0. 0. 2.63852254e-03 0. 0. 2.63852254e-03 0. 0.
      0. 0. 0. 0. 0. 0. 2.63852254e-03</_>
    <_>
      0. 0. 3.00300308e-03 0. 0. 0. 3.00300308e-03 0. 0. 0.
      1.20120123e-02 0. 0. 0. 3.00300308e-03 6.00600615e-03 0. 0. 0. 0.
      3.00300308e-03 0. 0. 0. 0. 6.00600615e-03 3.00300308e-03 0. 0. 0.
      0. 3.00300308e-03 0. 0. 0. 0. 3.00300308e-03 3.00300308e-03 0.
      3.00300308e-03 3.00300308e-03 0. 3.00300308e-03 0. 0.
      3.00300308e-03 0. 0. 0. 0. 0. 0. 3.00300308e-03 0. 0. 0. 0.
      6.00600615e-03 0. 0. 3.00300308e-03 0. 3.00300308e-03 0. 0.
      6.00600615e-03 0. 3.00300308e-03 0. 3.00300308e-03 3.00300308e-03
      0. 0. 0. 0. 0. 0. 0. 0. 0. 0. 0. 0. 0. 0. 0. 0. 0. 0. 0. 0. 0. 0.
      0. 0. 3.00300308e-03 0. 6.00600615e-03 0. 0. 3.00300308e-03 0.
      3.00300308e-03 0. 6.00600615e-03 0. 3.00300308e-03 0. 0. 0. 0. 0.
      0. 0. 0. 0. 0. 0. 0. 0. 0. 3.00300308e-03 0. 0. 0. 3.00300308e-03
      0. 3.00300308e-03 0. 0. 0. 3.00300308e-03 0. 0. 0. 3.00300308e-03
      3.00300308e-03 0. 0. 0. 0. 3.00300308e-03 0. 0. 0. 0. 0. 0. 0. 0.
      3.00300308e-03 3.00300308e-03 0. 0. 3.00300308e-03 0. 0. 0. 0.
      3.00300308e-03 0. 0. 3.00300308e-03 0. 0. 0. 3.00300308e-03 0. 0.
      0. 0. 0. 0. 0. 0. 0. 6.00600615e-03 0. 0. 3.00300308e-03 0. 0. 0.
      6.00600615e-03 3.00300308e-03 3.00300308e-03 0. 0. 6.00600615e-03
      0. 3.00300308e-03 0. 3.00300308e-03 0. 0. 3.00300308e-03 0.
      3.00300308e-03 0. 0. 3.00300308e-03 0. 0. 0. 0. 0. 0. 0. 0.
      3.00300308e-03 0. 0. 3.00300308e-03 0. 0. 0. 3.00300308e-03 0. 0.
      3.00300308e-03 0. 0. 0. 0. 3.00300308e-03 0. 0. 0. 3.00300308e-03
      3.00300308e-03 9.00900923e-03 0. 3.00300308e-03 0. 0. 0.
      6.00600615e-03 0. 6.00600615e-03 0. 0. 3.00300308e-03 0. 0.
      3.00300308e-03 0. 0. 0. 9.00900923e-03 0. 0. 0. 3.00300308e-03
      3.00300308e-03 3.00300308e-03 0. 0. 0. 0. 0. 3.00300308e-03 0. 0.
      0. 0. 0. 0. 0. 3.00300308e-03 0. 3.00300308e-03 0. 0. 0.
      3.00300308e-03 0. 0. 0. 3.00300308e-03 0. 0. 0. 0. 0. 0.
      3.00300308e-03 0. 0. 0. 0. 0. 0. 3.00300308e-03 0. 0. 0. 0. 0.
      3.00300308e-03 9.00900923e-03 0. 0. 0. 3.00300308e-03
      3.00300308e-03 3.00300308e-03 3.00300308e-03 0. 0. 0. 0. 0. 0. 0.
      3.00300308e-03 3.00300308e-03 3.00300308e-03 3.00300308e-03
      3.00300308e-03 0. 0. 0. 0. 9.00900923e-03 3.00300308e-03
      3.00300308e-03 6.00600615e-03 0. 0. 0. 0. 3.00300308e-03 0. 0. 0.
      0. 0. 0. 0. 3.00300308e-03 9.00900923e-03 0. 0. 3.00300308e-03 0.
      0. 0. 0. 0. 0. 0. 0. 0. 3.00300308e-03 0. 0. 0. 0. 0. 0. 0. 0.
      6.00600615e-03 0. 0. 0. 0. 0. 3.00300308e-03 0. 3.00300308e-03 0.
      3.00300308e-03 3.00300308e-03 0. 0. 6.00600615e-03 0. 0.
      3.00300308e-03 0. 3.00300308e-03 6.00600615e-03 0. 3.00300308e-03
      0. 0. 0. 0. 0. 0. 0. 0. 0. 0. 0. 0. 3.00300308e-03 0. 0. 0. 0. 0.
      3.00300308e-03 0. 0. 0. 3.00300308e-03 0. 3.00300308e-03
      3.00300308e-03 0. 0. 0. 3.00300308e-03 0. 0. 3.00300308e-03 0. 0.
      0. 0. 0. 0. 0. 3.00300308e-03 0. 0. 0. 0. 0. 0. 0. 0. 0. 0. 0. 0.
      3.00300308e-03 3.00300308e-03 0. 0. 3.00300308e-03 0. 0. 0.
      6.00600615e-03 3.00300308e-03 0. 3.00300308e-03 3.00300308e-03 0.
      0. 0. 0. 0. 0. 3.00300308e-03 0. 0. 0. 0. 0. 0. 0. 0. 0. 0. 0. 0.
      3.00300308e-03 0. 0. 0. 0. 0. 6.00600615e-03 0. 0. 0. 0. 0.
      3.00300308e-03 3.00300308e-03 0. 0. 0. 0. 3.00300308e-03 0. 0.
      3.00300308e-03 0. 3.00300308e-03 0. 3.00300308e-03 0.
      3.00300308e-03 0. 0. 0. 0. 0. 0. 0. 0. 0. 0. 0. 0. 0.
      3.00300308e-03 0. 0. 0. 3.00300308e-03 0. 3.00300308e-03 0. 0. 0.
      0. 6.00600615e-03 3.00300308e-03 0. 0. 0. 0. 0. 0. 0. 0.
      6.00600615e-03 6.00600615e-03 0. 0. 0. 0. 0. 0. 0. 3.00300308e-03
      0. 3.00300308e-03 0. 0. 0. 0. 0. 0. 0. 0. 3.00300308e-03 0.
      6.00600615e-03 6.00600615e-03 0. 0. 3.00300308e-03 0. 0. 0. 0. 0.
      0. 0. 3.00300308e-03 0. 0. 0. 6.00600615e-03 3.00300308e-03 0.
      3.00300308e-03 0. 0. 0. 0. 0. 0. 0. 0. 0. 0. 6.00600615e-03 0.
      3.00300308e-03 0. 3.00300308e-03 0. 0. 3.00300308e-03
      3.00300308e-03 0. 3.00300308e-03 0. 0. 3.00300308e-03 0. 0. 0. 0.
      3.00300308e-03 3.00300308e-03 3.00300308e-03 0. 6.00600615e-03 0.
      0. 3.00300308e-03 0. 0. 6.00600615e-03 0. 0. 0. 0. 1.80180185e-02
      0. 3.00300308e-03 0. 3.00300308e-03 0. 0. 0. 3.00300308e-03 0. 0.
      3.00300308e-03 0. 0. 0. 6.00600615e-03 0. 0. 0. 0. 0. 0. 0.
      3.00300308e-03 0. 6.00600615e-03 0. 3.00300308e-03 0. 0.
      3.00300308e-03 0. 0. 0. 0. 0. 3.00300308e-03 3.00300308e-03
      3.00300308e-03 0. 0. 0. 1.20120123e-02 3.00300308e-03 0. 0. 0. 0.
      0. 0. 0. 0. 0. 0. 0. 0. 0. 3.00300308e-03 3.00300308e-03 0. 0.
      3.00300308e-03 0. 0. 0. 0. 0. 3.00300308e-03 3.00300308e-03 0. 0.
      0. 0. 0. 0. 0. 0. 6.00600615e-03 3.00300308e-03 3.00300308e-03 0.
      0. 0. 3.00300308e-03 0. 3.00300308e-03 0. 1.20120123e-02
      3.00300308e-03 0. 0. 3.00300308e-03 0. 0. 0. 0. 0. 3.00300308e-03
      3.00300308e-03 0. 0. 0. 0. 0. 3.00300308e-03 0. 0. 0.
      3.00300308e-03 3.00300308e-03 3.00300308e-03 0. 0. 0.
      6.00600615e-03 0. 0. 0. 0. 0. 0. 3.00300308e-03 3.00300308e-03
      3.00300308e-03 0. 0. 0. 3.00300308e-03 0. 0. 0. 0. 0. 0. 0.
      6.00600615e-03 3.00300308e-03 0. 0. 3.00300308e-03 3.00300308e-03
      0. 0. 0. 3.00300308e-03 3.00300308e-03 0. 3.00300308e-03
      3.00300308e-03 0. 0. 0. 0. 0. 0. 3.00300308e-03 0. 0.
      6.00600615e-03 3.00300308e-03 0. 0. 0. 0. 6.00600615e-03 0. 0. 0.
      0. 0. 0. 0. 0. 0. 0. 0. 0. 0. 3.00300308e-03 0. 0. 0. 0. 0. 0. 0.
      0. 3.00300308e-03 0. 0. 0. 0. 3.00300308e-03 0. 0. 0. 0.
      3.00300308e-03 0. 0. 0. 3.00300308e-03 0. 0. 0. 0. 3.00300308e-03
      3.00300308e-03 0. 0. 0. 0. 0. 0. 3.00300308e-03 0. 3.00300308e-03
      0. 3.00300308e-03 0. 0. 0. 0. 0. 0. 0. 0. 0. 0. 3.00300308e-03 0.
      0. 0. 0. 3.00300308e-03 0. 3.00300308e-03 3.00300308e-03 0.
      3.00300308e-03 0. 0. 3.00300308e-03 0. 3.00300308e-03
      3.00300308e-03 0. 0. 0. 0. 0. 3.00300308e-03 0. 0. 3.00300308e-03
      3.00300308e-03 0. 0. 0. 0. 0. 3.00300308e-03 0. 0. 0. 0. 0.
      3.00300308e-03 0. 0. 0. 0. 0. 0. 3.00300308e-03 0. 0.
      3.00300308e-03 0. 0. 0. 3.00300308e-03 0. 0. 6.00600615e-03
      3.00300308e-03 3.00300308e-03 3.00300308e-03 6.00600615e-03 0.
      3.00300308e-03 0. 0. 0. 0. 0. 3.00300308e-03 0. 0. 0. 0.
      3.00300308e-03 0. 0. 0. 0. 0. 0. 0. 0. 3.00300308e-03 0. 0.
      3.00300308e-03 0. 0. 0. 0. 9.00900923e-03 3.00300308e-03 0. 0.
      6.00600615e-03 3.00300308e-03 0. 0. 0. 0. 0. 0. 3.00300308e-03
      3.00300308e-03 3.00300308e-03 0. 0. 0. 0. 3.00300308e-03
      6.00600615e-03 0. 3.00300308e-03 0. 0. 0. 3.00300308e-03 0. 0. 0.
      3.00300308e-03 0. 0. 0. 0. 0. 0. 0. 0. 0. 0. 0. 0. 3.00300308e-03
      0. 0. 0. 0. 6.00600615e-03 3.00300308e-03 0. 6.00600615e-03
      3.00300308e-03 0. 0. 3.00300308e-03 0. 0. 0. 0. 0. 3.00300308e-03
      0. 0. 0.</_>
    <_>
      0. 0. 8.75656726e-04 8.75656726e-04 0. 1.75131345e-03 0. 0. 0.
      2.62697018e-03 8.75656726e-04 8.75656726e-04 0. 1.75131345e-03 0.
      1.75131345e-03 1.75131345e-03 8.75656726e-04 1.75131345e-03
      1.75131345e-03 0. 0. 8.75656726e-04 0. 8.75656726e-04
      4.37828340e-03 8.75656726e-04 0. 8.75656726e-04 8.75656726e-04 0.
      8.75656726e-04 0. 8.75656726e-04 0. 3.50262690e-03 8.75656726e-04
      8.75656726e-04 8.75656726e-04 0. 8.75656726e-04 8.75656726e-04 0.
      8.75656726e-04 8.75656726e-04 8.75656726e-04 8.75656726e-04
      1.75131345e-03 1.75131345e-03 8.75656726e-04 1.75131345e-03
      1.75131345e-03 2.62697018e-03 0. 2.62697018e-03 8.75656726e-04 0.
      1.75131345e-03 3.50262690e-03 8.75656726e-04 8.75656726e-04 0. 0.
      1.75131345e-03 0. 0. 0. 2.62697018e-03 8.75656726e-04
      8.75656726e-04 0. 0. 8.75656726e-04 0. 3.50262690e-03
      2.62697018e-03 2.62697018e-03 8.75656726e-04 0. 8.75656726e-04
      2.62697018e-03 0. 8.75656726e-04 3.50262690e-03 1.75131345e-03 0.
      3.50262690e-03 8.75656726e-04 2.62697018e-03 0. 2.62697018e-03
      1.75131345e-03 0. 8.75656726e-04 8.75656726e-04 8.75656726e-04
      8.75656726e-04 8.75656726e-04 1.75131345e-03 0. 1.75131345e-03 0.
      0. 1.75131345e-03 0. 0. 1.75131345e-03 8.75656726e-04 0. 0.
      8.75656726e-04 2.62697018e-03 8.75656726e-04 8.75656726e-04
      1.75131345e-03 1.75131345e-03 1.75131345e-03 0. 0. 0.
      8.75656726e-04 1.75131345e-03 8.75656726e-04 8.75656726e-04
      8.75656726e-04 0. 8.75656726e-04 0. 1.75131345e-03 8.75656726e-04
      0. 0. 0. 0. 1.75131345e-03 0. 0. 3.50262690e-03 1.75131345e-03
      8.75656726e-04 8.75656726e-04 2.62697018e-03 8.75656726e-04
      2.62697018e-03 8.75656726e-04 0. 0. 0. 0. 0. 3.50262690e-03 0.
      1.75131345e-03 8.75656726e-04 0. 8.75656726e-04 2.62697018e-03 0.
      8.75656726e-04 0. 0. 8.75656726e-04 8.75656726e-04 4.37828340e-03
      3.50262690e-03 3.50262690e-03 2.62697018e-03 0. 3.50262690e-03 0.
      8.75656726e-04 0. 0. 1.75131345e-03 0. 8.75656726e-04 0. 0.
      2.62697018e-03 0. 1.75131345e-03 0. 8.75656726e-04 0. 0.
      8.75656726e-04 0. 0. 1.75131345e-03 0. 8.75656726e-04
      8.75656726e-04 8.75656726e-04 8.75656726e-04 1.75131345e-03
      8.75656726e-04 2.62697018e-03 1.75131345e-03 0. 0. 1.75131345e-03
      0. 8.75656726e-04 0. 8.75656726e-04 1.75131345e-03 1.75131345e-03
      0. 0. 1.75131345e-03 8.75656726e-04 8.75656726e-04 8.75656726e-04
      2.62697018e-03 8.75656726e-04 0. 0. 1.75131345e-03 8.75656726e-04
      0. 1.75131345e-03 8.75656726e-04 1.75131345e-03 1.75131345e-03 0.
      0. 8.75656726e-04 0. 5.25394036e-03 4.37828340e-03 8.75656726e-04
      1.75131345e-03 4.37828340e-03 0. 0. 3.50262690e-03 1.75131345e-03
      1.75131345e-03 2.62697018e-03 3.50262690e-03 0. 0. 8.75656726e-04
      8.75656726e-04 1.75131345e-03 8.75656726e-04 1.75131345e-03
      2.62697018e-03 1.75131345e-03 0. 0. 0. 0. 0. 8.75656726e-04
      8.75656726e-04 8.75656726e-04 2.62697018e-03 8.75656726e-04
      8.75656726e-04 8.75656726e-04 8.75656726e-04 0. 8.75656726e-04
      1.75131345e-03 0. 0. 0. 0. 0. 8.75656726e-04 0. 1.75131345e-03 0.
      8.75656726e-04 3.50262690e-03 0. 8.75656726e-04 8.75656726e-04 0.
      0. 8.75656726e-04 1.75131345e-03 0. 0. 1.75131345e-03 0. 0. 0.
      1.75131345e-03 8.75656726e-04 0. 3.50262690e-03 8.75656726e-04
      5.25394036e-03 0. 8.75656726e-04 8.75656726e-04 2.62697018e-03
      8.75656726e-04 0. 0. 3.50262690e-03 0. 2.62697018e-03
      1.75131345e-03 6.12959731e-03 8.75656726e-04 8.75656726e-04
      2.62697018e-03 8.75656726e-04 2.62697018e-03 1.75131345e-03 0.
      6.12959731e-03 8.75656726e-04 2.62697018e-03 1.75131345e-03 0.
      8.75656726e-04 0. 0. 1.75131345e-03 0. 8.75656726e-04
      8.75656726e-04 8.75656726e-04 0. 0. 1.75131345e-03 8.75656726e-04
      3.50262690e-03 1.75131345e-03 8.75656726e-04 1.75131345e-03
      2.62697018e-03 1.75131345e-03 8.75656726e-04 8.75656726e-04
      8.75656726e-04 8.75656726e-04 0. 0. 0. 1.75131345e-03 0.
      8.75656726e-04 8.75656726e-04 0. 0. 8.75656726e-04 8.75656726e-04
      8.75656726e-04 1.75131345e-03 8.75656726e-04 8.75656726e-04 0. 0.
      0. 0. 1.75131345e-03 8.75656726e-04 1.75131345e-03 1.75131345e-03
      0. 0. 2.62697018e-03 8.75656726e-04 0. 8.75656726e-04
      8.75656726e-04 0. 1.75131345e-03 8.75656726e-04 0. 8.75656726e-04
      0. 8.75656726e-04 0. 8.75656726e-04 8.75656726e-04 7.00525381e-03
      0. 0. 1.75131345e-03 2.62697018e-03 8.75656726e-04 1.75131345e-03
      0. 0. 0. 0. 0. 1.75131345e-03 0. 0. 0. 1.75131345e-03
      8.75656726e-04 8.75656726e-04 1.75131345e-03 1.75131345e-03 0. 0.
      1.75131345e-03 8.75656726e-04 2.62697018e-03 2.62697018e-03 0. 0.
      0. 8.75656726e-04 8.75656726e-04 0. 1.75131345e-03 1.75131345e-03
      0. 1.75131345e-03 0. 0. 2.62697018e-03 0. 8.75656726e-04 0.
      8.75656726e-04 8.75656726e-04 8.75656726e-04 1.75131345e-03
      5.25394036e-03 1.75131345e-03 1.75131345e-03 8.75656726e-04
      8.75656726e-04 8.75656726e-04 0. 1.75131345e-03 1.75131345e-03 0.
      0. 1.75131345e-03 8.75656726e-04 0. 0. 1.75131345e-03
      8.75656726e-04 0. 8.75656726e-04 8.75656726e-04 0. 0.
      1.75131345e-03 0. 8.75656726e-04 0. 8.75656726e-04 6.12959731e-03
      0. 8.75656726e-04 0. 8.75656726e-04 1.75131345e-03 8.75656726e-04
      0. 1.75131345e-03 1.75131345e-03 8.75656726e-04 3.50262690e-03
      8.75656726e-04 8.75656726e-04 8.75656726e-04 0. 0. 2.62697018e-03
      2.62697018e-03 0. 8.75656726e-04 8.75656726e-04 1.75131345e-03 0.
      8.75656726e-04 0. 0. 0. 8.75656726e-04 3.50262690e-03 0.
      1.75131345e-03 8.75656726e-04 0. 0. 1.75131345e-03 8.75656726e-04
      1.75131345e-03 2.62697018e-03 8.75656726e-04 0. 0. 1.75131345e-03
      8.75656726e-04 1.75131345e-03 0. 8.75656726e-04 1.75131345e-03 0.
      0. 0. 1.75131345e-03 8.75656726e-04 1.75131345e-03 8.75656726e-04
      8.75656726e-04 8.75656726e-04 0. 8.75656726e-04 0. 8.75656726e-04
      2.62697018e-03 2.62697018e-03 0. 0. 0. 0. 8.75656726e-04
      8.75656726e-04 1.13835372e-02 0. 1.75131345e-03 0. 1.75131345e-03
      8.75656726e-04 1.75131345e-03 7.88091030e-03 0. 0. 0. 0.
      1.75131345e-03 0. 8.75656726e-04 0. 0. 2.62697018e-03
      8.75656726e-04 2.62697018e-03 0. 8.75656726e-04 0. 0. 0. 0.
      1.75131345e-03 8.75656726e-04 0. 8.75656726e-04 8.75656726e-04 0.
      8.75656726e-04 8.75656726e-04 8.75656726e-04 8.75656726e-04
      8.75656726e-04 1.75131345e-03 6.12959731e-03 0. 0. 8.75656726e-04
      0. 1.75131345e-03 8.75656726e-04 8.75656726e-04 8.75656726e-04
      1.75131345e-03 0. 1.75131345e-03 6.12959731e-03 8.75656726e-04
      8.75656726e-04 8.75656726e-04 0. 1.75131345e-03 8.75656726e-04
      8.75656726e-04 2.62697018e-03 8.75656726e-04 0. 8.75656726e-04 0.
      1.75131345e-03 0. 0. 0. 6.12959731e-03 0. 2.62697018e-03 0. 0.
      2.62697018e-03 2.62697018e-03 8.75656726e-04 8.75656726e-04
      8.75656726e-04 1.75131345e-03 3.50262690e-03 0. 0. 8.75656726e-04
      1.75131345e-03 0. 8.75656726e-04 1.75131345e-03 0. 8.75656726e-04
      8.75656726e-04 8.75656726e-04 0. 0. 1.13835372e-02 3.50262690e-03
      8.75656726e-04 0. 8.75656726e-04 8.75656726e-04 1.75131345e-03 0.
      2.62697018e-03 3.50262690e-03 0. 8.75656726e-04 2.62697018e-03
      8.75656726e-04 8.75656726e-04 8.75656726e-04 8.75656726e-04
      1.75131345e-03 0. 0. 0. 8.75656726e-04 8.75656726e-04 0. 0.
      8.75656726e-04 1.75131345e-03 2.62697018e-03 0. 1.75131345e-03
      8.75656726e-04 1.75131345e-03 1.75131345e-03 8.75656726e-04
      1.75131345e-03 2.62697018e-03 8.75656726e-04 1.75131345e-03 0. 0.
      8.75656726e-04 8.75656726e-04 3.50262690e-03 3.50262690e-03
      8.75656726e-04 1.75131345e-03 3.50262690e-03 0. 0. 2.62697018e-03
      1.75131345e-03 1.75131345e-03 8.75656726e-04 8.75656726e-04 0.
      8.75656726e-04 1.75131345e-03 0. 8.75656726e-04 0. 2.62697018e-03
      0. 0. 8.75656726e-04 0. 8.75656726e-04 3.50262690e-03
      8.75656726e-04 1.75131345e-03 0. 8.75656726e-04 0. 8.75656726e-04
      0. 8.75656726e-04 0. 1.75131345e-03 8.75656726e-04 8.75656726e-04
      0. 1.75131345e-03 0. 1.75131345e-03 0. 8.75656726e-04
      8.75656726e-04 8.75656726e-04 2.62697018e-03 1.75131345e-03 0.
      8.75656726e-04 8.75656726e-04 1.75131345e-03 8.75656726e-04
      8.75656726e-04 0. 8.75656726e-04 0. 0. 2.62697018e-03 0.
      8.75656726e-04 2.62697018e-03 1.75131345e-03 8.75656726e-04 0. 0.
      1.75131345e-03 0. 4.37828340e-03 8.75656726e-04 8.75656726e-04 0.
      8.75656726e-04 1.75131345e-03 8.75656726e-04 8.75656726e-04 0.
      3.50262690e-03 1.75131345e-03 8.75656726e-04 4.37828340e-03
      8.75656726e-04 8.75656726e-04 0. 0. 2.62697018e-03 0.
      8.75656726e-04 0. 1.75131345e-03 8.75656726e-04 0. 0. 0.
      2.62697018e-03 1.75131345e-03 1.75131345e-03 8.75656726e-04 0.
      8.75656726e-04 0. 0. 0. 0. 4.37828340e-03 0. 8.75656726e-04 0.
      8.75656726e-04 8.75656726e-04 8.75656726e-04 2.62697018e-03
      8.75656726e-04 0. 3.50262690e-03 0. 8.75656726e-04 1.75131345e-03
      0. 0. 0. 8.75656726e-04 8.75656726e-04 2.62697018e-03 0. 0.
      8.75656726e-04 2.62697018e-03 2.62697018e-03 0. 8.75656726e-04 0.
      0. 8.75656726e-04 0. 0. 1.75131345e-03 8.75656726e-04
      2.62697018e-03 8.75656726e-04 8.75656726e-04 1.75131345e-03
      8.75656726e-04 0. 0. 8.75656726e-04 0. 8.75656726e-04
      8.75656726e-04 0. 8.75656726e-04 8.75656726e-04 0. 8.75656726e-04
      0. 1.75131345e-03 0. 8.75656726e-04 2.62697018e-03 0. 0.
      1.75131345e-03 0. 0. 8.75656726e-04 1.75131345e-03 8.75656726e-04
      8.75656726e-04 8.75656726e-04 8.75656726e-04 0. 8.75656726e-04 0.
      0. 0. 8.75656726e-04 0. 8.75656726e-04 1.75131345e-03 0. 0.
      2.62697018e-03 0. 0. 0. 3.50262690e-03 0. 0. 0. 8.75656726e-04
      8.75656726e-04 8.75656726e-04 2.62697018e-03 8.75656726e-04 0.
      3.50262690e-03 0. 8.75656726e-04 0. 0. 1.75131345e-03
      8.75656726e-04 0. 0. 0. 0. 0. 0. 8.75656726e-04 8.75656726e-04 0.
      8.75656726e-04 8.75656726e-04 0. 0. 1.75131345e-03 1.75131345e-03
      0. 1.75131345e-03 0. 8.75656726e-04 8.75656726e-04 0. 0.
      8.75656726e-04 0. 8.75656726e-04 8.75656726e-04 8.75656726e-04
      2.62697018e-03 8.75656726e-04 8.75656726e-04 8.75656726e-04
      8.75656726e-04 1.75131345e-03 0. 8.75656726e-04 1.75131345e-03
      3.50262690e-03 0. 0. 0. 0. 8.75656726e-04 0. 8.75656726e-04
      2.62697018e-03 0. 8.75656726e-04 8.75656726e-04 8.75656726e-04 0.
      8.75656726e-04 0. 0. 0. 0. 1.75131345e-03 0. 8.75656726e-04
      8.75656726e-04 5.25394036e-03 8.75656726e-04 8.75656726e-04
      1.75131345e-03 0. 1.75131345e-03 8.75656726e-04 8.75656726e-04
      8.75656726e-04 1.75131345e-03 0. 0. 8.75656726e-04 8.75656726e-04
      1.75131345e-03 8.75656726e-04 8.75656726e-04 1.75131345e-03 0.
      8.75656726e-04 0. 3.50262690e-03 8.75656726e-04 0. 8.75656726e-04
      1.75131345e-03 8.75656726e-04 0. 0. 1.75131345e-03 8.75656726e-04
      8.75656726e-04 0. 0. 1.75131345e-03 8.75656726e-04 1.75131345e-03
      2.62697018e-03 8.75656726e-04 0. 1.75131345e-03 0. 1.75131345e-03
      0. 8.75656726e-04 0. 0. 0. 8.75656726e-04 0. 0. 0. 0. 0.
      8.75656726e-04 8.75656726e-04 0. 0. 8.75656726e-04 8.75656726e-04
      1.75131345e-03 8.75656726e-04 0. 8.75656726e-04 2.62697018e-03
      3.50262690e-03 3.50262690e-03 0. 0. 0. 5.25394036e-03
      8.75656726e-04 1.75131345e-03 1.75131345e-03 8.75656726e-04
      1.75131345e-03 8.75656726e-04 1.75131345e-03 0. 0. 8.75656726e-04
      0.</_>
    <_>
      0. 0. 0. 0. 0. 0. 6.21118024e-03 0. 0. 0. 6.21118024e-03 0. 0. 0.
      0. 0. 1.86335407e-02 0. 0. 0. 0. 0. 0. 0. 0. 1.86335407e-02 0. 0.
      1.24223605e-02 0. 0. 0. 6.21118024e-03 6.21118024e-03 0. 0. 0.
      6.21118024e-03 6.21118024e-03 0. 0. 0. 0. 1.24223605e-02 0.
      6.21118024e-03 0. 0. 0. 0. 0. 0. 0. 0. 0. 0. 0. 0. 1.24223605e-02
      0. 6.21118024e-03 0. 0. 0. 0. 0. 0. 6.21118024e-03 6.21118024e-03
      0. 0. 0. 0. 0. 0. 0. 0. 0. 0. 0. 6.21118024e-03 0. 0. 0.
      6.21118024e-03 0. 0. 0. 0. 0. 0. 0. 0. 0. 0. 6.21118024e-03 0. 0.
      0. 0. 0. 0. 0. 6.21118024e-03 0. 0. 1.24223605e-02 0. 0. 0. 0. 0.
      0. 0. 0. 0. 0. 0. 0. 0. 0. 0. 0. 0. 0. 0. 0. 0. 0. 0.
      6.21118024e-03 0. 0. 0. 0. 0. 0. 0. 0. 0. 0. 0. 1.24223605e-02
      6.21118024e-03 6.21118024e-03 0. 0. 0. 0. 0. 0. 0. 0. 0. 0. 0. 0.
      0. 0. 0. 0. 6.21118024e-03 0. 0. 0. 0. 1.86335407e-02 0. 0. 0. 0.
      0. 6.21118024e-03 0. 0. 0. 0. 0. 0. 0. 0. 0. 0. 0. 0. 0. 0.
      6.21118024e-03 0. 0. 0. 0. 0. 0. 0. 0. 0. 0. 1.24223605e-02 0. 0.
      0. 0. 0. 0. 0. 0. 0. 0. 0. 0. 0. 0. 0. 0. 0. 0. 0. 0. 0. 0. 0. 0.
      0. 0. 6.21118024e-03 0. 0. 6.21118024e-03 0. 1.24223605e-02
      2.48447210e-02 6.21118024e-03 0. 0. 0. 0. 1.86335407e-02
      6.21118024e-03 0. 0. 0. 6.21118024e-03 0. 0. 0. 0. 0. 0. 0. 0. 0.
      0. 0. 0. 0. 1.24223605e-02 0. 0. 0. 0. 6.21118024e-03 0.
      6.21118024e-03 0. 0. 0. 6.21118024e-03 0. 0. 0. 0. 0. 0. 0.
      6.21118024e-03 0. 0. 6.21118024e-03 0. 0. 0. 0. 1.24223605e-02 0.
      0. 0. 0. 0. 0. 0. 0. 0. 0. 6.21118024e-03 0. 0. 0. 6.21118024e-03
      0. 0. 0. 0. 0. 0. 0. 1.86335407e-02 0. 6.21118024e-03 0. 0. 0.
      6.21118024e-03 0. 0. 0. 0. 0. 0. 0. 6.21118024e-03 0. 0. 0.
      6.21118024e-03 0. 0. 0. 0. 0. 0. 0. 0. 0. 0. 0. 0. 0. 0. 0. 0. 0.
      0. 0. 6.21118024e-03 0. 0. 0. 0. 0. 0. 0. 0. 6.21118024e-03 0. 0.
      0. 0. 6.21118024e-03 0. 0. 0. 0. 0. 0. 0. 0. 0. 0. 0. 0. 0. 0. 0.
      0. 0. 0. 0. 0. 0. 2.48447210e-02 0. 0. 0. 0. 0. 0. 0. 0. 0. 0. 0.
      0. 6.21118024e-03 6.21118024e-03 0. 6.21118024e-03 0. 0. 0. 0. 0.
      0. 0. 0. 0. 0. 0. 0. 0. 0. 0. 0. 0. 0. 6.21118024e-03 0. 0. 0. 0.
      0. 0. 0. 0. 0. 0. 0. 0. 0. 0. 6.21118024e-03 0. 0. 0. 0. 0.
      6.21118024e-03 0. 6.21118024e-03 0. 0. 0. 0. 0. 0. 0. 0. 0. 0. 0.
      0. 0. 0. 0. 0. 1.86335407e-02 0. 0. 0. 0. 0. 0. 0. 0. 0. 0. 0.
      6.21118024e-03 0. 0. 0. 0. 6.21118024e-03 0. 0. 0. 0. 0. 0. 0. 0.
      0. 0. 6.21118024e-03 0. 0. 1.24223605e-02 0. 0. 0. 0. 0. 0. 0. 0.
      0. 0. 0. 0. 0. 0. 0. 0. 0. 0. 0. 0. 0. 0. 0. 0. 0. 0. 0. 0. 0. 0.
      6.21118024e-03 0. 0. 0. 0. 0. 6.21118024e-03 0. 0. 0. 0. 0. 0. 0.
      6.21118024e-03 0. 0. 0. 0. 6.21118024e-03 0. 0. 0. 0.
      1.86335407e-02 0. 0. 0. 0. 0. 0. 0. 0. 0. 0. 0. 0. 6.21118024e-03
      0. 0. 0. 0. 6.21118024e-03 0. 0. 6.21118024e-03 0. 0. 0.
      6.21118024e-03 0. 0. 0. 0. 0. 0. 0. 6.21118024e-03 0. 0. 0. 0. 0.
      0. 0. 0. 0. 0. 0. 0. 0. 0. 0. 6.21118024e-03 0. 0. 6.21118024e-03
      0. 0. 6.21118024e-03 0. 0. 0. 0. 0. 0. 0. 6.21118024e-03 0. 0. 0.
      0. 0. 0. 6.21118024e-03 0. 0. 0. 0. 6.21118024e-03 0. 0. 0. 0.
      6.21118024e-03 0. 0. 0. 0. 0. 0. 0. 0. 0. 0. 0. 0. 0. 0. 0. 0. 0.
      0. 0. 0. 0. 0. 0. 0. 0. 0. 6.21118024e-03 0. 0. 0. 0.
      6.21118024e-03 0. 0. 6.21118024e-03 0. 0. 0. 0. 0. 0.
      6.21118024e-03 0. 0. 0. 0. 0. 0. 0. 0. 0. 0. 0. 0. 0. 0. 0. 0. 0.
      6.21118024e-03 0. 0. 0. 0. 0. 0. 0. 1.24223605e-02 0. 0. 0. 0. 0.
      0. 6.21118024e-03 0. 0. 0. 6.21118024e-03 0. 0. 0. 0. 0. 0. 0. 0.
      0. 0. 0. 0. 0. 0. 0. 0. 1.24223605e-02 0. 0. 0. 2.48447210e-02 0.
      0. 0. 0. 0. 6.21118024e-03 6.21118024e-03 0. 0. 0. 0. 0. 0. 0. 0.
      0. 0. 0. 0. 0. 0. 0. 0. 0. 0. 0. 0. 0. 0. 0. 1.24223605e-02 0. 0.
      0. 0. 6.21118024e-03 0. 0. 0. 6.21118024e-03 0. 0. 0. 0. 0. 0. 0.
      6.21118024e-03 0. 6.21118024e-03 0. 1.24223605e-02 0. 0. 0. 0. 0.
      0. 0. 0. 0. 0. 0. 0. 0. 0. 0. 0. 0. 0. 0. 0. 0. 0. 0. 0. 0. 0. 0.
      0. 0. 0. 0. 0. 0. 0. 0. 0. 0. 0. 6.21118024e-03 0. 0. 0. 0. 0. 0.
      0. 0. 0. 0. 0. 0. 0. 0. 0. 0. 0. 6.21118024e-03 0. 0. 0. 0.
      6.21118024e-03 0. 0. 0. 0. 0. 0. 0. 0. 0. 0. 0. 0. 0. 0. 0. 0. 0.
      0. 0. 0. 0. 0. 0. 0. 0. 0. 0. 0. 0. 0. 0. 0. 0. 0. 0. 0. 0. 0. 0.
      0. 0. 0. 0. 0. 0. 0. 0. 0. 0. 0. 0. 0. 0. 0. 6.21118024e-03 0. 0.
      0. 0. 6.21118024e-03 0. 0. 0. 0. 0. 0. 0. 0. 0. 0. 0.
      6.21118024e-03 0. 0. 0. 0. 0. 0. 0. 6.21118024e-03 0. 0.
      1.24223605e-02 6.21118024e-03 0. 0. 0. 0. 0. 6.21118024e-03
      6.21118024e-03 0. 0. 0. 0. 0. 0. 6.21118024e-03 0. 6.21118024e-03
      0. 0. 0. 6.21118024e-03 0. 0. 0. 0. 6.21118024e-03 0.
      6.21118024e-03 0. 0. 0. 0. 0. 0. 0. 0. 0. 0. 0. 0. 0. 0. 0. 0. 0.
      0. 0. 0. 6.21118024e-03 0. 0. 0. 0. 6.21118024e-03 0. 0. 0. 0.
      6.21118024e-03 0. 6.21118024e-03 0. 0. 0. 6.21118024e-03 0. 0. 0.
      0. 0. 0. 0. 0. 0. 0. 0. 0. 0. 0. 0. 0.</_>
    <_>
      2.71002715e-03 0. 2.71002715e-03 0. 2.71002715e-03 2.71002715e-03
      0. 2.71002715e-03 0. 2.71002715e-03 2.71002715e-03 0. 0. 0. 0.
      5.42005431e-03 2.71002715e-03 0. 2.71002715e-03 0. 0. 0. 0. 0. 0.
      0. 2.71002715e-03 0. 0. 0. 0. 0. 5.42005431e-03 0. 2.71002715e-03
      0. 0. 0. 0. 2.71002715e-03 0. 0. 2.71002715e-03 2.71002715e-03 0.
      2.71002715e-03 0. 0. 2.71002715e-03 5.42005431e-03 0. 0. 0. 0. 0.
      0. 0. 0. 2.71002715e-03 0. 2.71002715e-03 0. 0. 0. 0. 0. 0.
      2.71002715e-03 0. 0. 0. 0. 0. 0. 0. 0. 0. 0. 0. 0. 0. 0. 0. 0. 0.
      0. 0. 0. 2.71002715e-03 0. 0. 0. 0. 5.42005431e-03 0. 0.
      2.71002715e-03 0. 0. 2.71002715e-03 0. 0. 0. 0. 2.71002715e-03 0.
      5.42005431e-03 0. 0. 0. 2.71002715e-03 2.71002715e-03 0. 0. 0.
      5.42005431e-03 0. 0. 0. 0. 2.71002715e-03 2.71002715e-03 0.
      2.71002715e-03 0. 0. 2.71002715e-03 0. 0. 0. 0. 2.71002715e-03 0.
      0. 0. 0. 0. 2.71002715e-03 8.13008100e-03 0. 0. 2.71002715e-03 0.
      0. 0. 0. 2.71002715e-03 5.42005431e-03 0. 0. 2.71002715e-03 0.
      5.42005431e-03 0. 0. 0. 2.71002715e-03 0. 0. 2.71002715e-03 0. 0.
      0. 2.71002715e-03 0. 0. 0. 0. 0. 0. 2.71002715e-03 0. 0. 0. 0. 0.
      0. 0. 0. 2.71002715e-03 0. 0. 0. 2.71002715e-03 2.71002715e-03 0.
      0. 0. 0. 2.71002715e-03 0. 8.13008100e-03 0. 1.08401086e-02 0.
      5.42005431e-03 0. 0. 0. 0. 0. 5.42005431e-03 0. 0. 0. 0. 0. 0. 0.
      0. 2.71002715e-03 0. 0. 0. 2.71002715e-03 0. 0. 0. 2.71002715e-03
      0. 2.71002715e-03 0. 0. 0. 0. 0. 0. 0. 2.71002715e-03 0. 0. 0. 0.
      0. 0. 0. 0. 0. 5.42005431e-03 2.71002715e-03 8.13008100e-03 0.
      2.71002715e-03 0. 2.71002715e-03 0. 2.71002715e-03 0.
      2.71002715e-03 0. 0. 0. 0. 0. 0. 0. 0. 2.71002715e-03 0. 0. 0. 0.
      0. 0. 0. 5.42005431e-03 0. 2.71002715e-03 0. 0. 0. 0. 0. 0.
      2.71002715e-03 2.71002715e-03 0. 2.71002715e-03 5.42005431e-03 0.
      0. 0. 2.71002715e-03 2.71002715e-03 0. 2.71002715e-03 0. 0. 0.
      2.71002715e-03 0. 2.71002715e-03 0. 0. 0. 0. 0. 0. 2.71002715e-03
      0. 0. 0. 2.71002715e-03 2.71002715e-03 0. 2.71002715e-03 0. 0. 0.
      2.71002715e-03 0. 0. 5.42005431e-03 0. 0. 5.42005431e-03 0.
      2.71002715e-03 0. 2.71002715e-03 0. 5.42005431e-03 0. 0.
      2.71002715e-03 0. 5.42005431e-03 0. 0. 0. 0. 0. 0. 0. 0. 0.
      2.71002715e-03 0. 0. 0. 2.71002715e-03 2.71002715e-03 0. 0.
      2.71002715e-03 0. 2.71002715e-03 0. 0. 0. 2.71002715e-03 0.
      2.71002715e-03 0. 0. 2.71002715e-03 0. 2.71002715e-03
      2.71002715e-03 0. 2.71002715e-03 2.71002715e-03 0. 0. 0. 0. 0.
      2.71002715e-03 2.71002715e-03 0. 2.71002715e-03 0. 0. 0. 0. 0. 0.
      0. 0. 0. 0. 2.71002715e-03 0. 0. 8.13008100e-03 2.71002715e-03 0.
      2.71002715e-03 0. 2.71002715e-03 2.71002715e-03 2.71002715e-03 0.
      0. 0. 0. 2.71002715e-03 2.71002715e-03 0. 0. 2.71002715e-03 0. 0.
      0. 2.71002715e-03 0. 2.71002715e-03 2.71002715e-03 0. 0. 0. 0. 0.
      0. 0. 0. 0. 0. 0. 0. 0. 0. 0. 0. 0. 2.71002715e-03 2.71002715e-03
      0. 0. 2.71002715e-03 2.71002715e-03 0. 0. 0. 0. 0. 2.71002715e-03
